{"learner":{"attributes":{"best_iteration":"0","best_score":"0.01302507386335511","scikit_learn":"{\"_estimator_type\": \"regressor\"}"},"feature_names":[],"feature_types":[],"gradient_booster":{"model":{"cats":{"enc":[],"feature_segments":[],"sorted_idx":[]},"gbtree_model_param":{"num_parallel_tree":"1","num_trees":"31"},"iteration_indptr":[0,1,2,3,4,5,6,7,8,9,10,11,12,13,14,15,16,17,18,19,20,21,22,23,24,25,26,27,28,29,30,31],"tree_info":[0,0,0,0,0,0,0,0,0,0,0,0,0,0,0,0,0,0,0,0,0,0,0,0,0,0,0,0,0,0,0],"trees":[{"base_weights":[2.9058459E-3,5.763264E-3,-1.3850652E-2,5.2656005E-3,2.6289816E-3,-3.9692843E-4,-8.0368854E-4,7.8158884E-4,2.0019997E-4],"categories":[],"categories_nodes":[],"categories_segments":[],"categories_sizes":[],"default_left":[0,0,0,0,0,0,0,0,0],"id":0,"left_children":[1,3,5,7,-1,-1,-1,-1,-1],"loss_changes":[4.6463045E-1,1.759907E-1,1.0765314E-2,1.0200074E-1,0E0,0E0,0E0,0E0,0E0],"parents":[2147483647,0,0,1,1,2,2,3,3],"right_children":[2,4,6,8,-1,-1,-1,-1,-1],"split_conditions":[2.8318286E3,6.114651E0,-5.5615854E-1,5.7476835E0,2.6289816E-3,-3.9692843E-4,-8.0368854E-4,7.8158884E-4,2.0019997E-4],"split_indices":[5,8,2,9,0,0,0,0,0],"split_type":[0,0,0,0,0,0,0,0,0],"sum_hessian":[9.744E3,8.342E3,1.402E3,8.265E3,7.7E1,4.25E2,9.77E2,8.66E2,7.399E3],"tree_param":{"num_deleted":"0","num_feature":"30","num_nodes":"9","size_leaf_vector":"1"}},{"base_weights":[1.5231755E-3,6.103514E-3,-1.3991332E-2,5.581058E-3,2.504024E-3,-5.400725E-4,-7.963911E-4,-2.1332133E-4,3.4804374E-4],"categories":[],"categories_nodes":[],"categories_segments":[],"categories_sizes":[],"default_left":[0,0,0,0,0,0,0,0,0],"id":1,"left_children":[1,3,5,7,-1,-1,-1,-1,-1],"loss_changes":[6.8812644E-1,1.5487126E-1,4.8827827E-3,1.020062E-1,0E0,0E0,0E0,0E0,0E0],"parents":[2147483647,0,0,1,1,2,2,3,3],"right_children":[2,4,6,8,-1,-1,-1,-1,-1],"split_conditions":[2.8318286E3,6.114651E0,8.046618E1,-3.637131E0,2.504024E-3,-5.400725E-4,-7.963911E-4,-2.1332133E-4,3.4804374E-4],"split_indices":[5,8,0,11,0,0,0,0,0],"split_type":[0,0,0,0,0,0,0,0,0],"sum_hessian":[9.708E3,7.512E3,2.196E3,7.435E3,7.7E1,8.98E2,1.298E3,8.86E2,6.549E3],"tree_param":{"num_deleted":"0","num_feature":"30","num_nodes":"9","size_leaf_vector":"1"}},{"base_weights":[-3.0194243E-4,3.3883343E-3,-7.098233E-4,9.784603E-4,2.5541696E-3,2.1383322E-4,-1.302968E-4],"categories":[],"categories_nodes":[],"categories_segments":[],"categories_sizes":[],"default_left":[0,0,0,0,0,0,0],"id":2,"left_children":[1,3,-1,-1,5,-1,-1],"loss_changes":[5.380755E-1,1.04180105E-1,0E0,0E0,7.0265286E-2,0E0,0E0],"parents":[2147483647,0,0,1,1,4,4],"right_children":[2,4,-1,-1,6,-1,-1],"split_conditions":[2.7023635E3,5.6951613E0,-7.098233E-4,9.784603E-4,2.822847E-1,2.1383322E-4,-1.302968E-4],"split_indices":[5,9,0,0,16,0,0],"split_type":[0,0,0,0,0,0,0],"sum_hessian":[1.0423E4,8.221E3,2.202E3,3.81E2,7.84E3,5.922E3,1.918E3],"tree_param":{"num_deleted":"0","num_feature":"30","num_nodes":"7","size_leaf_vector":"1"}},{"base_weights":[1.3016592E-3,4.5923735E-3,-1.2671096E-2,2.6493197E-2,3.943547E-3,-4.7785486E-4,-7.433914E-4,6.352963E-4,2.4187441E-3,1.34469E-4,7.237273E-4],"categories":[],"categories_nodes":[],"categories_segments":[],"categories_sizes":[],"default_left":[0,0,0,0,0,0,0,0,0,0,0],"id":3,"left_children":[1,3,5,7,9,-1,-1,-1,-1,-1,-1],"loss_changes":[4.882815E-1,1.1342293E-1,5.9016645E-3,5.0114006E-2,1.05943024E-1,0E0,0E0,0E0,0E0,0E0,0E0],"parents":[2147483647,0,0,1,1,2,2,3,3,4,4],"right_children":[2,4,6,8,10,-1,-1,-1,-1,-1,-1],"split_conditions":[1.0772716E0,3.9468754E-2,8.046618E1,8.388289E1,1.6994377E0,-4.7785486E-4,-7.433914E-4,6.352963E-4,2.4187441E-3,1.34469E-4,7.237273E-4],"split_indices":[18,26,0,0,16,0,0,0,0,0,0],"split_type":[0,0,0,0,0,0,0,0,0,0,0],"sum_hessian":[1.0663E4,8.65E3,2.013E3,2.31E2,8.419E3,8.98E2,1.115E3,1.54E2,7.7E1,7.553E3,8.66E2],"tree_param":{"num_deleted":"0","num_feature":"30","num_nodes":"11","size_leaf_vector":"1"}},{"base_weights":[-0E0,-1.0277947E-2,4.845575E-3,-1.2024816E-2,-1.9060238E-4,1.1964215E-3,1.0411047E-2,-2.057941E-4,-6.1795407E-4,-3.270987E-4,1.790116E-4,2.303779E-3,4.6607564E-4],"categories":[],"categories_nodes":[],"categories_segments":[],"categories_sizes":[],"default_left":[0,0,0,0,0,0,0,0,0,0,0,0,0],"id":4,"left_children":[1,3,5,7,-1,9,11,-1,-1,-1,-1,-1,-1],"loss_changes":[5.7000387E-1,3.6518544E-2,1.5416938E-1,2.3911595E-3,0E0,8.640351E-2,9.986818E-2,0E0,0E0,0E0,0E0,0E0,0E0],"parents":[2147483647,0,0,1,1,2,2,3,3,5,5,6,6],"right_children":[2,4,6,8,-1,10,12,-1,-1,-1,-1,-1,-1],"split_conditions":[-3.637131E0,7.3897195E-1,5.619685E1,7.921787E1,-1.9060238E-4,-5.992377E-1,-2.0847814E0,-2.057941E-4,-6.1795407E-4,-3.270987E-4,1.790116E-4,2.303779E-3,4.6607564E-4],"split_indices":[11,22,6,0,0,20,7,0,0,0,0,0,0],"split_type":[0,0,0,0,0,0,0,0,0,0,0,0,0],"sum_hessian":[1.1427E4,3.666E3,7.761E3,2.847E3,8.19E2,4.723E3,3.038E3,1.54E2,2.693E3,1.081E3,3.642E3,7.7E1,2.961E3],"tree_param":{"num_deleted":"0","num_feature":"30","num_nodes":"13","size_leaf_vector":"1"}},{"base_weights":[-0E0,3.9718915E-3,-1.1533056E-2,-3.8784486E-3,5.2434695E-3,-6.037177E-4,-3.1187964E-4,-2.2160429E-4,-0E0,1.2983645E-4,4.458923E-4],"categories":[],"categories_nodes":[],"categories_segments":[],"categories_sizes":[],"default_left":[0,0,0,0,0,0,0,0,0,0,0],"id":5,"left_children":[1,3,5,7,9,-1,-1,-1,-1,-1,-1],"loss_changes":[5.5483735E-1,8.9902475E-2,3.1168163E-3,2.1075215E-3,7.175462E-2,0E0,0E0,0E0,0E0,0E0,0E0],"parents":[2147483647,0,0,1,1,2,2,3,3,4,4],"right_children":[2,4,6,8,10,-1,-1,-1,-1,-1,-1],"split_conditions":[2.8318286E3,-3.637131E0,3.1159622E3,-8.669663E-1,-1.6767162E-1,-6.037177E-4,-3.1187964E-4,-2.2160429E-4,-0E0,1.2983645E-4,4.458923E-4],"split_indices":[5,11,5,1,29,0,0,0,0,0,0],"split_type":[0,0,0,0,0,0,0,0,0,0,0],"sum_hessian":[1.2058E4,8.953E3,3.105E3,1.214E3,7.739E3,2.761E3,3.44E2,1.036E3,1.78E2,4.55E3,3.189E3],"tree_param":{"num_deleted":"0","num_feature":"30","num_nodes":"11","size_leaf_vector":"1"}},{"base_weights":[4.889468E-4,4.674936E-3,-1.0839481E-2,1.8472094E-3,1.0479647E-2,-4.0436658E-4,-6.2412E-4,-1.6444972E-4,1.9822657E-4,2.1730845E-3,4.4301874E-4],"categories":[],"categories_nodes":[],"categories_segments":[],"categories_sizes":[],"default_left":[0,0,0,0,0,0,0,0,0,0,0],"id":6,"left_children":[1,3,5,7,9,-1,-1,-1,-1,-1,-1],"loss_changes":[3.881987E-1,9.511967E-2,3.3727288E-3,4.4744432E-2,8.626558E-2,0E0,0E0,0E0,0E0,0E0,0E0],"parents":[2147483647,0,0,1,1,2,2,3,3,4,4],"right_children":[2,4,6,8,10,-1,-1,-1,-1,-1,-1],"split_conditions":[1.0772716E0,3.7818139E0,8.046618E1,-3.637131E0,7.0899687E0,-4.0436658E-4,-6.2412E-4,-1.6444972E-4,1.9822657E-4,2.1730845E-3,4.4301874E-4],"split_indices":[18,11,0,11,12,0,0,0,0,0,0],"split_type":[0,0,0,0,0,0,0,0,0,0,0],"sum_hessian":[8.217E3,6.021E3,2.196E3,4.087E3,1.934E3,8.98E2,1.298E3,1.151E3,2.936E3,7.7E1,1.857E3],"tree_param":{"num_deleted":"0","num_feature":"30","num_nodes":"11","size_leaf_vector":"1"}},{"base_weights":[-1.5396747E-3,2.4249668E-3,-1.0402562E-2,8.7198796E-4,1.0946777E-3,-2.7647903E-4,-5.4461614E-4,6.974489E-4,-5.677331E-6],"categories":[],"categories_nodes":[],"categories_segments":[],"categories_sizes":[],"default_left":[0,0,0,0,0,0,0,0,0],"id":7,"left_children":[1,3,5,-1,7,-1,-1,-1,-1],"loss_changes":[3.532083E-1,1.3170463E-1,2.2524E-3,0E0,1.026072E-1,0E0,0E0,0E0,0E0],"parents":[2147483647,0,0,1,1,2,2,4,4],"right_children":[2,4,6,-1,8,-1,-1,-1,-1],"split_conditions":[1.0772716E0,5.2514596E0,7.9057144E1,8.7198796E-4,7.0899687E0,-2.7647903E-4,-5.4461614E-4,6.974489E-4,-5.677331E-6],"split_indices":[18,8,0,0,12,0,0,0,0],"split_type":[0,0,0,0,0,0,0,0,0],"sum_hessian":[9.977E3,6.872E3,3.105E3,5.37E2,6.335E3,3.44E2,2.761E3,5.62E2,5.773E3],"tree_param":{"num_deleted":"0","num_feature":"30","num_nodes":"9","size_leaf_vector":"1"}},{"base_weights":[-2.3817662E-3,1.3455772E-3,-9.431454E-3,8.7797595E-3,3.571485E-4,-5.01842E-4,-2.3747122E-4,-1.7667415E-4,6.565444E-4,8.813631E-4,1.3739523E-6],"categories":[],"categories_nodes":[],"categories_segments":[],"categories_sizes":[],"default_left":[0,0,0,0,0,0,0,0,0,0,0],"id":8,"left_children":[1,3,5,7,9,-1,-1,-1,-1,-1,-1],"loss_changes":[2.4230312E-1,4.0938538E-2,4.4011176E-3,3.8532462E-2,2.4808493E-2,0E0,0E0,0E0,0E0,0E0,0E0],"parents":[2147483647,0,0,1,1,2,2,3,3,4,4],"right_children":[2,4,6,8,10,-1,-1,-1,-1,-1,-1],"split_conditions":[8.143194E-1,-1.1907799E0,-7.232397E-1,-1.0517741E0,2.0298958E0,-5.01842E-4,-2.3747122E-4,-1.7667415E-4,6.565444E-4,8.813631E-4,1.3739523E-6],"split_indices":[18,18,1,1,28,0,0,0,0,0,0],"split_type":[0,0,0,0,0,0,0,0,0,0,0],"sum_hessian":[9.123E3,5.942E3,3.181E3,6.58E2,5.284E3,2.756E3,4.25E2,1.54E2,5.04E2,7.8E1,5.206E3],"tree_param":{"num_deleted":"0","num_feature":"30","num_nodes":"11","size_leaf_vector":"1"}},{"base_weights":[5.181901E-4,2.8511712E-3,-8.706586E-3,1.7471308E-3,1.1902958E-2,-4.1054058E-4,-8.89321E-4,3.3891347E-4,-4.4934745E-6,7.8397535E-4,4.1093692E-4],"categories":[],"categories_nodes":[],"categories_segments":[],"categories_sizes":[],"default_left":[0,0,0,0,0,0,0,0,0,0,0],"id":9,"left_children":[1,3,5,7,9,-1,-1,-1,-1,-1,-1],"loss_changes":[2.2085065E-1,7.857827E-2,8.9888275E-4,7.0539884E-2,4.4199303E-3,0E0,0E0,0E0,0E0,0E0,0E0],"parents":[2147483647,0,0,1,1,2,2,3,3,4,4],"right_children":[2,4,6,8,10,-1,-1,-1,-1,-1,-1],"split_conditions":[2.8318286E3,1.6994377E0,1.4810294E0,2.2551606E3,8.240403E1,-4.1054058E-4,-8.89321E-4,3.3891347E-4,-4.4934745E-6,7.8397535E-4,4.1093692E-4],"split_indices":[5,17,1,5,0,0,0,0,0,0,0],"split_type":[0,0,0,0,0,0,0,0,0,0,0],"sum_hessian":[1.0335E4,8.277E3,2.058E3,7.411E3,8.66E2,1.99E3,6.8E1,2.023E3,5.388E3,3.81E2,4.85E2],"tree_param":{"num_deleted":"0","num_feature":"30","num_nodes":"11","size_leaf_vector":"1"}},{"base_weights":[-2.3105856E-4,2.6309546E-3,-9.001669E-3,1.7101684E-3,1.1330544E-2,-3.218653E-4,-4.9479277E-4,4.3136577E-4,3.1120104E-5,7.451838E-4,3.9055813E-4],"categories":[],"categories_nodes":[],"categories_segments":[],"categories_sizes":[],"default_left":[0,0,0,0,0,0,0,0,0,0,0],"id":10,"left_children":[1,3,5,7,9,-1,-1,-1,-1,-1,-1],"loss_changes":[3.164788E-1,7.149285E-2,1.9742548E-3,6.1588522E-2,3.6603287E-3,0E0,0E0,0E0,0E0,0E0,0E0],"parents":[2147483647,0,0,1,1,2,2,3,3,4,4],"right_children":[2,4,6,8,10,-1,-1,-1,-1,-1,-1],"split_conditions":[1.0772716E0,1.6994377E0,8.046618E1,2.2113953E3,8.240403E1,-3.218653E-4,-4.9479277E-4,4.3136577E-4,3.1120104E-5,7.451838E-4,3.9055813E-4],"split_indices":[18,16,0,5,0,0,0,0,0,0,0],"split_type":[0,0,0,0,0,0,0,0,0,0,0],"sum_hessian":[1.2524E4,9.419E3,3.105E3,8.553E3,8.66E2,8.98E2,2.207E3,1.121E3,7.432E3,3.81E2,4.85E2],"tree_param":{"num_deleted":"0","num_feature":"30","num_nodes":"11","size_leaf_vector":"1"}},{"base_weights":[3.1346135E-4,-7.4589276E-3,3.449844E-3,-4.3971976E-4,-3.2309724E-3,3.0626769E-3,2.0353147E-3,-1.9557036E-4,-0E0,5.015741E-4,7.00723E-5],"categories":[],"categories_nodes":[],"categories_segments":[],"categories_sizes":[],"default_left":[0,0,0,0,0,0,0,0,0,0,0],"id":11,"left_children":[1,3,5,-1,7,9,-1,-1,-1,-1,-1],"loss_changes":[2.9491237E-1,1.5843153E-2,1.1160384E-1,0E0,1.611813E-3,9.613219E-2,0E0,0E0,0E0,0E0,0E0],"parents":[2147483647,0,0,1,1,2,2,4,4,5,5],"right_children":[2,4,6,-1,8,10,-1,-1,-1,-1,-1],"split_conditions":[-3.7437727E0,-1.2749444E0,6.114651E0,-4.3971976E-4,-8.669663E-1,1.7067966E-1,2.0353147E-3,-1.9557036E-4,-0E0,5.015741E-4,7.00723E-5],"split_indices":[11,1,8,0,1,25,0,0,0,0,0],"split_type":[0,0,0,0,0,0,0,0,0,0,0],"sum_hessian":[1.2139E4,3.461E3,8.678E3,2.573E3,8.88E2,8.601E3,7.7E1,7.1E2,1.78E2,1.617E3,6.984E3],"tree_param":{"num_deleted":"0","num_feature":"30","num_nodes":"11","size_leaf_vector":"1"}},{"base_weights":[-2.3390274E-4,3.628107E-3,-8.108574E-3,3.1302918E-3,1.9385746E-3,-2.590315E-4,-4.3369105E-4,-1.7107802E-4,2.3700169E-4],"categories":[],"categories_nodes":[],"categories_segments":[],"categories_sizes":[],"default_left":[0,0,0,0,0,0,0,0,0],"id":12,"left_children":[1,3,5,7,-1,-1,-1,-1,-1],"loss_changes":[2.9381293E-1,9.938378E-2,9.434074E-4,6.743255E-2,0E0,0E0,0E0,0E0,0E0],"parents":[2147483647,0,0,1,1,2,2,3,3],"right_children":[2,4,6,8,-1,-1,-1,-1,-1],"split_conditions":[2.8318286E3,6.114651E0,-5.5615854E-1,-3.637131E0,1.9385746E-3,-2.590315E-4,-4.3369105E-4,-1.7107802E-4,2.3700169E-4],"split_indices":[5,8,2,11,0,0,0,0,0],"split_type":[0,0,0,0,0,0,0,0,0],"sum_hessian":[9.609E3,6.423E3,3.186E3,6.346E3,7.7E1,6.08E2,2.578E3,1.214E3,5.132E3],"tree_param":{"num_deleted":"0","num_feature":"30","num_nodes":"9","size_leaf_vector":"1"}},{"base_weights":[-5.4859417E-4,2.8075147E-3,-7.708716E-3,2.344406E-3,1.8464326E-3,-2.7541816E-4,-8.430306E-3,5.6479254E-5,5.025651E-4,-1.3108814E-6,-4.3012286E-4],"categories":[],"categories_nodes":[],"categories_segments":[],"categories_sizes":[],"default_left":[0,0,0,0,0,0,0,0,0,0,0],"id":13,"left_children":[1,3,5,7,-1,-1,9,-1,-1,-1,-1],"loss_changes":[2.3952751E-1,9.401244E-2,6.9758296E-4,5.8767308E-2,0E0,0E0,7.265061E-4,0E0,0E0,0E0,0E0],"parents":[2147483647,0,0,1,1,2,2,3,3,6,6],"right_children":[2,4,6,8,-1,-1,10,-1,-1,-1,-1],"split_conditions":[2.8318286E3,6.114651E0,8.046618E1,1.6994377E0,1.8464326E-3,-2.7541816E-4,2.8872673E3,5.6479254E-5,5.025651E-4,-1.3108814E-6,-4.3012286E-4],"split_indices":[5,8,0,16,0,0,5,0,0,0,0],"split_type":[0,0,0,0,0,0,0,0,0,0,0],"sum_hessian":[9.899E3,6.713E3,3.186E3,6.636E3,7.7E1,8.98E2,2.288E3,5.77E3,8.66E2,8.1E1,2.207E3],"tree_param":{"num_deleted":"0","num_feature":"30","num_nodes":"11","size_leaf_vector":"1"}},{"base_weights":[-6.48562E-4,1.856947E-3,-7.4274596E-3,6.230327E-4,8.423787E-3,-2.6170834E-4,-4.0865564E-4,2.4175146E-4,-4.2371124E-5,6.468995E-4,3.050647E-4],"categories":[],"categories_nodes":[],"categories_segments":[],"categories_sizes":[],"default_left":[0,0,0,0,0,0,0,0,0,0,0],"id":14,"left_children":[1,3,5,7,9,-1,-1,-1,-1,-1,-1],"loss_changes":[1.9531666E-1,6.4462446E-2,8.9128315E-4,4.471618E-2,7.3188543E-3,0E0,0E0,0E0,0E0,0E0,0E0],"parents":[2147483647,0,0,1,1,2,2,3,3,4,4],"right_children":[2,4,6,8,10,-1,-1,-1,-1,-1,-1],"split_conditions":[2.8318286E3,1.295901E0,8.046618E1,2.2551606E3,8.240403E1,-2.6170834E-4,-4.0865564E-4,2.4175146E-4,-4.2371124E-5,6.468995E-4,3.050647E-4],"split_indices":[5,1,0,5,0,0,0,0,0,0,0],"split_type":[0,0,0,0,0,0,0,0,0,0,0],"sum_hessian":[1.1394E4,8.289E3,3.105E3,7.02E3,1.269E3,8.98E2,2.207E3,1.867E3,5.153E3,3.81E2,8.88E2],"tree_param":{"num_deleted":"0","num_feature":"30","num_nodes":"11","size_leaf_vector":"1"}},{"base_weights":[-4.645957E-4,2.2839757E-3,-6.9667953E-3,1.8796229E-3,1.7606838E-3,-1.7654955E-4,-7.3812953E-3,4.6456853E-4,4.197392E-5,-3.5232745E-4,-7.671802E-4],"categories":[],"categories_nodes":[],"categories_segments":[],"categories_sizes":[],"default_left":[0,0,0,0,0,0,0,0,0,0,0],"id":15,"left_children":[1,3,5,7,-1,-1,9,-1,-1,-1,-1],"loss_changes":[1.9133808E-1,8.764585E-2,1.1650771E-3,5.3677626E-2,0E0,0E0,2.2016466E-4,0E0,0E0,0E0,0E0],"parents":[2147483647,0,0,1,1,2,2,3,3,6,6],"right_children":[2,4,6,8,-1,-1,10,-1,-1,-1,-1],"split_conditions":[2.8318286E3,6.1068697E0,-1.3079412E0,5.7476835E0,1.7606838E-3,-1.7654955E-4,-7.232397E-1,4.6456853E-4,4.197392E-5,-3.5232745E-4,-7.671802E-4],"split_indices":[5,8,7,9,0,0,4,0,0,0,0],"split_type":[0,0,0,0,0,0,0,0,0,0,0],"sum_hessian":[1.062E4,7.434E3,3.186E3,7.357E3,7.7E1,4.25E2,2.761E3,8.66E2,6.491E3,2.693E3,6.8E1],"tree_param":{"num_deleted":"0","num_feature":"30","num_nodes":"11","size_leaf_vector":"1"}},{"base_weights":[-2.1843414E-4,2.2107987E-3,-6.3406425E-3,1.8395802E-3,1.676997E-3,-3.347372E-4,-1.6780436E-4,4.5021505E-5,4.4144687E-4],"categories":[],"categories_nodes":[],"categories_segments":[],"categories_sizes":[],"default_left":[0,0,0,0,0,0,0,0,0],"id":16,"left_children":[1,3,5,7,-1,-1,-1,-1,-1],"loss_changes":[1.6285251E-1,7.9213366E-2,1.9431114E-4,4.7382567E-2,0E0,0E0,0E0,0E0,0E0],"parents":[2147483647,0,0,1,1,2,2,3,3],"right_children":[2,4,6,8,-1,-1,-1,-1,-1],"split_conditions":[2.8318286E3,6.114651E0,-7.232397E-1,1.6994377E0,1.676997E-3,-3.347372E-4,-1.6780436E-4,4.5021505E-5,4.4144687E-4],"split_indices":[5,8,1,16,0,0,0,0,0],"split_type":[0,0,0,0,0,0,0,0,0],"sum_hessian":[1.0859E4,7.741E3,3.118E3,7.664E3,7.7E1,2.693E3,4.25E2,6.798E3,8.66E2],"tree_param":{"num_deleted":"0","num_feature":"30","num_nodes":"9","size_leaf_vector":"1"}},{"base_weights":[2.4420278E-5,-5.4463954E-3,2.6666182E-3,-3.1647153E-4,-2.609914E-3,3.7667897E-4,6.768354E-3,-0E0,-1.5405208E-4,3.0314698E-4,-7.80313E-5,5.313041E-4,6.736828E-5],"categories":[],"categories_nodes":[],"categories_segments":[],"categories_sizes":[],"default_left":[0,0,0,0,0,0,0,0,0,0,0,0,0],"id":17,"left_children":[1,3,5,-1,7,9,11,-1,-1,-1,-1,-1,-1],"loss_changes":[1.7159976E-1,6.890252E-3,7.374892E-2,0E0,9.941258E-4,5.9079446E-2,5.591005E-2,0E0,0E0,0E0,0E0,0E0,0E0],"parents":[2147483647,0,0,1,1,2,2,4,4,5,5,6,6],"right_children":[2,4,6,-1,8,10,12,-1,-1,-1,-1,-1,-1],"split_conditions":[-3.637131E0,7.3897195E-1,5.619685E1,-3.1647153E-4,-4.6326833E0,-4.1138577E-1,3.147797E2,-0E0,-1.5405208E-4,3.0314698E-4,-7.80313E-5,5.313041E-4,6.736828E-5],"split_indices":[11,22,6,0,11,2,6,0,0,0,0,0,0],"split_type":[0,0,0,0,0,0,0,0,0,0,0,0,0],"sum_hessian":[1.1921E4,3.844E3,8.077E3,2.847E3,9.97E2,5.233E3,2.844E3,1.78E2,8.19E2,1.367E3,3.866E3,1.627E3,1.217E3],"tree_param":{"num_deleted":"0","num_feature":"30","num_nodes":"13","size_leaf_vector":"1"}},{"base_weights":[9.559226E-4,3.2295422E-3,-6.359489E-3,2.8324735E-3,1.5720347E-3,-2.1707702E-4,-3.847641E-4,-1.399074E-4,2.008148E-4],"categories":[],"categories_nodes":[],"categories_segments":[],"categories_sizes":[],"default_left":[0,0,0,0,0,0,0,0,0],"id":18,"left_children":[1,3,5,7,-1,-1,-1,-1,-1],"loss_changes":[1.4273123E-1,6.351755E-2,1.6922578E-3,4.4023793E-2,0E0,0E0,0E0,0E0,0E0],"parents":[2147483647,0,0,1,1,2,2,3,3],"right_children":[2,4,6,8,-1,-1,-1,-1,-1],"split_conditions":[2.7501587E3,2.7023635E3,8.046618E1,-3.637131E0,1.5720347E-3,-2.1707702E-4,-3.847641E-4,-1.399074E-4,2.008148E-4],"split_indices":[5,5,0,11,0,0,0,0,0],"split_type":[0,0,0,0,0,0,0,0,0],"sum_hessian":[8.629E3,6.616E3,2.013E3,6.539E3,7.7E1,8.98E2,1.115E3,1.091E3,5.448E3],"tree_param":{"num_deleted":"0","num_feature":"30","num_nodes":"9","size_leaf_vector":"1"}},{"base_weights":[-6.4021244E-4,2.8958863E-3,-5.935888E-3,1.7364649E-3,1.479692E-2,-5.679852E-3,-7.1917404E-4,3.2846272E-4,2.1209531E-5,5.3383474E-4,1.4973144E-3,-2.0704877E-4,-3.1368612E-4],"categories":[],"categories_nodes":[],"categories_segments":[],"categories_sizes":[],"default_left":[0,0,0,0,0,0,0,0,0,0,0,0,0],"id":19,"left_children":[1,3,5,7,9,11,-1,-1,-1,-1,-1,-1,-1],"loss_changes":[1.7275465E-1,7.040019E-2,1.6741902E-3,2.9670306E-2,1.537168E-2,9.8243356E-5,0E0,0E0,0E0,0E0,0E0,0E0,0E0],"parents":[2147483647,0,0,1,1,2,2,3,3,4,4,5,5],"right_children":[2,4,6,8,10,12,-1,-1,-1,-1,-1,-1,-1],"split_conditions":[8.143194E-1,2.6605144E3,1.4810294E0,-5.31282E-1,8.240403E1,-1.4926967E-1,-7.1917404E-4,3.2846272E-4,2.1209531E-5,5.3383474E-4,1.4973144E-3,-2.0704877E-4,-3.1368612E-4],"split_indices":[18,5,1,29,0,2,0,0,0,0,0,0,0],"split_type":[0,0,0,0,0,0,0,0,0,0,0,0,0],"sum_hessian":[9.169E3,5.465E3,3.704E3,5.007E3,4.58E2,3.636E3,6.8E1,1.017E3,3.99E3,3.81E2,7.7E1,1.162E3,2.474E3],"tree_param":{"num_deleted":"0","num_feature":"30","num_nodes":"13","size_leaf_vector":"1"}},{"base_weights":[-4.6468375E-4,1.4803496E-3,-5.480482E-3,1.1681473E-3,1.4261459E-3,-2.593855E-4,-6.8521296E-4,1.5027249E-5,3.9641495E-4],"categories":[],"categories_nodes":[],"categories_segments":[],"categories_sizes":[],"default_left":[0,0,0,0,0,0,0,0,0],"id":20,"left_children":[1,3,5,7,-1,-1,-1,-1,-1],"loss_changes":[1.11074105E-1,5.9117727E-2,1.728572E-3,4.441934E-2,0E0,0E0,0E0,0E0,0E0],"parents":[2147483647,0,0,1,1,2,2,3,3],"right_children":[2,4,6,8,-1,-1,-1,-1,-1],"split_conditions":[2.8318286E3,6.114651E0,1.1716985E0,1.6994377E0,1.4261459E-3,-2.593855E-4,-6.8521296E-4,1.5027249E-5,3.9641495E-4],"split_indices":[5,8,15,17,0,0,0,0,0],"split_type":[0,0,0,0,0,0,0,0,0],"sum_hessian":[1.1255E4,8.069E3,3.186E3,7.992E3,7.7E1,3.118E3,6.8E1,7.126E3,8.66E2],"tree_param":{"num_deleted":"0","num_feature":"30","num_nodes":"9","size_leaf_vector":"1"}},{"base_weights":[-5.0453586E-4,-4.6660737E-3,1.7833324E-3,-2.750215E-4,-2.3806156E-3,5.713106E-3,-0E0,-1.412286E-4,-0E0,4.9311423E-4,3.590678E-5,2.742346E-4,-4.7850113E-5],"categories":[],"categories_nodes":[],"categories_segments":[],"categories_sizes":[],"default_left":[0,0,0,0,0,0,0,0,0,0,0,0,0],"id":21,"left_children":[1,3,5,-1,7,9,11,-1,-1,-1,-1,-1,-1],"loss_changes":[8.971999E-2,3.984727E-3,4.2128615E-2,0E0,8.930662E-4,3.5615508E-2,2.138133E-2,0E0,0E0,0E0,0E0,0E0,0E0],"parents":[2147483647,0,0,1,1,2,2,4,4,5,5,6,6],"right_children":[2,4,6,-1,8,10,12,-1,-1,-1,-1,-1,-1],"split_conditions":[-3.637131E0,7.2464675E-1,2.2551606E3,-2.750215E-4,-8.669663E-1,3.147797E2,9.236619E-2,-1.412286E-4,-0E0,4.9311423E-4,3.590678E-5,2.742346E-4,-4.7850113E-5],"split_indices":[11,22,5,0,1,6,26,0,0,0,0,0,0],"split_type":[0,0,0,0,0,0,0,0,0,0,0,0,0],"sum_hessian":[9.325E3,3.353E3,5.972E3,2.356E3,9.97E2,1.869E3,4.103E3,8.19E2,1.78E2,9.86E2,8.83E2,6E2,3.503E3],"tree_param":{"num_deleted":"0","num_feature":"30","num_nodes":"13","size_leaf_vector":"1"}},{"base_weights":[-8.4972125E-4,-3.703007E-3,1.8673425E-3,-4.639442E-3,2.4184234E-4,7.0226807E-3,-8.021089E-4,-1.11052235E-4,-2.709091E-4,2.6872184E-4,1.143092E-3,-9.389067E-5,7.681027E-5],"categories":[],"categories_nodes":[],"categories_segments":[],"categories_sizes":[],"default_left":[0,0,0,0,0,0,0,0,0,0,0,0,0],"id":22,"left_children":[1,3,5,7,-1,9,11,-1,-1,-1,-1,-1,-1],"loss_changes":[8.312761E-2,4.2006887E-2,7.6244384E-2,6.632149E-3,0E0,4.0170625E-2,8.980576E-3,0E0,0E0,0E0,0E0,0E0,0E0],"parents":[2147483647,0,0,1,1,2,2,3,3,5,5,6,6],"right_children":[2,4,6,8,-1,10,12,-1,-1,-1,-1,-1,-1],"split_conditions":[-4.6111792E-1,1.6994377E0,1.5927911E-1,4.277713E-1,2.4184234E-4,8.388289E1,7.381891E-2,-1.11052235E-4,-2.709091E-4,2.6872184E-4,1.143092E-3,-9.389067E-5,7.681027E-5],"split_indices":[20,17,26,18,0,0,23,0,0,0,0,0,0],"split_type":[0,0,0,0,0,0,0,0,0,0,0,0,0],"sum_hessian":[1.0644E4,5.245E3,5.399E3,4.76E3,4.85E2,1.878E3,3.521E3,1.257E3,3.503E3,1.723E3,1.55E2,2.5E3,1.021E3],"tree_param":{"num_deleted":"0","num_feature":"30","num_nodes":"13","size_leaf_vector":"1"}},{"base_weights":[-3.5723235E-4,1.7584293E-3,-5.0234273E-3,1.579388E-2,1.304639E-3,-5.372519E-4,-4.7232867E-3,4.1776997E-4,1.2909931E-3,1.9536277E-4,-3.5071313E-5,-1.9068229E-4,-2.86152E-4],"categories":[],"categories_nodes":[],"categories_segments":[],"categories_sizes":[],"default_left":[0,0,0,0,0,0,0,0,0,0,0,0,0],"id":23,"left_children":[1,3,5,7,9,-1,11,-1,-1,-1,-1,-1,-1],"loss_changes":[1.18917204E-1,4.6862215E-2,1.632385E-3,6.410323E-3,4.24537E-2,0E0,3.6197156E-4,0E0,0E0,0E0,0E0,0E0,0E0],"parents":[2147483647,0,0,1,1,2,2,3,3,4,4,6,6],"right_children":[2,4,6,8,10,-1,12,-1,-1,-1,-1,-1,-1],"split_conditions":[8.143194E-1,3.9468754E-2,-3.742199E-1,8.388289E1,8.292977E1,-5.372519E-4,8.1356636E1,4.1776997E-4,1.2909931E-3,1.9536277E-4,-3.5071313E-5,-1.9068229E-4,-2.86152E-4],"split_indices":[18,26,29,0,0,0,0,0,0,0,0,0,0],"split_type":[0,0,0,0,0,0,0,0,0,0,0,0,0],"sum_hessian":[1.1939E4,8.172E3,3.767E3,2.31E2,7.941E3,1.31E2,3.636E3,1.54E2,7.7E1,3.52E3,4.421E3,2.071E3,1.565E3],"tree_param":{"num_deleted":"0","num_feature":"30","num_nodes":"13","size_leaf_vector":"1"}},{"base_weights":[-2.529207E-4,4.2091077E-3,-1.5984749E-3,-1.3794828E-3,6.9799377E-3,-0E0,-4.3371012E-3,-1.3536538E-4,-0E0,1.9229273E-4,4.6422944E-4,3.1551564E-4,-2.6498301E-5,-1.7685545E-4,-3.4223092E-4],"categories":[],"categories_nodes":[],"categories_segments":[],"categories_sizes":[],"default_left":[0,0,0,0,0,0,0,0,0,0,0,0,0,0,0],"id":24,"left_children":[1,3,5,7,9,11,13,-1,-1,-1,-1,-1,-1,-1,-1],"loss_changes":[5.758963E-2,3.580121E-2,3.4054123E-2,1.5687858E-3,6.8102777E-3,1.721397E-2,2.4696179E-3,0E0,0E0,0E0,0E0,0E0,0E0,0E0,0E0],"parents":[2147483647,0,0,1,1,2,2,3,3,4,4,5,5,6,6],"right_children":[2,4,6,8,10,12,14,-1,-1,-1,-1,-1,-1,-1,-1],"split_conditions":[1.705298E-1,-8.170513E-1,2.6109436E3,-1.0868831E0,5.3885933E-2,-4.2218468E-1,1.088E0,-1.3536538E-4,-0E0,1.9229273E-4,4.6422944E-4,3.1551564E-4,-2.6498301E-5,-1.7685545E-4,-3.4223092E-4],"split_indices":[25,1,5,1,23,2,1,0,0,0,0,0,0,0,0],"split_type":[0,0,0,0,0,0,0,0,0,0,0,0,0,0,0],"sum_hessian":[9.714E3,2.197E3,7.517E3,6.93E2,1.504E3,4.689E3,2.828E3,3.91E2,3.02E2,6.97E2,8.07E2,3.98E2,4.291E3,2.242E3,5.86E2],"tree_param":{"num_deleted":"0","num_feature":"30","num_nodes":"15","size_leaf_vector":"1"}},{"base_weights":[-5.8535294E-4,-3.9217514E-3,1.1608806E-3,-4.088276E-3,-0E0,-1.0321998E-3,5.8998317E-3,-1.3571998E-4,-2.2880004E-4,1.4988948E-5,-2.1040838E-4,2.543387E-4,1.2380373E-3],"categories":[],"categories_nodes":[],"categories_segments":[],"categories_sizes":[],"default_left":[0,0,0,0,0,0,0,0,0,0,0,0,0],"id":25,"left_children":[1,3,5,7,-1,9,11,-1,-1,-1,-1,-1,-1],"loss_changes":[6.6151574E-2,2.2416562E-3,7.73736E-2,2.6458502E-4,0E0,2.2126118E-2,2.6640564E-2,0E0,0E0,0E0,0E0,0E0,0E0],"parents":[2147483647,0,0,1,1,2,2,3,3,5,5,6,6],"right_children":[2,4,6,8,-1,10,12,-1,-1,-1,-1,-1,-1],"split_conditions":[-3.637131E0,6.473224E0,1.0467336E1,1.5524445E0,-0E0,2.6605144E3,8.46249E1,-1.3571998E-4,-2.2880004E-4,1.4988948E-5,-2.1040838E-4,2.543387E-4,1.2380373E-3],"split_indices":[11,9,28,7,0,5,0,0,0,0,0,0,0],"split_type":[0,0,0,0,0,0,0,0,0,0,0,0,0],"sum_hessian":[1.1205E4,3.907E3,7.298E3,3.729E3,1.78E2,4.948E3,2.35E3,1.145E3,2.584E3,3.422E3,1.526E3,2.273E3,7.7E1],"tree_param":{"num_deleted":"0","num_feature":"30","num_nodes":"13","size_leaf_vector":"1"}},{"base_weights":[8.1365164E-5,-1.99313E-4,1.9293566E-3,2.715804E-4,5.7200566E-3,-6.473043E-5,1.9788148E-4,1.514103E-5,4.0695505E-4],"categories":[],"categories_nodes":[],"categories_segments":[],"categories_sizes":[],"default_left":[0,0,0,0,0,0,0,0,0],"id":26,"left_children":[1,-1,3,5,7,-1,-1,-1,-1],"loss_changes":[8.4099494E-2,0E0,4.7212534E-2,3.2490354E-2,2.7833864E-2,0E0,0E0,0E0,0E0],"parents":[2147483647,0,0,2,2,3,3,4,4],"right_children":[2,-1,4,6,8,-1,-1,-1,-1],"split_conditions":[-3.6441057E0,-1.99313E-4,2.0277171E-1,6.35E0,-1.0222434E0,-6.473043E-5,1.9788148E-4,1.514103E-5,4.0695505E-4],"split_indices":[11,0,29,9,1,0,0,0,0],"split_type":[0,0,0,0,0,0,0,0,0],"sum_hessian":[1.1262E4,3.466E3,7.796E3,5.482E3,2.314E3,3.792E3,1.69E3,7.54E2,1.56E3],"tree_param":{"num_deleted":"0","num_feature":"30","num_nodes":"9","size_leaf_vector":"1"}},{"base_weights":[4.597904E-4,2.7316697E-3,-1.6940839E-3,6.4007095E-3,-7.098273E-5,1.9730756E-3,-2.950838E-3,2.800236E-4,1.1598492E-3,6.322257E-4,-2.8612372E-5,1.5533702E-5,2.6437224E-4,-4.824888E-4,-1.3113393E-4],"categories":[],"categories_nodes":[],"categories_segments":[],"categories_sizes":[],"default_left":[0,0,0,0,0,0,0,0,0,0,0,0,0,0,0],"id":27,"left_children":[1,3,5,7,9,11,13,-1,-1,-1,-1,-1,-1,-1,-1],"loss_changes":[4.926321E-2,5.2657835E-2,2.3673601E-2,2.0196296E-2,1.3973537E-2,5.1186117E-3,4.6519935E-3,0E0,0E0,0E0,0E0,0E0,0E0,0E0,0E0],"parents":[2147483647,0,0,1,1,2,2,3,3,4,4,5,5,6,6],"right_children":[2,4,6,8,10,12,14,-1,-1,-1,-1,-1,-1,-1,-1],"split_conditions":[1.6130441E-1,9.517997E-2,2.2144556E3,6.0331745E0,2.2504714E3,-3.4727705E-1,7.2327795E0,2.800236E-4,1.1598492E-3,6.322257E-4,-2.8612372E-5,1.5533702E-5,2.6437224E-4,-4.824888E-4,-1.3113393E-4],"split_indices":[22,27,5,8,5,3,28,0,0,0,0,0,0,0,0],"split_type":[0,0,0,0,0,0,0,0,0,0,0,0,0,0,0],"sum_hessian":[9.996E3,4.932E3,5.064E3,2.18E3,2.752E3,1.231E3,3.833E3,2.103E3,7.7E1,7.8E1,2.674E3,8.83E2,3.48E2,1.31E2,3.702E3],"tree_param":{"num_deleted":"0","num_feature":"30","num_nodes":"15","size_leaf_vector":"1"}},{"base_weights":[-1.2142357E-4,-3.4089284E-3,1.8168257E-3,-3.5667568E-3,-0E0,-1.0992383E-4,5.3649587E-3,-1.1403306E-4,-2.0081576E-4,2.2004345E-4,-1.1425683E-4,3.946785E-4,5.760381E-5],"categories":[],"categories_nodes":[],"categories_segments":[],"categories_sizes":[],"default_left":[0,0,0,0,0,0,0,0,0,0,0,0,0],"id":28,"left_children":[1,3,5,7,-1,9,11,-1,-1,-1,-1,-1,-1],"loss_changes":[6.668204E-2,2.0413883E-3,4.5871668E-2,2.3259595E-4,0E0,4.010541E-2,2.212409E-2,0E0,0E0,0E0,0E0,0E0,0E0],"parents":[2147483647,0,0,1,1,2,2,3,3,5,5,6,6],"right_children":[2,4,6,8,-1,10,12,-1,-1,-1,-1,-1,-1],"split_conditions":[-3.637131E0,6.473224E0,5.619685E1,1.5524445E0,-0E0,-4.173077E-1,3.147797E2,-1.1403306E-4,-2.0081576E-4,2.2004345E-4,-1.1425683E-4,3.946785E-4,5.760381E-5],"split_indices":[11,9,6,7,0,2,6,0,0,0,0,0,0],"split_type":[0,0,0,0,0,0,0,0,0,0,0,0,0],"sum_hessian":[1.0382E4,3.907E3,6.475E3,3.729E3,1.78E2,4.144E3,2.331E3,1.145E3,2.584E3,1.302E3,2.842E3,1.41E3,9.21E2],"tree_param":{"num_deleted":"0","num_feature":"30","num_nodes":"13","size_leaf_vector":"1"}},{"base_weights":[-4.0782435E-4,1.3711593E-3,-3.9967946E-3,1.105822E-3,1.0859612E-3,-1.8835858E-4,-5.7088624E-4,2.8904737E-4,1.601522E-5],"categories":[],"categories_nodes":[],"categories_segments":[],"categories_sizes":[],"default_left":[0,0,0,0,0,0,0,0,0],"id":29,"left_children":[1,3,5,7,-1,-1,-1,-1,-1],"loss_changes":[7.236316E-2,3.3225715E-2,1.6983226E-3,2.5202055E-2,0E0,0E0,0E0,0E0,0E0],"parents":[2147483647,0,0,1,1,2,2,3,3],"right_children":[2,4,6,8,-1,-1,-1,-1,-1],"split_conditions":[8.143194E-1,2.7023635E3,1.4810294E0,5.2514596E0,1.0859612E-3,-1.8835858E-4,-5.7088624E-4,2.8904737E-4,1.601522E-5],"split_indices":[18,5,1,8,0,0,0,0,0],"split_type":[0,0,0,0,0,0,0,0,0],"sum_hessian":[1.1203E4,7.436E3,3.767E3,7.359E3,7.7E1,3.699E3,6.8E1,1E3,6.359E3],"tree_param":{"num_deleted":"0","num_feature":"30","num_nodes":"9","size_leaf_vector":"1"}},{"base_weights":[6.103562E-4,2.1037667E-3,-2.8823188E-3,1.8430351E-3,1.0343445E-3,-4.291743E-3,1.7759121E-4,2.1295711E-4,2.025536E-5,-1.9788354E-4,-5.439277E-4],"categories":[],"categories_nodes":[],"categories_segments":[],"categories_sizes":[],"default_left":[0,0,0,0,0,0,0,0,0,0,0],"id":30,"left_children":[1,3,5,7,-1,9,-1,-1,-1,-1,-1],"loss_changes":[5.1695075E-2,2.7164841E-2,2.6780924E-2,2.2760272E-2,0E0,7.394627E-4,0E0,0E0,0E0,0E0,0E0],"parents":[2147483647,0,0,1,1,2,2,3,3,5,5],"right_children":[2,4,6,8,-1,10,-1,-1,-1,-1,-1],"split_conditions":[8.143194E-1,2.7023635E3,3.5010308E-2,-3.812959E-1,1.0343445E-3,1.2467827E0,1.7759121E-4,2.1295711E-4,2.025536E-5,-1.9788354E-4,-5.439277E-4],"split_indices":[18,5,2,2,0,1,0,0,0,0,0],"split_type":[0,0,0,0,0,0,0,0,0,0,0],"sum_hessian":[9.947E3,7.029E3,2.918E3,6.952E3,7.7E1,2.433E3,4.85E2,2.513E3,4.439E3,2.365E3,6.8E1],"tree_param":{"num_deleted":"0","num_feature":"30","num_nodes":"11","size_leaf_vector":"1"}}]},"name":"gbtree"},"learner_model_param":{"base_score":"[-8.337385E-3]","boost_from_average":"1","num_class":"0","num_feature":"30","num_target":"1"},"objective":{"name":"reg:squarederror","reg_loss_param":{"scale_pos_weight":"1"}}},"version":[3,2,0]}