{"learner":{"attributes":{"best_iteration":"104","best_score":"0.01543777195527036","scikit_learn":"{\"_estimator_type\": \"regressor\"}"},"feature_names":[],"feature_types":[],"gradient_booster":{"model":{"cats":{"enc":[],"feature_segments":[],"sorted_idx":[]},"gbtree_model_param":{"num_parallel_tree":"1","num_trees":"135"},"iteration_indptr":[0,1,2,3,4,5,6,7,8,9,10,11,12,13,14,15,16,17,18,19,20,21,22,23,24,25,26,27,28,29,30,31,32,33,34,35,36,37,38,39,40,41,42,43,44,45,46,47,48,49,50,51,52,53,54,55,56,57,58,59,60,61,62,63,64,65,66,67,68,69,70,71,72,73,74,75,76,77,78,79,80,81,82,83,84,85,86,87,88,89,90,91,92,93,94,95,96,97,98,99,100,101,102,103,104,105,106,107,108,109,110,111,112,113,114,115,116,117,118,119,120,121,122,123,124,125,126,127,128,129,130,131,132,133,134,135],"tree_info":[0,0,0,0,0,0,0,0,0,0,0,0,0,0,0,0,0,0,0,0,0,0,0,0,0,0,0,0,0,0,0,0,0,0,0,0,0,0,0,0,0,0,0,0,0,0,0,0,0,0,0,0,0,0,0,0,0,0,0,0,0,0,0,0,0,0,0,0,0,0,0,0,0,0,0,0,0,0,0,0,0,0,0,0,0,0,0,0,0,0,0,0,0,0,0,0,0,0,0,0,0,0,0,0,0,0,0,0,0,0,0,0,0,0,0,0,0,0,0,0,0,0,0,0,0,0,0,0,0,0,0,0,0,0,0],"trees":[{"base_weights":[2.2520151E-4,1.9844498E-3,-4.045816E-3,-3.6751356E-3,3.184469E-3,-2.6931276E-3,-1.1597718E-2,-4.3051047E-3,1.1030391E-2,7.1209264E-3,1.9651148E-3,-1.5303327E-3,-9.73536E-3,-1.6954344E-2,-8.624976E-3,2.4806186E-5,-1.875539E-4,9.726131E-5,6.007831E-4,3.6859067E-4,1.4136416E-4,-5.6676326E-5,8.620905E-5,1.7807E-4,-7.559549E-5,-5.3474633E-4,-1.9307046E-4,-1.3641902E-4,-5.776205E-4,1.2737194E-4,-3.007244E-4],"categories":[],"categories_nodes":[],"categories_segments":[],"categories_sizes":[],"default_left":[0,0,0,0,0,0,0,1,0,0,0,0,0,0,0,0,0,0,0,0,0,0,0,0,0,0,0,0,0,0,0],"id":0,"left_children":[1,3,5,7,9,11,13,15,17,19,21,23,25,27,29,-1,-1,-1,-1,-1,-1,-1,-1,-1,-1,-1,-1,-1,-1,-1,-1],"loss_changes":[2.580831E0,1.652441E0,1.0220578E0,3.9361614E-1,9.627032E-1,6.947989E-1,2.3933578E-1,4.0827024E-1,1.1959089E-1,5.887015E-1,5.369356E-1,5.3869724E-1,3.185122E-1,1.5191782E-1,1.7709059E-1,0E0,0E0,0E0,0E0,0E0,0E0,0E0,0E0,0E0,0E0,0E0,0E0,0E0,0E0,0E0,0E0],"parents":[2147483647,0,0,1,1,2,2,3,3,4,4,5,5,6,6,7,7,8,8,9,9,10,10,11,11,12,12,13,13,14,14],"right_children":[2,4,6,8,10,12,14,16,18,20,22,24,26,28,30,-1,-1,-1,-1,-1,-1,-1,-1,-1,-1,-1,-1,-1,-1,-1,-1],"split_conditions":[9.457165E1,3.6760375E-1,1.1378306E0,4.4819507E-1,-7.047751E-1,1.6039885E0,2.0135996E-1,3.0674353E0,2.3022437E3,1.0842876E-1,1.435997E2,-1.1651094E0,6.140532E0,6.588321E0,-1.9894894E0,2.4806186E-5,-1.875539E-4,9.726131E-5,6.007831E-4,3.6859067E-4,1.4136416E-4,-5.6676326E-5,8.620905E-5,1.7807E-4,-7.559549E-5,-5.3474633E-4,-1.9307046E-4,-1.3641902E-4,-5.776205E-4,1.2737194E-4,-3.007244E-4],"split_indices":[0,2,19,25,14,14,25,28,5,26,6,20,9,9,7,0,0,0,0,0,0,0,0,0,0,0,0,0,0,0,0],"split_type":[0,0,0,0,0,0,0,0,0,0,0,0,0,0,0,0,0,0,0,0,0,0,0,0,0,0,0,0,0,0,0],"sum_hessian":[3.43503E5,2.43308E5,1.00195E5,4.2549E4,2.00759E5,8.4988E4,1.5207E4,4.0809E4,1.74E3,4.7458E4,1.53301E5,7.2958E4,1.203E4,5.412E3,9.795E3,1.1209E4,2.96E4,9.4E2,8E2,1.5077E4,3.2381E4,2.9221E4,1.2408E5,8.525E3,6.4433E4,3.474E3,8.556E3,8.54E2,4.558E3,9.53E2,8.842E3],"tree_param":{"num_deleted":"0","num_feature":"30","num_nodes":"31","size_leaf_vector":"1"}},{"base_weights":[6.976821E-5,1.3187237E-3,-5.9396387E-3,-1.1119306E-3,3.368626E-3,-4.697291E-3,-1.742027E-2,-5.500805E-3,4.5113507E-4,7.529437E-3,1.6475625E-3,-6.189921E-3,-3.3149867E-5,-1.9758306E-2,-8.661724E-5,2.8778924E-4,-1.9446014E-4,-1.6642285E-4,4.8599097E-5,3.3436686E-4,9.819781E-5,1.7751727E-5,2.1224235E-4,-2.991578E-4,-1.1107656E-4,-1.3842041E-4,1.474375E-4,-8.527568E-4,-5.5873964E-4],"categories":[],"categories_nodes":[],"categories_segments":[],"categories_sizes":[],"default_left":[0,0,0,0,0,0,1,0,0,0,0,0,0,1,0,0,0,0,0,0,0,0,0,0,0,0,0,0,0],"id":1,"left_children":[1,3,5,7,9,11,13,15,17,19,21,23,25,27,-1,-1,-1,-1,-1,-1,-1,-1,-1,-1,-1,-1,-1,-1,-1],"loss_changes":[2.5850117E0,1.4213566E0,8.4286046E-1,8.955402E-1,1.1072254E0,3.7173104E-1,1.9395053E-1,5.075004E-1,6.7405206E-1,6.9512224E-1,6.2662184E-1,3.7957072E-1,2.9431894E-1,4.307747E-2,0E0,0E0,0E0,0E0,0E0,0E0,0E0,0E0,0E0,0E0,0E0,0E0,0E0,0E0,0E0],"parents":[2147483647,0,0,1,1,2,2,3,3,4,4,5,5,6,6,7,7,8,8,9,9,10,10,11,11,12,12,13,13],"right_children":[2,4,6,8,10,12,14,16,18,20,22,24,26,28,-1,-1,-1,-1,-1,-1,-1,-1,-1,-1,-1,-1,-1,-1,-1],"split_conditions":[9.4647425E-1,5.6573467E0,1.4617026E0,-3.4076795E-1,9.207692E1,2.3070116E2,4.3712306E0,-8.0831707E-1,-2.5940063E0,-6.6722217E0,6.7208505E0,-7.016715E-1,-6.1575813E0,2.205904E0,-8.661724E-5,2.8778924E-4,-1.9446014E-4,-1.6642285E-4,4.8599097E-5,3.3436686E-4,9.819781E-5,1.7751727E-5,2.1224235E-4,-2.991578E-4,-1.1107656E-4,-1.3842041E-4,1.474375E-4,-8.527568E-4,-5.5873964E-4],"split_indices":[14,8,27,11,0,6,28,15,7,10,9,15,10,28,0,0,0,0,0,0,0,0,0,0,0,0,0,0,0],"split_type":[0,0,0,0,0,0,0,0,0,0,0,0,0,0,0,0,0,0,0,0,0,0,0,0,0,0,0,0,0],"sum_hessian":[3.44474E5,2.85215E5,5.9259E4,1.30467E5,1.54748E5,5.3483E4,5.776E3,3.4278E4,9.6189E4,4.5261E4,1.09487E5,4.05E4,1.2983E4,4.969E3,8.07E2,2.085E3,3.2193E4,1.5671E4,8.0518E4,2.4456E4,2.0805E4,9.1673E4,1.7814E4,1.605E4,2.445E4,6.752E3,6.231E3,5.59E2,4.41E3],"tree_param":{"num_deleted":"0","num_feature":"30","num_nodes":"29","size_leaf_vector":"1"}},{"base_weights":[2.474545E-4,1.7312489E-3,-3.1622911E-3,-4.164955E-3,3.026059E-3,-6.627279E-3,-9.840592E-4,-1.2758183E-2,-2.3883346E-3,6.6286167E-3,1.615255E-3,-5.209109E-3,-1.1408174E-2,4.031382E-3,-2.416911E-3,-5.567813E-4,-3.395826E-4,8.006092E-5,-1.3361973E-4,4.6484297E-4,1.3671574E-4,-8.336743E-5,7.621369E-5,-1.0588211E-4,-3.354519E-4,-5.171748E-4,-2.2090925E-4,-7.502885E-5,2.1706049E-4,1.4020035E-4,-1.0406243E-4],"categories":[],"categories_nodes":[],"categories_segments":[],"categories_sizes":[],"default_left":[0,0,0,0,0,0,0,0,0,0,0,0,0,0,1,0,0,0,0,0,0,0,0,0,0,0,0,0,0,0,0],"id":2,"left_children":[1,3,5,7,9,11,13,15,17,19,21,23,25,27,29,-1,-1,-1,-1,-1,-1,-1,-1,-1,-1,-1,-1,-1,-1,-1,-1],"loss_changes":[1.7495621E0,1.8397634E0,7.905259E-1,6.6070276E-1,1.003533E0,2.7247524E-1,4.626181E-1,5.8540106E-2,3.7584376E-1,1.0187953E0,5.7739985E-1,3.1161648E-1,2.151041E-1,2.9967475E-1,3.7356225E-1,0E0,0E0,0E0,0E0,0E0,0E0,0E0,0E0,0E0,0E0,0E0,0E0,0E0,0E0,0E0,0E0],"parents":[2147483647,0,0,1,1,2,2,3,3,4,4,5,5,6,6,7,7,8,8,9,9,10,10,11,11,12,12,13,13,14,14],"right_children":[2,4,6,8,10,12,14,16,18,20,22,24,26,28,30,-1,-1,-1,-1,-1,-1,-1,-1,-1,-1,-1,-1,-1,-1,-1,-1],"split_conditions":[4.65439E-1,-8.434452E-1,2.0163958E-1,-2.3664021E0,9.168342E1,9.055505E-1,-8.0212104E-1,7.4805595E-2,-1.9311013E0,8.414542E-2,1.3954912E2,9.697023E1,2.924537E-1,-2.9877457E-1,-1.0710582E0,-5.567813E-4,-3.395826E-4,8.006092E-5,-1.3361973E-4,4.6484297E-4,1.3671574E-4,-8.336743E-5,7.621369E-5,-1.0588211E-4,-3.354519E-4,-5.171748E-4,-2.2090925E-4,-7.502885E-5,2.1706049E-4,1.4020035E-4,-1.0406243E-4],"split_indices":[14,16,25,16,0,19,20,23,7,12,6,0,12,11,27,0,0,0,0,0,0,0,0,0,0,0,0,0,0,0,0],"split_type":[0,0,0,0,0,0,0,0,0,0,0,0,0,0,0,0,0,0,0,0,0,0,0,0,0,0,0,0,0,0,0],"sum_hessian":[3.45831E5,2.40991E5,1.0484E5,4.3378E4,1.97613E5,4.0448E4,6.4392E4,7.42E3,3.5958E4,5.5588E4,1.42025E5,3.1214E4,9.234E3,1.4292E4,5.01E4,1.456E3,5.964E3,1.0414E4,2.5544E4,1.0516E4,4.5072E4,2.4683E4,1.17342E5,2.4378E4,6.836E3,3.769E3,5.465E3,4.693E3,9.599E3,6.459E3,4.3641E4],"tree_param":{"num_deleted":"0","num_feature":"30","num_nodes":"31","size_leaf_vector":"1"}},{"base_weights":[5.393907E-6,9.871334E-4,-6.761513E-3,2.4091857E-3,-2.5886123E-3,-5.891725E-3,-1.7679768E-2,3.7658669E-3,-1.6128466E-3,-1.3589435E-3,-8.264521E-3,-8.889545E-3,-2.9646803E-3,-1.6944986E-2,-7.3071994E-4,1.5322534E-4,2.5316105E-5,-1.5429936E-4,1.4072283E-5,8.519479E-5,-7.923945E-5,-4.1827667E-4,-1.4968157E-4,-4.7762966E-4,-2.2543115E-4,-1.10672365E-4,5.918629E-4,-4.7365524E-4,-5.509351E-4],"categories":[],"categories_nodes":[],"categories_segments":[],"categories_sizes":[],"default_left":[0,0,0,0,0,0,0,0,0,0,0,0,0,0,0,0,0,0,0,0,0,0,0,0,0,0,0,0,0],"id":3,"left_children":[1,3,5,7,9,11,13,15,17,19,21,23,25,27,-1,-1,-1,-1,-1,-1,-1,-1,-1,-1,-1,-1,-1,-1,-1],"loss_changes":[2.3227847E0,1.5530797E0,4.1810417E-1,1.192749E0,6.05442E-1,3.5887766E-1,1.1034727E-2,6.4013076E-1,4.0551728E-1,3.8461244E-1,2.8541124E-1,1.9329119E-1,3.402282E-1,8.574724E-4,0E0,0E0,0E0,0E0,0E0,0E0,0E0,0E0,0E0,0E0,0E0,0E0,0E0,0E0,0E0],"parents":[2147483647,0,0,1,1,2,2,3,3,4,4,5,5,6,6,7,7,8,8,9,9,10,10,11,11,12,12,13,13],"right_children":[2,4,6,8,10,12,14,16,18,20,22,24,26,28,-1,-1,-1,-1,-1,-1,-1,-1,-1,-1,-1,-1,-1,-1,-1],"split_conditions":[1.1778389E0,9.457165E1,1.5119684E0,1.4459413E0,9.739852E1,9.508509E-2,6.836646E0,5.602633E-1,-4.6082422E-1,5.963333E0,1.9874571E-1,1.5961443E-1,7.973806E-1,9.612864E1,-7.3071994E-4,1.5322534E-4,2.5316105E-5,-1.5429936E-4,1.4072283E-5,8.519479E-5,-7.923945E-5,-4.1827667E-4,-1.4968157E-4,-4.7762966E-4,-2.2543115E-4,-1.10672365E-4,5.918629E-4,-4.7365524E-4,-5.509351E-4],"split_indices":[19,0,2,15,0,23,9,20,16,9,25,12,11,0,0,0,0,0,0,0,0,0,0,0,0,0,0,0,0],"split_type":[0,0,0,0,0,0,0,0,0,0,0,0,0,0,0,0,0,0,0,0,0,0,0,0,0,0,0,0,0],"sum_hessian":[3.49724E5,3.05429E5,4.4295E4,2.18544E5,8.6885E4,4.1038E4,3.257E3,1.63439E5,5.5105E4,7.143E4,1.5455E4,2.0255E4,2.0783E4,2.954E3,3.03E2,1.11985E5,5.1454E4,2.0458E4,3.4647E4,1.6693E4,5.4737E4,5.64E3,9.815E3,3.298E3,1.6957E4,2.0146E4,6.37E2,1.68E3,1.274E3],"tree_param":{"num_deleted":"0","num_feature":"30","num_nodes":"29","size_leaf_vector":"1"}},{"base_weights":[2.9922814E-5,1.077702E-3,-5.9751086E-3,-3.587418E-3,2.0988546E-3,-7.3175807E-3,-1.2729812E-3,-1.2138375E-2,-2.1946924E-3,7.933144E-3,5.935303E-4,-4.942252E-3,-1.0846485E-2,-9.502874E-3,1.812771E-3,1.1283159E-4,-3.9108723E-4,-3.059933E-5,-2.392733E-4,4.6860464E-4,1.8272326E-4,4.2144035E-5,-1.1029593E-4,1.7835711E-5,-2.2030783E-4,-9.106645E-5,-3.577555E-4,8.813487E-5,-4.4493162E-4,-3.815267E-5,2.7491729E-4],"categories":[],"categories_nodes":[],"categories_segments":[],"categories_sizes":[],"default_left":[0,0,0,0,0,0,0,1,0,0,0,0,0,0,0,0,0,0,0,0,0,0,0,0,0,0,0,0,0,0,0],"id":4,"left_children":[1,3,5,7,9,11,13,15,17,19,21,23,25,27,29,-1,-1,-1,-1,-1,-1,-1,-1,-1,-1,-1,-1,-1,-1,-1,-1],"loss_changes":[2.198452E0,1.4174728E0,3.2677758E-1,6.347353E-1,2.1434555E0,3.366325E-1,2.9404426E-1,1.0769272E-1,3.1115663E-1,7.0663214E-1,6.721729E-1,3.216949E-1,1.3508725E-1,2.1060863E-1,1.9107664E-1,0E0,0E0,0E0,0E0,0E0,0E0,0E0,0E0,0E0,0E0,0E0,0E0,0E0,0E0,0E0,0E0],"parents":[2147483647,0,0,1,1,2,2,3,3,4,4,5,5,6,6,7,7,8,8,9,9,10,10,11,11,12,12,13,13,14,14],"right_children":[2,4,6,8,10,12,14,16,18,20,22,24,26,28,30,-1,-1,-1,-1,-1,-1,-1,-1,-1,-1,-1,-1,-1,-1,-1,-1],"split_conditions":[1.0424001E0,-8.434452E-1,2.306162E2,-2.3664021E0,-6.323081E-1,5.996307E-3,9.651446E1,2.3837376E0,1.0069818E0,8.414542E-2,9.055505E-1,5.4780335E0,2.3473395E-2,2.5182334E-1,2.3592706E2,1.1283159E-4,-3.9108723E-4,-3.059933E-5,-2.392733E-4,4.6860464E-4,1.8272326E-4,4.2144035E-5,-1.1029593E-4,1.7835711E-5,-2.2030783E-4,-9.106645E-5,-3.577555E-4,8.813487E-5,-4.4493162E-4,-3.815267E-5,2.7491729E-4],"split_indices":[14,16,6,16,14,24,0,28,20,12,19,28,12,12,6,0,0,0,0,0,0,0,0,0,0,0,0,0,0,0,0],"split_type":[0,0,0,0,0,0,0,0,0,0,0,0,0,0,0,0,0,0,0,0,0,0,0,0,0,0,0,0,0,0,0],"sum_hessian":[3.49481E5,2.97577E5,5.1904E4,5.3421E4,2.44156E5,4.0359E4,1.1545E4,7.47E3,4.5951E4,5.006E4,1.94096E5,2.4142E4,1.6217E4,3.156E3,8.389E3,3.93E2,7.077E3,3.8207E4,7.744E3,9.665E3,4.0395E4,1.63128E5,3.0968E4,7.291E3,1.6851E4,1.98E3,1.4237E4,9.41E2,2.215E3,5.901E3,2.488E3],"tree_param":{"num_deleted":"0","num_feature":"30","num_nodes":"31","size_leaf_vector":"1"}},{"base_weights":[1.8345022E-4,1.0413954E-3,-6.034816E-3,3.6016935E-3,1.7558725E-4,-4.991932E-3,-1.44164795E-2,6.008503E-3,-3.0286977E-4,2.1537603E-3,-9.852208E-4,-7.205401E-3,-2.0140607E-3,-1.8746288E-2,-7.447015E-3,-7.944854E-5,2.340281E-4,-3.9510234E-4,9.223015E-6,1.1046954E-4,-6.661802E-5,-1.4249026E-4,-9.371104E-6,-3.3487944E-4,-1.4305054E-4,-9.188159E-5,5.669357E-4,-6.580807E-4,-4.8580515E-4,-2.0912476E-5,-2.5857828E-4],"categories":[],"categories_nodes":[],"categories_segments":[],"categories_sizes":[],"default_left":[0,0,0,0,1,0,0,0,0,0,0,0,0,0,0,0,0,0,0,0,0,0,0,0,0,0,0,0,0,0,0],"id":5,"left_children":[1,3,5,7,9,11,13,15,17,19,21,23,25,27,29,-1,-1,-1,-1,-1,-1,-1,-1,-1,-1,-1,-1,-1,-1,-1,-1],"loss_changes":[1.8589768E0,6.7860883E-1,3.671832E-1,7.2771835E-1,5.258037E-1,2.4678117E-1,1.3781416E-1,7.4357486E-1,2.3290005E-1,5.664459E-1,3.6483604E-1,2.0602274E-1,3.5043454E-1,1.881361E-2,1.3291262E-2,0E0,0E0,0E0,0E0,0E0,0E0,0E0,0E0,0E0,0E0,0E0,0E0,0E0,0E0,0E0,0E0],"parents":[2147483647,0,0,1,1,2,2,3,3,4,4,5,5,6,6,7,7,8,8,9,9,10,10,11,11,12,12,13,13,14,14],"right_children":[2,4,6,8,10,12,14,16,18,20,22,24,26,28,30,-1,-1,-1,-1,-1,-1,-1,-1,-1,-1,-1,-1,-1,-1,-1,-1],"split_conditions":[-5.5912905E0,9.182648E-2,2.3407001E0,-6.143997E0,4.1164813E0,9.508509E-2,4.2474917E-1,-2.472248E0,-1.2294196E0,1.2282747E0,-1.3717275E0,-2.8768086E-1,7.973806E-1,1.472016E0,-1.2376273E0,-7.944854E-5,2.340281E-4,-3.9510234E-4,9.223015E-6,1.1046954E-4,-6.661802E-5,-1.4249026E-4,-9.371104E-6,-3.3487944E-4,-1.4305054E-4,-9.188159E-5,5.669357E-4,-6.580807E-4,-4.8580515E-4,-2.0912476E-5,-2.5857828E-4],"split_indices":[10,26,19,10,28,23,12,7,20,1,1,11,11,2,1,0,0,0,0,0,0,0,0,0,0,0,0,0,0,0,0],"split_type":[0,0,0,0,0,0,0,0,0,0,0,0,0,0,0,0,0,0,0,0,0,0,0,0,0,0,0,0,0,0,0],"sum_hessian":[3.48543E5,3.063E5,4.2243E4,7.7374E4,2.28926E5,3.7582E4,4.661E3,4.7883E4,2.9491E4,8.4689E4,1.44237E5,2.1537E4,1.6045E4,2.864E3,1.797E3,8.204E3,3.9679E4,1.341E3,2.815E4,6.2776E4,2.1913E4,2.1847E4,1.2239E5,8.19E3,1.3347E4,1.5285E4,7.6E2,1.249E3,1.615E3,2.79E2,1.518E3],"tree_param":{"num_deleted":"0","num_feature":"30","num_nodes":"31","size_leaf_vector":"1"}},{"base_weights":[-1.7564105E-4,1.0776442E-3,-6.3492055E-3,-2.69021E-3,1.9970096E-3,-5.2807676E-3,-1.5202699E-2,-6.90076E-4,-6.8025026E-3,5.545751E-3,5.369349E-4,2.6629844E-3,-6.037686E-3,-1.837244E-2,-4.260724E-3,-8.941634E-5,1.2878558E-4,-4.898399E-5,-2.578834E-4,2.4747846E-4,5.5106262E-5,1.1837615E-4,-1.1232236E-5,7.553936E-4,-5.116315E-5,-1.4853812E-4,-3.2819857E-4,-6.830567E-4,-4.810824E-4,4.097813E-6,-4.7454462E-4],"categories":[],"categories_nodes":[],"categories_segments":[],"categories_sizes":[],"default_left":[0,0,0,0,0,0,0,0,0,0,1,0,0,0,0,0,0,0,0,0,0,0,0,0,0,0,0,0,0,0,0],"id":6,"left_children":[1,3,5,7,9,11,13,15,17,19,21,23,25,27,29,-1,-1,-1,-1,-1,-1,-1,-1,-1,-1,-1,-1,-1,-1,-1,-1],"loss_changes":[2.6666458E0,9.921139E-1,5.4796934E-1,4.6115673E-1,1.192482E0,3.1250465E-1,2.1441972E-1,4.3132633E-1,1.6919094E-1,6.7179656E-1,5.072633E-1,4.4565663E-1,2.5079286E-1,4.510057E-2,7.343435E-2,0E0,0E0,0E0,0E0,0E0,0E0,0E0,0E0,0E0,0E0,0E0,0E0,0E0,0E0,0E0,0E0],"parents":[2147483647,0,0,1,1,2,2,3,3,4,4,5,5,6,6,7,7,8,8,9,9,10,10,11,11,12,12,13,13,14,14],"right_children":[2,4,6,8,10,12,14,16,18,20,22,24,26,28,30,-1,-1,-1,-1,-1,-1,-1,-1,-1,-1,-1,-1,-1,-1,-1,-1],"split_conditions":[9.580137E1,-8.050372E-1,1.5249748E0,5.508668E-1,9.1986145E1,-1.7373245E0,3.5034236E-1,4.3358287E-1,-6.600721E-1,-6.403925E0,-8.896017E-1,9.651446E1,9.8102974E1,5.5728006E0,6.831708E-1,-8.941634E-5,1.2878558E-4,-4.898399E-5,-2.578834E-4,2.4747846E-4,5.5106262E-5,1.1837615E-4,-1.1232236E-5,7.553936E-4,-5.116315E-5,-1.4853812E-4,-3.2819857E-4,-6.830567E-4,-4.810824E-4,4.097813E-6,-4.7454462E-4],"split_indices":[0,17,27,20,0,24,11,12,29,10,27,0,0,8,11,0,0,0,0,0,0,0,0,0,0,0,0,0,0,0,0],"split_type":[0,0,0,0,0,0,0,0,0,0,0,0,0,0,0,0,0,0,0,0,0,0,0,0,0,0,0,0,0,0,0],"sum_hessian":[3.44579E5,2.86419E5,5.816E4,5.6157E4,2.30262E5,5.191E4,6.25E3,3.7799E4,1.8358E4,6.71E4,1.63162E5,4.504E3,4.7406E4,4.838E3,1.412E3,2.591E4,1.1889E4,4.744E3,1.3614E4,3.8793E4,2.8307E4,3.444E4,1.28722E5,7.34E2,3.77E3,3.8826E4,8.58E3,1.658E3,3.18E3,1.018E3,3.94E2],"tree_param":{"num_deleted":"0","num_feature":"30","num_nodes":"31","size_leaf_vector":"1"}},{"base_weights":[-3.0158668E-5,1.5598284E-3,-3.7274708E-3,-1.0371317E-2,2.007879E-3,-1.1727844E-3,-7.0994245E-3,3.5436868E-3,-1.1309812E-2,3.0564568E-3,-1.3514443E-3,7.876143E-4,-4.6861502E-3,-4.029075E-3,-1.0918857E-2,-1.9135229E-4,3.885794E-4,-3.6494542E-4,5.0586565E-5,1.3309253E-4,4.9642596E-5,6.62735E-5,-1.0845399E-4,-1.99732E-5,2.0079661E-4,-1.5824336E-4,5.463834E-4,-1.5537172E-4,5.690236E-5,-3.4817023E-4,2.2741049E-4],"categories":[],"categories_nodes":[],"categories_segments":[],"categories_sizes":[],"default_left":[0,0,0,0,0,0,0,0,0,0,0,0,0,0,0,0,0,0,0,0,0,0,0,0,0,0,0,0,0,0,0],"id":7,"left_children":[1,3,5,7,9,11,13,15,17,19,21,23,25,27,29,-1,-1,-1,-1,-1,-1,-1,-1,-1,-1,-1,-1,-1,-1,-1,-1],"loss_changes":[2.006433E0,1.2748365E0,8.8336957E-1,1.13544226E-1,8.103494E-1,4.0276378E-1,5.170784E-1,5.123523E-2,9.099686E-2,3.3847392E-1,4.4097418E-1,3.2230762E-1,2.8116137E-1,1.675506E-1,2.5080228E-1,0E0,0E0,0E0,0E0,0E0,0E0,0E0,0E0,0E0,0E0,0E0,0E0,0E0,0E0,0E0,0E0],"parents":[2147483647,0,0,1,1,2,2,3,3,4,4,5,5,6,6,7,7,8,8,9,9,10,10,11,11,12,12,13,13,14,14],"right_children":[2,4,6,8,10,12,14,16,18,20,22,24,26,28,30,-1,-1,-1,-1,-1,-1,-1,-1,-1,-1,-1,-1,-1,-1,-1,-1],"split_conditions":[4.8230547E-1,4.1339803E0,3.259179E-1,1.919421E3,1.2162296E0,1.1240097E0,8.4994555E-1,1.8819518E3,2.2274583E3,2.5953737E-1,6.1695123E0,5.1963305E-1,4.2683902E-1,2.9558158E-1,2.3983098E2,-1.9135229E-4,3.885794E-4,-3.6494542E-4,5.0586565E-5,1.3309253E-4,4.9642596E-5,6.62735E-5,-1.0845399E-4,-1.99732E-5,2.0079661E-4,-1.5824336E-4,5.463834E-4,-1.5537172E-4,5.690236E-5,-3.4817023E-4,2.2741049E-4],"split_indices":[14,8,20,5,4,14,19,5,5,20,9,16,25,29,6,0,0,0,0,0,0,0,0,0,0,0,0,0,0,0,0],"split_type":[0,0,0,0,0,0,0,0,0,0,0,0,0,0,0,0,0,0,0,0,0,0,0,0,0,0,0,0,0,0,0],"sum_hessian":[3.41266E5,2.38623E5,1.02643E5,8.627E3,2.29996E5,5.8417E4,4.4226E4,5.38E2,8.089E3,1.75306E5,5.469E4,3.7478E4,2.0939E4,2.4534E4,1.9692E4,2.57E2,2.81E2,7.597E3,4.92E2,8.83E4,8.7006E4,2.1239E4,3.3451E4,3.0064E4,7.414E3,2.042E4,5.19E2,2.0561E4,3.973E3,1.8993E4,6.99E2],"tree_param":{"num_deleted":"0","num_feature":"30","num_nodes":"31","size_leaf_vector":"1"}},{"base_weights":[-2.3269651E-5,1.0643217E-3,-5.584491E-3,-2.988365E-3,2.0388288E-3,-4.6583004E-3,-1.4913754E-2,-5.837515E-4,-6.5514892E-3,7.3989243E-3,7.5190375E-4,8.381623E-3,-5.224878E-3,2.8685722E-4,-1.5982203E-2,8.3059465E-5,-1.5815876E-4,-2.3982536E-4,4.1366537E-5,4.4825816E-4,1.674682E-4,1.4287951E-4,1.4906313E-6,8.2280394E-4,7.44076E-5,-1.2252606E-4,-3.009026E-4,-1.643072E-4,-5.3840684E-4],"categories":[],"categories_nodes":[],"categories_segments":[],"categories_sizes":[],"default_left":[0,0,0,0,0,0,0,0,1,0,0,0,0,0,0,0,0,0,0,0,0,0,0,0,0,0,0,0,0],"id":8,"left_children":[1,3,5,7,9,11,13,15,17,19,21,23,25,-1,27,-1,-1,-1,-1,-1,-1,-1,-1,-1,-1,-1,-1,-1,-1],"loss_changes":[2.1152282E0,1.1548599E0,4.9222803E-1,4.8481524E-1,1.6255249E0,3.8436103E-1,1.3578248E-1,5.323543E-1,2.617345E-1,6.2307715E-1,5.350306E-1,2.3975368E-1,2.7199578E-1,0E0,9.952414E-2,0E0,0E0,0E0,0E0,0E0,0E0,0E0,0E0,0E0,0E0,0E0,0E0,0E0,0E0],"parents":[2147483647,0,0,1,1,2,2,3,3,4,4,5,5,6,6,7,7,8,8,9,9,10,10,11,11,12,12,14,14],"right_children":[2,4,6,8,10,12,14,16,18,20,22,24,26,-1,28,-1,-1,-1,-1,-1,-1,-1,-1,-1,-1,-1,-1,-1,-1],"split_conditions":[9.5532334E-1,-8.434452E-1,3.359033E-1,-2.9141915E-1,-7.320599E-1,6.534296E-2,-2.4147573E0,2.9541567E-1,3.444863E-1,8.414542E-2,-9.392282E-1,9.651446E1,9.8102974E1,2.8685722E-4,-7.807475E-1,8.3059465E-5,-1.5815876E-4,-2.3982536E-4,4.1366537E-5,4.4825816E-4,1.674682E-4,1.4287951E-4,1.4906313E-6,8.2280394E-4,7.44076E-5,-1.2252606E-4,-3.009026E-4,-1.643072E-4,-5.3840684E-4],"split_indices":[14,16,26,15,14,23,7,20,26,12,27,0,0,0,18,0,0,0,0,0,0,0,0,0,0,0,0,0,0],"split_type":[0,0,0,0,0,0,0,0,0,0,0,0,0,0,0,0,0,0,0,0,0,0,0,0,0,0,0,0,0],"sum_hessian":[3.49642E5,2.92435E5,5.7207E4,5.6667E4,2.35768E5,5.2053E4,5.154E3,3.3852E4,2.2815E4,4.563E4,1.90138E5,2.159E3,4.9894E4,2.11E2,4.943E3,1.9726E4,1.4126E4,1.9314E4,3.501E3,8.843E3,3.6787E4,2.8307E4,1.61831E5,5.05E2,1.654E3,4.0342E4,9.552E3,7.88E2,4.155E3],"tree_param":{"num_deleted":"0","num_feature":"30","num_nodes":"29","size_leaf_vector":"1"}},{"base_weights":[-1.0382598E-4,7.3028065E-4,-5.329436E-3,-1.0232845E-2,1.0852475E-3,-4.2837053E-3,-1.4151422E-2,-1.6675148E-3,-1.155526E-2,3.6961222E-3,-1.3505216E-4,-6.412782E-3,-1.4571149E-3,2.783323E-4,-1.5223222E-2,5.781878E-4,-2.0228788E-4,-4.716904E-4,-3.0873946E-4,-5.913029E-5,1.5507755E-4,1.3815383E-5,-1.2058562E-4,-1.371051E-4,-3.4641076E-4,3.3882298E-4,-7.707224E-5,-1.5939046E-4,-5.1539E-4],"categories":[],"categories_nodes":[],"categories_segments":[],"categories_sizes":[],"default_left":[0,0,0,1,0,0,0,0,0,0,0,0,0,0,0,0,0,0,0,0,0,0,0,0,0,0,0,0,0],"id":9,"left_children":[1,3,5,7,9,11,13,15,17,19,21,23,25,-1,27,-1,-1,-1,-1,-1,-1,-1,-1,-1,-1,-1,-1,-1,-1],"loss_changes":[1.4775232E0,1.1362717E0,4.2851198E-1,1.0234845E-1,9.022002E-1,2.5032645E-1,1.2477648E-1,1.3047704E-1,3.8801312E-2,7.5325096E-1,4.4656917E-1,2.2326088E-1,2.5370982E-1,0E0,8.914137E-2,0E0,0E0,0E0,0E0,0E0,0E0,0E0,0E0,0E0,0E0,0E0,0E0,0E0,0E0],"parents":[2147483647,0,0,1,1,2,2,3,3,4,4,5,5,6,6,7,7,8,8,9,9,10,10,11,11,12,12,14,14],"right_children":[2,4,6,8,10,12,14,16,18,20,22,24,26,-1,28,-1,-1,-1,-1,-1,-1,-1,-1,-1,-1,-1,-1,-1,-1],"split_conditions":[9.6035965E1,-2.3664021E0,3.359033E-1,3.1409607E0,9.1949326E1,-1.2091815E-1,-2.4147573E0,-2.8744814E0,-1.1069974E0,-8.434452E-1,1.8354101E0,1.3150173E-1,-1.4602665E0,2.783323E-4,2.054089E3,5.781878E-4,-2.0228788E-4,-4.716904E-4,-3.0873946E-4,-5.913029E-5,1.5507755E-4,1.3815383E-5,-1.2058562E-4,-1.371051E-4,-3.4641076E-4,3.3882298E-4,-7.707224E-5,-1.5939046E-4,-5.1539E-4],"split_indices":[0,17,26,28,0,27,7,7,24,17,7,26,1,0,5,0,0,0,0,0,0,0,0,0,0,0,0,0,0],"split_type":[0,0,0,0,0,0,0,0,0,0,0,0,0,0,0,0,0,0,0,0,0,0,0,0,0,0,0,0,0],"sum_hessian":[3.38872E5,2.92212E5,4.666E4,9.154E3,2.83058E5,4.1728E4,4.932E3,1.235E3,7.919E3,9.0184E4,1.92874E5,2.3779E4,1.7949E4,2.11E2,4.721E3,2.36E2,9.99E2,1.819E3,6.1E3,1.8592E4,7.1592E4,1.67213E5,2.5661E4,1.7516E4,6.263E3,1.431E3,1.6518E4,7.88E2,3.933E3],"tree_param":{"num_deleted":"0","num_feature":"30","num_nodes":"29","size_leaf_vector":"1"}},{"base_weights":[-1.0332682E-5,9.6159003E-4,-4.8262617E-3,5.4837866E-3,4.1589834E-4,-4.018895E-3,-1.3311437E-2,1.6485192E-2,3.2045264E-3,9.220581E-4,-3.8648935E-3,-1.2751313E-2,-3.2104722E-3,2.0872396E-5,-1.5319204E-2,3.8156402E-4,8.7254937E-4,-1.5595337E-5,2.4072258E-4,-7.929785E-5,4.929801E-5,-2.0607641E-4,-6.1513165E-6,-4.5589142E-4,-2.2824969E-4,-2.3809927E-4,-6.450867E-5,-6.943713E-4,-4.054231E-4],"categories":[],"categories_nodes":[],"categories_segments":[],"categories_sizes":[],"default_left":[0,0,0,0,0,0,0,0,0,0,1,0,0,0,0,0,0,0,0,0,0,0,0,0,0,0,0,0,0],"id":10,"left_children":[1,3,5,7,9,11,13,15,17,19,21,23,25,-1,27,-1,-1,-1,-1,-1,-1,-1,-1,-1,-1,-1,-1,-1,-1],"loss_changes":[1.5987507E0,7.0053303E-1,3.9111316E-1,7.6454526E-1,5.490917E-1,3.6816823E-1,1.4131212E-1,2.4370027E-1,4.5553565E-1,5.829885E-1,2.9384452E-1,5.3170264E-2,2.3928586E-1,0E0,5.7234287E-2,0E0,0E0,0E0,0E0,0E0,0E0,0E0,0E0,0E0,0E0,0E0,0E0,0E0,0E0],"parents":[2147483647,0,0,1,1,2,2,3,3,4,4,5,5,6,6,7,7,8,8,9,9,10,10,11,11,12,12,14,14],"right_children":[2,4,6,8,10,12,14,16,18,20,22,24,26,-1,28,-1,-1,-1,-1,-1,-1,-1,-1,-1,-1,-1,-1,-1,-1],"split_conditions":[-5.7498903E0,9.00063E1,9.8102974E1,8.414542E-2,9.623555E1,-2.0021706E0,-6.7102504E-1,1.6252454E-1,1.976208E-1,1.3962253E2,-1.1821955E-1,4.2474917E-1,-6.4433473E-1,2.0872396E-5,1.6965435E-1,3.8156402E-4,8.7254937E-4,-1.5595337E-5,2.4072258E-4,-7.929785E-5,4.929801E-5,-2.0607641E-4,-6.1513165E-6,-4.5589142E-4,-2.2824969E-4,-2.3809927E-4,-6.450867E-5,-6.943713E-4,-4.054231E-4],"split_indices":[10,0,0,12,0,11,24,26,25,6,27,12,22,0,25,0,0,0,0,0,0,0,0,0,0,0,0,0,0],"split_type":[0,0,0,0,0,0,0,0,0,0,0,0,0,0,0,0,0,0,0,0,0,0,0,0,0,0,0,0,0],"sum_hessian":[3.41475E5,2.84117E5,5.7358E4,3.0571E4,2.53546E5,5.2388E4,4.97E3,5.237E3,2.5334E4,2.26759E5,2.6787E4,4.426E3,4.7962E4,6.17E2,4.353E3,4.041E3,1.196E3,1.428E4,1.1054E4,3.8128E4,1.88631E5,1.4695E4,1.2092E4,2.984E3,1.442E3,8.768E3,3.9194E4,8.01E2,3.552E3],"tree_param":{"num_deleted":"0","num_feature":"30","num_nodes":"29","size_leaf_vector":"1"}},{"base_weights":[-8.340424E-5,7.6956913E-4,-5.2363155E-3,-6.8825786E-3,1.2415651E-3,-3.744256E-3,-1.0105998E-2,2.7632015E-3,-8.531048E-3,5.734148E-3,5.737205E-4,-4.1025286E-3,2.2422314E-2,-3.1433366E-3,-1.2299009E-2,5.5252237E-4,-3.8113845E-5,-2.8479617E-4,1.5145916E-4,2.7326014E-5,3.2388026E-4,-7.321223E-5,3.8839888E-5,-5.9543432E-5,-2.5459603E-4,5.645584E-4,7.8989804E-4,1.3351415E-7,-3.987122E-4,-4.759671E-4,-2.3715128E-4],"categories":[],"categories_nodes":[],"categories_segments":[],"categories_sizes":[],"default_left":[0,0,0,0,0,0,0,0,0,0,0,0,0,0,0,0,0,0,0,0,0,0,0,0,0,0,0,0,0,0,0],"id":11,"left_children":[1,3,5,7,9,11,13,15,17,19,21,23,25,27,29,-1,-1,-1,-1,-1,-1,-1,-1,-1,-1,-1,-1,-1,-1,-1,-1],"loss_changes":[1.5151353E0,1.0672983E0,3.5427558E-1,2.735607E-1,8.3493835E-1,3.498683E-1,1.73455E-1,1.5949474E-1,1.9220245E-1,8.782785E-1,5.267887E-1,3.423888E-1,1.5773475E-3,8.948538E-2,1.3383818E-1,0E0,0E0,0E0,0E0,0E0,0E0,0E0,0E0,0E0,0E0,0E0,0E0,0E0,0E0,0E0,0E0],"parents":[2147483647,0,0,1,1,2,2,3,3,4,4,5,5,6,6,7,7,8,8,9,9,10,10,11,11,12,12,13,13,14,14],"right_children":[2,4,6,8,10,12,14,16,18,20,22,24,26,28,30,-1,-1,-1,-1,-1,-1,-1,-1,-1,-1,-1,-1,-1,-1,-1,-1],"split_conditions":[1.0424001E0,-1.8481582E0,9.796636E1,5.6603584E0,-1.050118E0,4.2683902E-1,8.080335E-2,-3.8143906E-1,2.2179578E3,2.0763502E-1,1.425627E2,9.198326E-2,5.4538965E0,2.1847368E2,6.850338E-1,5.5252237E-4,-3.8113845E-5,-2.8479617E-4,1.5145916E-4,2.7326014E-5,3.2388026E-4,-7.321223E-5,3.8839888E-5,-5.9543432E-5,-2.5459603E-4,5.645584E-4,7.8989804E-4,1.3351415E-7,-3.987122E-4,-4.759671E-4,-2.3715128E-4],"split_indices":[14,16,0,9,14,25,23,11,5,25,6,23,8,6,20,0,0,0,0,0,0,0,0,0,0,0,0,0,0,0,0],"split_type":[0,0,0,0,0,0,0,0,0,0,0,0,0,0,0,0,0,0,0,0,0,0,0,0,0,0,0,0,0,0,0],"sum_hessian":[3.44612E5,2.95654E5,4.8958E4,1.7163E4,2.78491E5,3.7494E4,1.1464E4,2.496E3,1.4667E4,3.602E4,2.42471E5,3.6993E4,5.01E2,2.758E3,8.706E3,5.15E2,1.981E3,1.3704E4,9.63E2,1.8456E4,1.7564E4,4.6774E4,1.95697E5,2.4961E4,1.2032E4,2.8E2,2.21E2,2.099E3,6.59E2,4.79E3,3.916E3],"tree_param":{"num_deleted":"0","num_feature":"30","num_nodes":"31","size_leaf_vector":"1"}},{"base_weights":[2.5990084E-5,1.6148025E-3,-3.738845E-3,-3.4236128E-3,2.6829727E-3,-2.2351234E-3,-8.087755E-3,-1.8243685E-3,-8.304676E-3,5.793529E-3,1.5882998E-3,-4.7138897E-3,-1.8124626E-4,-9.200612E-3,1.2024321E-3,-7.257778E-5,5.0033664E-4,-2.8102548E-4,1.0630611E-5,1.9608902E-4,-6.6491935E-5,7.762692E-5,-4.4668508E-5,-1.5953355E-4,4.645079E-4,-1.7390416E-4,3.356612E-5,-3.7968095E-4,-2.1956098E-4,8.5175576E-5,-2.545475E-4],"categories":[],"categories_nodes":[],"categories_segments":[],"categories_sizes":[],"default_left":[0,0,0,0,0,0,0,1,0,0,0,0,0,0,0,0,0,0,0,0,0,0,0,0,0,0,0,0,0,0,0],"id":12,"left_children":[1,3,5,7,9,11,13,15,17,19,21,23,25,27,29,-1,-1,-1,-1,-1,-1,-1,-1,-1,-1,-1,-1,-1,-1,-1,-1],"loss_changes":[2.0841122E0,1.31884E0,6.750752E-1,3.3345222E-1,6.877872E-1,3.907482E-1,2.7528214E-1,3.541092E-1,9.808415E-2,3.134905E-1,4.6013847E-1,4.2360955E-1,3.0748293E-1,1.5204406E-1,4.438726E-2,0E0,0E0,0E0,0E0,0E0,0E0,0E0,0E0,0E0,0E0,0E0,0E0,0E0,0E0,0E0,0E0],"parents":[2147483647,0,0,1,1,2,2,3,3,4,4,5,5,6,6,7,7,8,8,9,9,10,10,11,11,12,12,13,13,14,14],"right_children":[2,4,6,8,10,12,14,16,18,20,22,24,26,28,30,-1,-1,-1,-1,-1,-1,-1,-1,-1,-1,-1,-1,-1,-1,-1,-1],"split_conditions":[9.457165E1,-8.707899E-1,-5.7825246E0,6.743436E0,-7.5592464E-1,2.0633785E-1,2.306162E2,4.572096E-1,9.723431E-2,1.17766E0,1.210044E0,1.8458472E0,3.785791E0,1.882151E-1,9.796636E1,-7.257778E-5,5.0033664E-4,-2.8102548E-4,1.0630611E-5,1.9608902E-4,-6.6491935E-5,7.762692E-5,-4.4668508E-5,-1.5953355E-4,4.645079E-4,-1.7390416E-4,3.356612E-5,-3.7968095E-4,-2.1956098E-4,8.5175576E-5,-2.545475E-4],"split_indices":[0,16,10,9,27,25,6,26,23,2,1,18,28,25,0,0,0,0,0,0,0,0,0,0,0,0,0,0,0,0,0],"split_type":[0,0,0,0,0,0,0,0,0,0,0,0,0,0,0,0,0,0,0,0,0,0,0,0,0,0,0,0,0,0,0],"sum_hessian":[3.48451E5,2.4506E5,1.03391E5,4.2849E4,2.02211E5,7.6846E4,2.6545E4,3.2292E4,1.0557E4,5.2612E4,1.49599E5,3.4798E4,4.2048E4,2.3715E4,2.83E3,3.1293E4,9.99E2,9.413E3,1.144E3,4.8159E4,4.453E3,1.12953E5,3.6646E4,3.3794E4,1.004E3,7.918E3,3.413E4,8.339E3,1.5376E4,2.431E3,3.99E2],"tree_param":{"num_deleted":"0","num_feature":"30","num_nodes":"31","size_leaf_vector":"1"}},{"base_weights":[-1.9868474E-5,1.0335785E-3,-3.8543476E-3,-9.553909E-3,1.3472909E-3,-2.2755445E-3,-7.534009E-3,-1.0324369E-2,1.4218784E-4,2.926963E-3,-2.5719698E-4,-9.763432E-4,-8.908892E-3,-2.2346994E-3,-8.80472E-3,-2.88939E-4,-5.2446115E-4,2.194361E-5,1.5991862E-4,-8.399611E-5,4.3484848E-5,-8.784305E-6,-5.3896365E-4,-5.685537E-4,-1.6759803E-4,-3.7399045E-4,6.670908E-6,-2.2130972E-4,-4.0034877E-4],"categories":[],"categories_nodes":[],"categories_segments":[],"categories_sizes":[],"default_left":[0,0,0,0,0,0,0,0,0,0,0,0,0,0,0,0,0,0,0,0,0,0,0,0,0,0,0,0,0],"id":13,"left_children":[1,3,5,7,9,11,13,15,-1,17,19,21,23,25,27,-1,-1,-1,-1,-1,-1,-1,-1,-1,-1,-1,-1,-1,-1],"loss_changes":[1.40228E0,9.034836E-1,4.33666E-1,8.684063E-2,6.704885E-1,4.504077E-1,1.499989E-1,3.382528E-2,0E0,7.027278E-1,5.6930244E-1,5.0698215E-1,2.8314263E-1,1.1081436E-1,1.1498141E-1,0E0,0E0,0E0,0E0,0E0,0E0,0E0,0E0,0E0,0E0,0E0,0E0,0E0,0E0],"parents":[2147483647,0,0,1,1,2,2,3,3,4,4,5,5,6,6,7,7,9,9,10,10,11,11,12,12,13,13,14,14],"right_children":[2,4,6,8,10,12,14,16,-1,18,20,22,24,26,28,-1,-1,-1,-1,-1,-1,-1,-1,-1,-1,-1,-1,-1,-1],"split_conditions":[9.535295E1,-2.3664021E0,9.214765E-2,4.2964837E-1,-6.3382163E0,9.8102974E1,-7.680109E-1,-5.175796E0,1.4218784E-4,-2.3174535E-1,-2.0331326E-1,3.0905232E-1,-7.131317E-1,-8.790132E-1,3.9470816E-1,-2.88939E-4,-5.2446115E-4,2.194361E-5,1.5991862E-4,-8.399611E-5,4.3484848E-5,-8.784305E-6,-5.3896365E-4,-5.685537E-4,-1.6759803E-4,-3.7399045E-4,6.670908E-6,-2.2130972E-4,-4.0034877E-4],"split_indices":[0,16,23,26,10,0,21,10,0,16,11,26,21,21,18,0,0,0,0,0,0,0,0,0,0,0,0,0,0],"split_type":[0,0,0,0,0,0,0,0,0,0,0,0,0,0,0,0,0,0,0,0,0,0,0,0,0,0,0,0,0],"sum_hessian":[3.47075E5,2.72254E5,7.4821E4,7.824E3,2.6443E5,5.2378E4,2.2443E4,7.431E3,3.93E2,1.33276E5,1.31154E5,4.3814E4,8.564E3,4.357E3,1.8086E4,6.792E3,6.39E2,6.9677E4,6.3599E4,5.2699E4,7.8455E4,4.2127E4,1.687E3,2.119E3,6.445E3,8.5E2,3.507E3,1.378E4,4.306E3],"tree_param":{"num_deleted":"0","num_feature":"30","num_nodes":"29","size_leaf_vector":"1"}},{"base_weights":[3.0968538E-6,9.589737E-4,-4.5023696E-3,-2.8201037E-3,1.7329487E-3,1.0834078E-2,-4.923994E-3,-9.047354E-3,-1.7369974E-3,3.3565515E-3,-1.4158826E-4,2.5099854E-3,7.6904404E-4,-4.2077173E-3,-1.4046901E-2,9.700123E-5,-3.1403985E-4,4.3119985E-4,-6.630991E-5,1.2519473E-4,-3.6793495E-5,5.2907064E-5,-8.220489E-5,2.6449325E-4,-1.6264501E-5,-9.369936E-5,-2.5732245E-4,-7.380736E-4,-3.9390885E-4],"categories":[],"categories_nodes":[],"categories_segments":[],"categories_sizes":[],"default_left":[0,0,0,0,0,0,1,1,0,0,0,0,0,0,0,0,0,0,0,0,0,0,0,0,0,0,0,0,0],"id":14,"left_children":[1,3,5,7,9,11,13,15,17,19,21,23,-1,25,27,-1,-1,-1,-1,-1,-1,-1,-1,-1,-1,-1,-1,-1,-1],"loss_changes":[1.4859726E0,8.327257E-1,3.8999164E-1,3.25209E-1,7.196727E-1,1.9541298E-1,3.8214946E-1,1.256035E-1,3.1324095E-1,4.7442067E-1,5.4306966E-1,2.0797329E-2,0E0,2.570874E-1,3.6874652E-2,0E0,0E0,0E0,0E0,0E0,0E0,0E0,0E0,0E0,0E0,0E0,0E0,0E0,0E0],"parents":[2147483647,0,0,1,1,2,2,3,3,4,4,5,5,6,6,7,7,8,8,9,9,10,10,11,11,13,13,14,14],"right_children":[2,4,6,8,10,12,14,16,18,20,22,24,-1,26,28,-1,-1,-1,-1,-1,-1,-1,-1,-1,-1,-1,-1,-1,-1],"split_conditions":[9.4647425E-1,5.218802E0,5.0921464E0,-2.3664021E0,-3.2124013E-2,-2.3728168E0,3.1461468E-1,-5.983607E-1,6.8943314E-2,1.5633382E0,-6.169658E0,9.739852E1,7.6904404E-4,9.8102974E1,-6.978281E-1,9.700123E-5,-3.1403985E-4,4.3119985E-4,-6.630991E-5,1.2519473E-4,-3.6793495E-5,5.2907064E-5,-8.220489E-5,2.6449325E-4,-1.6264501E-5,-9.369936E-5,-2.5732245E-4,-7.380736E-4,-3.9390885E-4],"split_indices":[14,8,8,17,14,7,26,29,23,21,10,0,0,0,29,0,0,0,0,0,0,0,0,0,0,0,0,0,0],"split_type":[0,0,0,0,0,0,0,0,0,0,0,0,0,0,0,0,0,0,0,0,0,0,0,0,0,0,0,0,0],"sum_hessian":[3.45118E5,2.84733E5,6.0385E4,4.8379E4,2.36354E5,1.608E3,5.8777E4,7.152E3,4.1227E4,1.26682E5,1.09672E5,1.035E3,5.73E2,5.4511E4,4.266E3,7.34E2,6.418E3,1.169E3,4.0058E4,1.07542E5,1.914E4,6.3257E4,4.6415E4,3.47E2,6.88E2,4.3694E4,1.0817E4,3.28E2,3.938E3],"tree_param":{"num_deleted":"0","num_feature":"30","num_nodes":"29","size_leaf_vector":"1"}},{"base_weights":[-9.705335E-5,6.282911E-4,-3.8044278E-3,-9.696781E-3,9.0594776E-4,-3.145974E-3,-1.34225795E-2,-1.2431013E-2,-6.7397533E-3,1.7625293E-3,-2.0113003E-3,-5.7660704E-3,-9.5620565E-4,-7.1606564E-4,-1.2318435E-2,-4.876029E-4,-2.690132E-4,7.908392E-5,-2.2346851E-4,1.9248697E-5,1.351562E-4,1.13299844E-4,-9.541454E-5,-2.891212E-4,-5.3497504E-5,2.3114566E-5,-1.5394608E-4,-3.1947735E-4,-4.4624216E-4],"categories":[],"categories_nodes":[],"categories_segments":[],"categories_sizes":[],"default_left":[0,0,1,0,0,0,0,0,0,0,0,0,0,0,0,0,0,0,0,0,0,0,0,0,0,0,0,0,0],"id":15,"left_children":[1,3,5,7,9,11,13,15,17,19,21,23,25,-1,27,-1,-1,-1,-1,-1,-1,-1,-1,-1,-1,-1,-1,-1,-1],"loss_changes":[9.169666E-1,8.1639E-1,3.5165262E-1,5.819857E-2,6.937109E-1,2.990272E-1,3.691262E-2,4.821533E-2,2.4484828E-2,6.593191E-1,4.2621642E-1,3.651874E-1,2.0576355E-1,0E0,1.0942936E-2,0E0,0E0,0E0,0E0,0E0,0E0,0E0,0E0,0E0,0E0,0E0,0E0,0E0,0E0],"parents":[2147483647,0,0,1,1,2,2,3,3,4,4,5,5,6,6,7,7,8,8,9,9,10,10,11,11,12,12,14,14],"right_children":[2,4,6,8,10,12,14,16,18,20,22,24,26,-1,28,-1,-1,-1,-1,-1,-1,-1,-1,-1,-1,-1,-1,-1,-1],"split_conditions":[9.4647425E-1,-2.3664021E0,3.0612296E-1,1.618178E-1,1.7222648E0,2.0135996E-1,2.205904E0,8.795437E0,1.2892978E-1,2.3740269E-1,-1.016079E0,-7.016715E-1,1.7100785E0,-7.1606564E-4,2.1639627E-1,-4.876029E-4,-2.690132E-4,7.908392E-5,-2.2346851E-4,1.9248697E-5,1.351562E-4,1.13299844E-4,-9.541454E-5,-2.891212E-4,-5.3497504E-5,2.3114566E-5,-1.5394608E-4,-3.1947735E-4,-4.4624216E-4],"split_indices":[14,17,26,26,7,25,28,28,25,25,20,15,14,0,25,0,0,0,0,0,0,0,0,0,0,0,0,0,0],"split_type":[0,0,0,0,0,0,0,0,0,0,0,0,0,0,0,0,0,0,0,0,0,0,0,0,0,0,0,0,0],"sum_hessian":[3.40869E5,2.8507E5,5.5799E4,7.454E3,2.77616E5,5.2236E4,3.563E3,3.852E3,3.602E3,2.1463E5,6.2986E4,2.3759E4,2.8477E4,3.28E2,3.235E3,1.814E3,2.038E3,2.43E2,3.359E3,1.52389E5,6.2241E4,1.057E4,5.2416E4,1.2034E4,1.1725E4,2.013E4,8.347E3,1.987E3,1.248E3],"tree_param":{"num_deleted":"0","num_feature":"30","num_nodes":"29","size_leaf_vector":"1"}},{"base_weights":[-1.5955583E-4,6.938989E-4,-4.819186E-3,-6.151191E-3,1.1771147E-3,6.449015E-3,-5.544279E-3,-7.1759485E-3,9.445846E-3,4.1094148E-3,4.862027E-4,2.3006411E-2,1.4996622E-3,-4.676253E-3,-1.1375001E-2,-2.2724179E-4,2.715262E-4,-1.1984516E-5,5.442087E-4,4.172257E-5,2.4048451E-4,9.8168195E-5,-2.9507069E-6,7.6817884E-4,5.000644E-4,1.3731323E-4,-6.990632E-5,-9.432386E-5,-2.8981708E-4,1.2116187E-4,-3.7570784E-4],"categories":[],"categories_nodes":[],"categories_segments":[],"categories_sizes":[],"default_left":[0,0,0,0,0,0,0,0,0,0,0,0,0,0,0,0,0,0,0,0,0,0,0,0,0,0,0,0,0,0,0],"id":16,"left_children":[1,3,5,7,9,11,13,15,17,19,21,23,25,27,29,-1,-1,-1,-1,-1,-1,-1,-1,-1,-1,-1,-1,-1,-1,-1,-1],"loss_changes":[1.3708625E0,9.6286184E-1,4.3600774E-1,3.0664182E-1,5.5071545E-1,2.612723E-1,2.5210357E-1,1.16562724E-1,1.0262498E-1,5.497514E-1,3.5895577E-1,7.0444047E-3,2.953479E-2,3.3214116E-1,1.15707815E-1,0E0,0E0,0E0,0E0,0E0,0E0,0E0,0E0,0E0,0E0,0E0,0E0,0E0,0E0,0E0,0E0],"parents":[2147483647,0,0,1,1,2,2,3,3,4,4,5,5,6,6,7,7,8,8,9,9,10,10,11,11,12,12,13,13,14,14],"right_children":[2,4,6,8,10,12,14,16,18,20,22,24,26,28,30,-1,-1,-1,-1,-1,-1,-1,-1,-1,-1,-1,-1,-1,-1,-1,-1],"split_conditions":[9.708029E-1,4.8573833E0,-1.7373245E0,2.3070022E3,-7.047751E-1,9.651446E1,9.7716756E-2,2.6301076E0,9.3096214E1,2.0763502E-1,-9.392282E-1,6.13566E-1,3.9087868E-1,9.8102974E1,-1.2294196E0,-2.2724179E-4,2.715262E-4,-1.1984516E-5,5.442087E-4,4.172257E-5,2.4048451E-4,9.8168195E-5,-2.9507069E-6,7.6817884E-4,5.000644E-4,1.3731323E-4,-6.990632E-5,-9.432386E-5,-2.8981708E-4,1.2116187E-4,-3.7570784E-4],"split_indices":[14,8,24,5,14,0,23,27,0,25,27,2,27,0,20,0,0,0,0,0,0,0,0,0,0,0,0,0,0,0,0],"split_type":[0,0,0,0,0,0,0,0,0,0,0,0,0,0,0,0,0,0,0,0,0,0,0,0,0,0,0,0,0,0,0],"sum_hessian":[3.44609E5,2.91245E5,5.3364E4,1.9189E4,2.72056E5,3.217E3,5.0147E4,1.8013E4,1.176E3,5.1849E4,2.20207E5,7.34E2,2.483E3,4.3667E4,6.48E3,1.7588E4,4.25E2,5.47E2,6.29E2,3.059E4,2.1259E4,3.8218E4,1.81989E5,5.05E2,2.29E2,1.391E3,1.092E3,3.3418E4,1.0249E4,4.43E2,6.037E3],"tree_param":{"num_deleted":"0","num_feature":"30","num_nodes":"31","size_leaf_vector":"1"}},{"base_weights":[-3.805631E-5,1.1740925E-3,-2.6626633E-3,-2.8245961E-3,2.0938956E-3,-1.2010293E-3,-6.0803755E-3,-3.8456835E-3,4.851746E-3,5.594216E-3,6.9197087E-4,1.1596053E-3,-2.8310218E-3,-7.027652E-3,1.6816421E-3,2.9522704E-5,-1.6708442E-4,-1.3808276E-6,3.4820408E-4,2.3071171E-4,8.589558E-6,4.1694857E-6,2.0392747E-4,1.371713E-4,-5.6171102E-5,-5.5721608E-5,-3.3278068E-4,-1.7971794E-4,-3.723922E-4,1.2007772E-4,-2.214687E-4],"categories":[],"categories_nodes":[],"categories_segments":[],"categories_sizes":[],"default_left":[0,0,0,0,0,0,0,1,0,0,0,0,0,0,0,0,0,0,0,0,0,0,0,0,0,0,0,0,0,0,0],"id":17,"left_children":[1,3,5,7,9,11,13,15,17,19,21,23,25,27,29,-1,-1,-1,-1,-1,-1,-1,-1,-1,-1,-1,-1,-1,-1,-1,-1],"loss_changes":[1.0983698E0,8.683674E-1,5.441853E-1,3.458842E-1,9.414452E-1,2.9426616E-1,2.4067056E-1,3.2489127E-1,1.7223835E-1,6.098192E-1,4.6220264E-1,3.2307547E-1,3.6255133E-1,1.6062284E-1,7.42339E-2,0E0,0E0,0E0,0E0,0E0,0E0,0E0,0E0,0E0,0E0,0E0,0E0,0E0,0E0,0E0,0E0],"parents":[2147483647,0,0,1,1,2,2,3,3,4,4,5,5,6,6,7,7,8,8,9,9,10,10,11,11,12,12,13,13,14,14],"right_children":[2,4,6,8,10,12,14,16,18,20,22,24,26,28,30,-1,-1,-1,-1,-1,-1,-1,-1,-1,-1,-1,-1,-1,-1,-1,-1],"split_conditions":[4.65439E-1,-8.050372E-1,8.3578575E-1,9.3517235E1,9.168342E1,-4.416347E-1,2.306162E2,-6.457992E-1,2.3837549E2,1.4572635E0,2.2835345E2,8.844153E-1,8.795437E0,-5.2904143E0,-5.5080996E0,2.9522704E-5,-1.6708442E-4,-1.3808276E-6,3.4820408E-4,2.3071171E-4,8.589558E-6,4.1694857E-6,2.0392747E-4,1.371713E-4,-5.6171102E-5,-5.5721608E-5,-3.3278068E-4,-1.7971794E-4,-3.723922E-4,1.2007772E-4,-2.214687E-4],"split_indices":[14,16,19,0,0,27,6,29,6,15,6,14,28,10,10,0,0,0,0,0,0,0,0,0,0,0,0,0,0,0,0],"split_type":[0,0,0,0,0,0,0,0,0,0,0,0,0,0,0,0,0,0,0,0,0,0,0,0,0,0,0,0,0,0,0],"sum_hessian":[3.45195E5,2.36112E5,1.09083E5,4.4134E4,1.91978E5,7.6429E4,3.2654E4,3.8965E4,5.169E3,5.4879E4,1.37099E5,3.1193E4,4.5236E4,2.9114E4,3.54E3,1.0234E4,2.8731E4,2.989E3,2.18E3,3.9328E4,1.5551E4,1.2573E5,1.1369E4,1.469E4,1.6503E4,4.048E4,4.756E3,2.4432E4,4.682E3,2.828E3,7.12E2],"tree_param":{"num_deleted":"0","num_feature":"30","num_nodes":"31","size_leaf_vector":"1"}},{"base_weights":[-1.6938451E-5,7.027227E-4,-4.072313E-3,1.0396186E-3,-6.6363174E-3,-3.4313651E-3,-1.0596056E-2,-1.4120947E-3,1.8319429E-3,-1.2789656E-2,-3.8889856E-3,-8.6918445E-3,-2.7118828E-3,-1.3895879E-2,-5.2717156E-3,-1.1894729E-4,2.554947E-5,1.1886318E-4,1.5378655E-5,-6.0450705E-4,-2.941455E-4,-7.9024154E-5,-4.138306E-4,-2.204963E-4,-3.6489332E-4,1.0647836E-4,-1.05652674E-4,-5.189542E-4,-3.3553242E-4,-5.8819096E-5,-2.9045672E-4],"categories":[],"categories_nodes":[],"categories_segments":[],"categories_sizes":[],"default_left":[0,0,0,0,0,0,0,0,0,0,0,0,0,0,0,0,0,0,0,0,0,0,0,0,0,0,0,0,0,0,0],"id":18,"left_children":[1,3,5,7,9,11,13,15,17,19,21,23,25,27,29,-1,-1,-1,-1,-1,-1,-1,-1,-1,-1,-1,-1,-1,-1,-1,-1],"loss_changes":[1.0125237E0,7.276701E-1,2.1717298E-1,5.47099E-1,2.1654725E-1,1.7908365E-1,7.9862714E-2,3.9763027E-1,5.977778E-1,8.391774E-2,1.0943104E-1,2.4482936E-2,2.1258286E-1,2.3206532E-2,2.5067564E-2,0E0,0E0,0E0,0E0,0E0,0E0,0E0,0E0,0E0,0E0,0E0,0E0,0E0,0E0,0E0,0E0],"parents":[2147483647,0,0,1,1,2,2,3,3,4,4,5,5,6,6,7,7,8,8,9,9,10,10,11,11,12,12,13,13,14,14],"right_children":[2,4,6,8,10,12,14,16,18,20,22,24,26,28,30,-1,-1,-1,-1,-1,-1,-1,-1,-1,-1,-1,-1,-1,-1,-1,-1],"split_conditions":[1.0372974E0,1.6039885E0,2.5792394E0,-5.925928E-1,6.140532E0,-1.870824E-2,4.2474917E-1,2.2835345E2,-2.4960016E-1,-6.235398E-1,1.1736923E0,6.936388E0,-2.2502778E0,1.472016E0,8.297333E-1,-1.1894729E-4,2.554947E-5,1.1886318E-4,1.5378655E-5,-6.0450705E-4,-2.941455E-4,-7.9024154E-5,-4.138306E-4,-2.204963E-4,-3.6489332E-4,1.0647836E-4,-1.05652674E-4,-5.189542E-4,-3.3553242E-4,-5.8819096E-5,-2.9045672E-4],"split_indices":[19,14,19,16,9,2,12,6,14,11,7,9,7,2,4,0,0,0,0,0,0,0,0,0,0,0,0,0,0,0,0],"split_type":[0,0,0,0,0,0,0,0,0,0,0,0,0,0,0,0,0,0,0,0,0,0,0,0,0,0,0,0,0,0,0],"sum_hessian":[3.46814E5,2.94525E5,5.2289E4,2.81613E5,1.2912E4,4.7628E4,4.661E3,6.875E4,2.12863E5,3.972E3,8.94E3,5.711E3,4.1917E4,2.864E3,1.797E3,3.2332E4,3.6418E4,8.1383E4,1.3148E5,1.133E3,2.839E3,7.946E3,9.94E2,4.144E3,1.567E3,4.786E3,3.7131E4,1.249E3,1.615E3,1.041E3,7.56E2],"tree_param":{"num_deleted":"0","num_feature":"30","num_nodes":"31","size_leaf_vector":"1"}},{"base_weights":[-6.833126E-5,1.1218993E-3,-2.8258457E-3,-2.9553226E-3,2.009219E-3,-1.7510754E-3,-7.759142E-3,-3.9085075E-3,5.58922E-3,1.5297296E-3,9.18673E-3,-4.559436E-3,1.9652027E-4,6.737948E-3,-8.496556E-3,-1.4981577E-4,1.4353995E-4,7.261838E-5,5.9597706E-4,2.0206651E-4,2.4650803E-5,5.876236E-4,2.2062873E-4,3.5715775E-4,-1.579137E-4,-3.878544E-4,1.9585988E-5,3.307124E-4,-1.4806846E-4,5.50308E-5,-2.8745027E-4],"categories":[],"categories_nodes":[],"categories_segments":[],"categories_sizes":[],"default_left":[0,0,0,1,0,0,0,0,0,0,0,0,0,0,0,0,0,0,0,0,0,0,0,0,0,0,0,0,0,0,0],"id":19,"left_children":[1,3,5,7,9,11,13,15,17,19,21,23,25,27,29,-1,-1,-1,-1,-1,-1,-1,-1,-1,-1,-1,-1,-1,-1,-1,-1],"loss_changes":[1.1354967E0,8.739739E-1,5.521326E-1,3.5140976E-1,6.818361E-1,4.690473E-1,1.9960165E-1,3.6654866E-1,1.9319037E-1,6.8491536E-1,2.3359323E-1,4.0658462E-1,3.0169246E-1,4.5595035E-2,1.9978094E-1,0E0,0E0,0E0,0E0,0E0,0E0,0E0,0E0,0E0,0E0,0E0,0E0,0E0,0E0,0E0,0E0],"parents":[2147483647,0,0,1,1,2,2,3,3,4,4,5,5,6,6,7,7,8,8,9,9,10,10,11,11,12,12,13,13,14,14],"right_children":[2,4,6,8,10,12,14,16,18,20,22,24,26,28,30,-1,-1,-1,-1,-1,-1,-1,-1,-1,-1,-1,-1,-1,-1,-1,-1],"split_conditions":[9.457165E1,-8.434452E-1,1.1378306E0,1.712679E0,2.2936632E2,1.9965342E-1,-1.4042878E0,9.3517235E1,5.500968E0,8.983417E1,1.5538307E-1,6.534296E-2,6.912302E-2,9.7776695E1,-6.0277706E-1,-1.4981577E-4,1.4353995E-4,7.261838E-5,5.9597706E-4,2.0206651E-4,2.4650803E-5,5.876236E-4,2.2062873E-4,3.5715775E-4,-1.579137E-4,-3.878544E-4,1.9585988E-5,3.307124E-4,-1.4806846E-4,5.50308E-5,-2.8745027E-4],"split_indices":[0,17,19,27,6,25,1,0,8,0,25,23,2,0,24,0,0,0,0,0,0,0,0,0,0,0,0,0,0,0,0],"split_type":[0,0,0,0,0,0,0,0,0,0,0,0,0,0,0,0,0,0,0,0,0,0,0,0,0,0,0,0,0,0,0],"sum_hessian":[3.45913E5,2.41597E5,1.04316E5,4.316E4,1.98437E5,8.5674E4,1.8642E4,3.884E4,4.32E3,1.86026E5,1.2411E4,3.5104E4,5.057E4,8.95E2,1.7747E4,3.454E4,4.3E3,3.543E3,7.77E2,2.2253E4,1.63773E5,1.848E3,1.0563E4,1.433E3,3.3671E4,1.69E3,4.888E4,6.61E2,2.34E2,1.678E3,1.6069E4],"tree_param":{"num_deleted":"0","num_feature":"30","num_nodes":"31","size_leaf_vector":"1"}},{"base_weights":[-2.6302502E-4,4.0018046E-4,-4.353441E-3,2.5214418E-3,-9.0317085E-4,-5.0006486E-3,7.3839086E-3,-1.7652776E-3,4.2228443E-3,3.194371E-3,-1.7803179E-3,-4.2563574E-3,-1.2790557E-2,1.1460076E-3,2.2172311E-2,7.51269E-6,-1.4986335E-4,2.5524758E-4,9.2800976E-5,2.8144935E-4,6.986929E-6,2.942641E-5,-8.475573E-5,-1.01666934E-4,-2.897189E-4,-4.6818962E-4,-2.1178875E-4,1.3496628E-4,-1.2874769E-4,5.511032E-4,7.5643294E-4],"categories":[],"categories_nodes":[],"categories_segments":[],"categories_sizes":[],"default_left":[0,0,0,0,0,0,0,0,1,0,0,0,0,0,0,0,0,0,0,0,0,0,0,0,0,0,0,0,0,0,0],"id":20,"left_children":[1,3,5,7,9,11,13,15,17,19,21,23,25,27,29,-1,-1,-1,-1,-1,-1,-1,-1,-1,-1,-1,-1,-1,-1,-1,-1],"loss_changes":[9.3436223E-1,8.1916785E-1,3.6487806E-1,8.227412E-1,6.592593E-1,2.62295E-1,2.2860783E-1,2.089999E-1,3.8962007E-1,5.9141284E-1,4.3622985E-1,1.9350189E-1,6.1415434E-2,3.2292724E-2,3.2514632E-3,0E0,0E0,0E0,0E0,0E0,0E0,0E0,0E0,0E0,0E0,0E0,0E0,0E0,0E0,0E0,0E0],"parents":[2147483647,0,0,1,1,2,2,3,3,4,4,5,5,6,6,7,7,8,8,9,9,10,10,11,11,12,12,13,13,14,14],"right_children":[2,4,6,8,10,12,14,16,18,20,22,24,26,28,30,-1,-1,-1,-1,-1,-1,-1,-1,-1,-1,-1,-1,-1,-1,-1,-1],"split_conditions":[-5.645213E0,-2.4960016E-1,1.5970995E0,4.6836758E-1,-9.392282E-1,2.04973E0,1.896623E0,5.508668E-1,-5.9497356E-1,1.4841614E1,6.084419E0,1.2523016E0,7.361285E0,1.7927246E0,9.050604E1,7.51269E-6,-1.4986335E-4,2.5524758E-4,9.2800976E-5,2.8144935E-4,6.986929E-6,2.942641E-5,-8.475573E-5,-1.01666934E-4,-2.897189E-4,-4.6818962E-4,-2.1178875E-4,1.3496628E-4,-1.2874769E-4,5.511032E-4,7.5643294E-4],"split_indices":[10,14,24,2,27,20,19,20,29,28,9,2,9,24,0,0,0,0,0,0,0,0,0,0,0,0,0,0,0,0,0],"split_type":[0,0,0,0,0,0,0,0,0,0,0,0,0,0,0,0,0,0,0,0,0,0,0,0,0,0,0,0,0,0,0],"sum_hessian":[3.4428E5,2.96228E5,4.8052E4,1.12768E5,1.8346E5,4.555E4,2.502E3,3.2024E4,8.0744E4,3.2327E4,1.51133E5,4.1592E4,3.958E3,1.766E3,7.36E2,1.9701E4,1.2323E4,1.6821E4,6.3923E4,1.0452E4,2.1875E4,4.1464E4,1.09669E5,3.5855E4,5.737E3,2.64E3,1.318E3,1.104E3,6.62E2,3.48E2,3.88E2],"tree_param":{"num_deleted":"0","num_feature":"30","num_nodes":"31","size_leaf_vector":"1"}},{"base_weights":[3.959869E-5,1.5993146E-3,-1.4656783E-3,-3.9611594E-3,3.0698085E-3,-1.1968565E-3,-1.0059846E-2,-4.4809603E-3,1.2149812E-2,4.9460013E-3,1.0649392E-3,-7.182859E-4,-6.3747424E-3,-1.1274845E-2,4.5994268E-4,-4.3922515E-5,-2.0322332E-4,1.7467904E-4,1.1452574E-3,4.087149E-4,1.2722133E-4,-9.201803E-5,9.950851E-5,-1.7517556E-4,-6.3027032E-6,-9.931932E-5,-3.1658256E-4,-4.2547783E-4,-1.3610767E-4],"categories":[],"categories_nodes":[],"categories_segments":[],"categories_sizes":[],"default_left":[0,0,0,1,0,0,0,0,0,0,0,0,0,0,0,0,0,0,0,0,0,0,0,0,0,0,0,0,0],"id":21,"left_children":[1,3,5,7,9,11,13,15,17,19,21,23,25,27,-1,-1,-1,-1,-1,-1,-1,-1,-1,-1,-1,-1,-1,-1,-1],"loss_changes":[8.2104063E-1,1.4044943E0,4.0990573E-1,3.0009532E-1,5.104511E-1,4.268329E-1,1.6606939E-1,2.3989415E-1,1.7908931E-1,4.274981E-1,6.115185E-1,4.10476E-1,1.8519455E-1,9.8781586E-2,0E0,0E0,0E0,0E0,0E0,0E0,0E0,0E0,0E0,0E0,0E0,0E0,0E0,0E0,0E0],"parents":[2147483647,0,0,1,1,2,2,3,3,4,4,5,5,6,6,7,7,8,8,9,9,10,10,11,11,12,12,13,13],"right_children":[2,4,6,8,10,12,14,16,18,20,22,24,26,28,-1,-1,-1,-1,-1,-1,-1,-1,-1,-1,-1,-1,-1,-1,-1],"split_conditions":[-1.7572207E-2,-8.434452E-1,1.7889874E0,4.572096E-1,-6.393871E0,3.25282E-1,7.361285E0,-3.0654308E-1,-1.0674691E0,4.447231E-2,-3.291109E-1,2.0038883E3,6.459993E-1,1.6770527E-1,4.5994268E-4,-4.3922515E-5,-2.0322332E-4,1.7467904E-4,1.1452574E-3,4.087149E-4,1.2722133E-4,-9.201803E-5,9.950851E-5,-1.7517556E-4,-6.3027032E-6,-9.931932E-5,-3.1658256E-4,-4.2547783E-4,-1.3610767E-4],"split_indices":[14,16,20,26,10,26,9,21,14,12,11,5,14,26,0,0,0,0,0,0,0,0,0,0,0,0,0,0,0],"split_type":[0,0,0,0,0,0,0,0,0,0,0,0,0,0,0,0,0,0,0,0,0,0,0,0,0,0,0,0,0],"sum_hessian":[3.49696E5,1.71775E5,1.77921E5,3.5911E4,1.35864E5,1.72538E5,5.383E3,3.4796E4,1.115E3,7.0157E4,6.5707E4,1.5796E5,1.4578E4,5.142E3,2.41E2,1.5047E4,1.9749E4,9.02E2,2.13E2,5.26E3,6.4897E4,2.3162E4,4.2545E4,1.4241E4,1.43719E5,8.426E3,6.152E3,3.58E3,1.562E3],"tree_param":{"num_deleted":"0","num_feature":"30","num_nodes":"29","size_leaf_vector":"1"}},{"base_weights":[-1.8462988E-4,8.486713E-4,-2.8553854E-3,-2.9906922E-3,1.6566342E-3,-1.5147546E-3,-6.453253E-3,1.7405123E-3,-4.6573454E-3,5.2336925E-3,8.938847E-4,-8.238509E-3,-5.3158734E-4,-7.9183215E-3,3.4696146E-4,5.8068533E-4,2.0990035E-5,-1.6607257E-4,1.9406778E-4,3.9087882E-4,1.2509062E-4,1.1286481E-4,6.3784654E-7,-1.8934789E-4,-3.907444E-4,1.4072731E-4,-4.3607444E-5,-4.1289337E-4,-1.589053E-4,9.429033E-5,-3.492706E-4],"categories":[],"categories_nodes":[],"categories_segments":[],"categories_sizes":[],"default_left":[0,0,0,1,0,0,0,0,0,0,0,0,0,0,0,0,0,0,0,0,0,0,0,0,0,0,0,0,0,0,0],"id":22,"left_children":[1,3,5,7,9,11,13,15,17,19,21,23,25,27,29,-1,-1,-1,-1,-1,-1,-1,-1,-1,-1,-1,-1,-1,-1,-1,-1],"loss_changes":[9.4026804E-1,7.6170594E-1,4.5766824E-1,3.3682004E-1,5.530083E-1,4.570486E-1,2.5763285E-1,2.0154269E-1,3.085733E-1,2.9378963E-1,4.1830057E-1,7.928389E-2,2.9076827E-1,3.2315755E-1,1.5208684E-1,0E0,0E0,0E0,0E0,0E0,0E0,0E0,0E0,0E0,0E0,0E0,0E0,0E0,0E0,0E0,0E0],"parents":[2147483647,0,0,1,1,2,2,3,3,4,4,5,5,6,6,7,7,8,8,9,9,10,10,11,11,12,12,13,13,14,14],"right_children":[2,4,6,8,10,12,14,16,18,20,22,24,26,28,30,-1,-1,-1,-1,-1,-1,-1,-1,-1,-1,-1,-1,-1,-1,-1,-1],"split_conditions":[9.472962E1,-8.434452E-1,8.3578575E-1,-6.457992E-1,9.072317E1,-9.4454384E-1,2.2413356E2,6.0557984E-2,2.3408838E3,-1.1402559E0,-8.076262E-1,3.9517647E-1,-1.1651094E0,-6.415154E-1,9.243162E-1,5.8068533E-4,2.0990035E-5,-1.6607257E-4,1.9406778E-4,3.9087882E-4,1.2509062E-4,1.1286481E-4,6.3784654E-7,-1.8934789E-4,-3.907444E-4,1.4072731E-4,-4.3607444E-5,-4.1289337E-4,-1.589053E-4,9.429033E-5,-3.492706E-4],"split_indices":[0,17,19,29,0,19,6,12,5,22,27,2,20,15,2,0,0,0,0,0,0,0,0,0,0,0,0,0,0,0,0],"split_type":[0,0,0,0,0,0,0,0,0,0,0,0,0,0,0,0,0,0,0,0,0,0,0,0,0,0,0,0,0,0,0],"sum_hessian":[3.40638E5,2.45586E5,9.5052E4,4.2674E4,2.02912E5,6.9271E4,2.5781E4,1.1101E4,3.1573E4,3.5638E4,1.67274E5,8.822E3,6.0449E4,2.1223E4,4.558E3,6.12E2,1.0489E4,2.9272E4,2.301E3,4.266E3,3.1372E4,3.8991E4,1.28283E5,6.308E3,2.514E3,9.053E3,5.1396E4,6.557E3,1.4666E4,3.704E3,8.54E2],"tree_param":{"num_deleted":"0","num_feature":"30","num_nodes":"31","size_leaf_vector":"1"}},{"base_weights":[1.3360061E-4,1.2267932E-3,-2.2688217E-3,-8.292543E-3,1.5280175E-3,-7.012669E-4,-5.2160947E-3,-7.6221447E-3,-6.479578E-4,4.0263617E-3,7.2882377E-4,-6.275376E-3,3.8765458E-4,-5.7687517E-3,5.020779E-3,-9.020666E-5,-2.6724258E-4,2.1156096E-5,1.7151715E-4,4.600548E-5,-5.6081455E-5,-9.266488E-5,-2.426139E-4,5.3893356E-5,-1.4443023E-4,-1.7818312E-4,6.589433E-4,8.0197715E-5,4.3179584E-4],"categories":[],"categories_nodes":[],"categories_segments":[],"categories_sizes":[],"default_left":[0,0,0,0,0,0,0,1,0,0,0,0,0,0,0,0,0,0,0,0,0,0,0,0,0,0,0,0,0],"id":23,"left_children":[1,3,5,7,9,11,13,15,-1,17,19,21,23,25,27,-1,-1,-1,-1,-1,-1,-1,-1,-1,-1,-1,-1,-1,-1],"loss_changes":[9.2631125E-1,6.945864E-1,5.0892365E-1,6.300014E-2,4.687999E-1,4.3773216E-1,2.166388E-1,4.0780276E-2,0E0,3.1906104E-1,3.7234205E-1,6.687012E-2,4.4115645E-1,1.7058253E-1,4.1164216E-2,0E0,0E0,0E0,0E0,0E0,0E0,0E0,0E0,0E0,0E0,0E0,0E0,0E0,0E0],"parents":[2147483647,0,0,1,1,2,2,3,3,4,4,5,5,6,6,7,7,9,9,10,10,11,11,12,12,13,13,14,14],"right_children":[2,4,6,8,10,12,14,16,-1,18,20,22,24,26,28,-1,-1,-1,-1,-1,-1,-1,-1,-1,-1,-1,-1,-1,-1],"split_conditions":[9.457165E1,-2.3664021E0,-5.8857546E0,2.1103543E-1,9.04362E-2,-6.7158093E0,2.3983098E2,8.404902E-2,-6.479578E-4,5.5955386E0,1.2532705E0,2.0955942E3,9.697023E1,4.605996E-1,2.4945466E-1,-9.020666E-5,-2.6724258E-4,2.1156096E-5,1.7151715E-4,4.600548E-5,-5.6081455E-5,-9.266488E-5,-2.426139E-4,5.3893356E-5,-1.4443023E-4,-1.7818312E-4,6.589433E-4,8.0197715E-5,4.3179584E-4],"split_indices":[0,16,10,18,26,10,6,26,0,8,1,5,0,25,25,0,0,0,0,0,0,0,0,0,0,0,0,0,0],"split_type":[0,0,0,0,0,0,0,0,0,0,0,0,0,0,0,0,0,0,0,0,0,0,0,0,0,0,0,0,0],"sum_hessian":[3.5274E5,2.42456E5,1.10284E5,7.425E3,2.35031E5,7.2017E4,3.8267E4,7.079E3,3.46E2,5.693E4,1.78101E5,1.1783E4,6.0234E4,3.6317E4,1.95E3,1.561E3,5.518E3,1.9227E4,3.7703E4,1.36015E5,4.2086E4,4.293E3,7.49E3,4.7414E4,1.282E4,3.61E4,2.17E2,1.57E3,3.8E2],"tree_param":{"num_deleted":"0","num_feature":"30","num_nodes":"29","size_leaf_vector":"1"}},{"base_weights":[1.797022E-4,1.2277702E-3,-1.9949435E-3,-1.0243573E-3,2.3832864E-3,8.0603386E-5,-4.1659093E-3,3.3701872E-4,-4.5006857E-3,5.5408757E-3,1.5460209E-3,-5.984653E-4,1.2831749E-2,-5.1596244E-3,4.8942254E-3,1.3022684E-4,-3.8510145E-5,-2.8716197E-4,-7.557652E-5,3.449423E-4,7.973317E-5,5.8880618E-5,-1.5021657E-4,-2.262954E-4,6.6160233E-6,-2.1814907E-4,5.229315E-4,1.6596877E-4,-1.6682474E-4,7.440371E-5,7.1951473E-4],"categories":[],"categories_nodes":[],"categories_segments":[],"categories_sizes":[],"default_left":[0,0,0,0,0,0,0,0,0,1,0,0,0,0,0,0,0,0,0,0,0,0,0,0,0,0,0,0,0,0,0],"id":24,"left_children":[1,3,5,7,9,11,13,15,17,19,21,23,25,27,29,-1,-1,-1,-1,-1,-1,-1,-1,-1,-1,-1,-1,-1,-1,-1,-1],"loss_changes":[7.827388E-1,6.0335964E-1,5.0357854E-1,3.722732E-1,4.043613E-1,4.9537638E-1,4.9167836E-1,3.6657786E-1,2.2114214E-1,5.496419E-1,3.3048707E-1,3.088734E-1,2.687606E-1,2.111857E-1,2.455365E-1,0E0,0E0,0E0,0E0,0E0,0E0,0E0,0E0,0E0,0E0,0E0,0E0,0E0,0E0,0E0,0E0],"parents":[2147483647,0,0,1,1,2,2,3,3,4,4,5,5,6,6,7,7,8,8,9,9,10,10,11,11,12,12,13,13,14,14],"right_children":[2,4,6,8,10,12,14,16,18,20,22,24,26,28,30,-1,-1,-1,-1,-1,-1,-1,-1,-1,-1,-1,-1,-1,-1,-1,-1],"split_conditions":[-6.030911E0,-3.6126983E-1,4.7218084E-1,1.3675733E0,-7.320599E-1,3.5980362E-1,2.3681818E2,-1.8550216E-1,1.5413187E0,1.0427435E-1,3.015874E-1,4.00864E0,3.341312E0,1.9892462E3,7.1455555E0,1.3022684E-4,-3.8510145E-5,-2.8716197E-4,-7.557652E-5,3.449423E-4,7.973317E-5,5.8880618E-5,-1.5021657E-4,-2.262954E-4,6.6160233E-6,-2.1814907E-4,5.229315E-4,1.6596877E-4,-1.6682474E-4,7.440371E-5,7.1951473E-4],"split_indices":[10,16,14,15,14,25,6,11,15,26,26,8,28,5,28,0,0,0,0,0,0,0,0,0,0,0,0,0,0,0,0],"split_type":[0,0,0,0,0,0,0,0,0,0,0,0,0,0,0,0,0,0,0,0,0,0,0,0,0,0,0,0,0,0,0],"sum_hessian":[3.4346E5,2.31794E5,1.11666E5,7.8571E4,1.53223E5,5.7065E4,5.4601E4,5.6441E4,2.213E4,3.2086E4,1.21137E5,5.4174E4,2.891E3,4.9215E4,5.386E3,1.628E4,4.0161E4,6.201E3,1.5929E4,1.0451E4,2.1635E4,1.13911E5,7.226E3,5.726E3,4.8448E4,5.34E2,2.357E3,1.77E3,4.7445E4,4.788E3,5.98E2],"tree_param":{"num_deleted":"0","num_feature":"30","num_nodes":"31","size_leaf_vector":"1"}},{"base_weights":[-5.776931E-5,5.823289E-4,-4.8839594E-3,3.0518034E-3,-4.4674563E-4,-4.1280156E-3,-1.0222856E-2,-1.8765908E-3,4.3753684E-3,-3.2071606E-3,2.612837E-4,-5.565295E-3,-1.3447023E-3,-2.8624106E-3,-1.3270263E-2,5.195739E-4,-7.5905264E-5,1.1873199E-4,5.549257E-4,-2.9659108E-5,-1.9713152E-4,-4.2253558E-4,1.2504099E-5,-1.2006538E-4,-2.6214027E-4,8.21483E-5,-1.6224121E-4,-2.7097156E-4,-2.8655695E-5,-4.981427E-4,-3.223075E-4],"categories":[],"categories_nodes":[],"categories_segments":[],"categories_sizes":[],"default_left":[0,0,0,0,0,0,0,0,0,0,0,0,0,0,0,0,0,0,0,0,0,0,0,0,0,0,0,0,0,0,0],"id":25,"left_children":[1,3,5,7,9,11,13,15,17,19,21,23,25,27,29,-1,-1,-1,-1,-1,-1,-1,-1,-1,-1,-1,-1,-1,-1,-1,-1],"loss_changes":[1.1012633E0,7.997453E-1,1.6696352E-1,6.040789E-1,4.3425366E-1,1.4566058E-1,1.14050925E-1,2.4428514E-1,4.2807305E-1,3.3770204E-1,3.9283416E-1,1.18195474E-1,2.0744587E-1,1.6905895E-2,2.7567625E-2,0E0,0E0,0E0,0E0,0E0,0E0,0E0,0E0,0E0,0E0,0E0,0E0,0E0,0E0,0E0,0E0],"parents":[2147483647,0,0,1,1,2,2,3,3,4,4,5,5,6,6,7,7,8,8,9,9,10,10,11,11,12,12,13,13,14,14],"right_children":[2,4,6,8,10,12,14,16,18,20,22,24,26,28,30,-1,-1,-1,-1,-1,-1,-1,-1,-1,-1,-1,-1,-1,-1,-1,-1],"split_conditions":[1.1778389E0,9.207692E1,1.4287362E0,-8.050372E-1,-6.199673E-1,9.9375E-1,2.0160436E3,1.6317434E0,2.3018547E2,-7.699021E-1,1.8678778E3,5.1963305E-1,3.0848932E-1,6.503679E-1,2.479031E0,5.195739E-4,-7.5905264E-5,1.1873199E-4,5.549257E-4,-2.9659108E-5,-1.9713152E-4,-4.2253558E-4,1.2504099E-5,-1.2006538E-4,-2.6214027E-4,8.21483E-5,-1.6224121E-4,-2.7097156E-4,-2.8655695E-5,-4.981427E-4,-3.223075E-4],"split_indices":[19,0,2,16,11,2,5,28,6,11,5,16,14,7,16,0,0,0,0,0,0,0,0,0,0,0,0,0,0,0,0],"split_type":[0,0,0,0,0,0,0,0,0,0,0,0,0,0,0,0,0,0,0,0,0,0,0,0,0,0,0,0,0,0,0],"sum_hessian":[3.56341E5,3.14597E5,4.1744E4,9.2564E4,2.22033E5,3.6586E4,5.158E3,1.958E4,7.2984E4,4.5352E4,1.76681E5,2.4102E4,1.2484E4,1.521E3,3.637E3,6.38E2,1.8942E4,7.0897E4,2.087E3,2.7348E4,1.8004E4,1.886E3,1.74795E5,1.6171E4,7.931E3,6.215E3,6.269E3,3.45E2,1.176E3,1.546E3,2.091E3],"tree_param":{"num_deleted":"0","num_feature":"30","num_nodes":"31","size_leaf_vector":"1"}},{"base_weights":[-1.9222179E-4,8.233906E-4,-2.591873E-3,1.8152618E-3,-2.2134138E-3,3.184125E-3,-3.1984432E-3,-6.052227E-3,2.2254444E-3,-2.5035182E-3,6.2647526E-4,5.122016E-3,-1.6053587E-2,-2.8299843E-3,-1.0795457E-2,1.0855458E-4,-2.507395E-4,5.788965E-5,2.9984213E-4,3.7505593E-5,-1.0928436E-4,1.307463E-4,9.2232105E-4,-5.7759404E-4,-3.4219786E-4,-6.784725E-5,-2.2518606E-4,-3.8570695E-4,-0E0],"categories":[],"categories_nodes":[],"categories_segments":[],"categories_sizes":[],"default_left":[0,0,0,0,1,0,0,1,0,0,0,0,0,0,0,0,0,0,0,0,0,0,0,0,0,0,0,0,0],"id":26,"left_children":[1,3,5,7,9,11,13,15,17,19,-1,21,23,25,27,-1,-1,-1,-1,-1,-1,-1,-1,-1,-1,-1,-1,-1,-1],"loss_changes":[8.2406265E-1,7.153435E-1,3.5233504E-1,5.774641E-1,3.898885E-1,3.548027E-1,2.5335544E-1,1.9811973E-1,3.89885E-1,2.471349E-1,0E0,1.6599366E-1,9.4153285E-3,2.2976798E-1,9.223327E-2,0E0,0E0,0E0,0E0,0E0,0E0,0E0,0E0,0E0,0E0,0E0,0E0,0E0,0E0],"parents":[2147483647,0,0,1,1,2,2,3,3,4,4,5,5,6,6,7,7,8,8,9,9,11,11,12,12,13,13,14,14],"right_children":[2,4,6,8,10,12,14,16,18,20,-1,22,24,26,28,-1,-1,-1,-1,-1,-1,-1,-1,-1,-1,-1,-1,-1,-1],"split_conditions":[9.456437E1,1.1812433E0,-1.1743945E0,4.5878296E0,5.067674E1,9.731563E1,7.144603E0,-4.9814907E-1,1.1560191E0,1.7222648E0,6.2647526E-4,9.4289154E-1,9.8719246E1,1.2268778E0,9.668834E1,1.0855458E-4,-2.507395E-4,5.788965E-5,2.9984213E-4,3.7505593E-5,-1.0928436E-4,1.307463E-4,9.2232105E-4,-5.7759404E-4,-3.4219786E-4,-6.784725E-5,-2.2518606E-4,-3.8570695E-4,-0E0],"split_indices":[0,1,20,8,28,0,9,29,1,7,0,2,0,16,0,0,0,0,0,0,0,0,0,0,0,0,0,0,0],"split_type":[0,0,0,0,0,0,0,0,0,0,0,0,0,0,0,0,0,0,0,0,0,0,0,0,0,0,0,0,0],"sum_hessian":[3.38054E5,2.37497E5,1.00557E5,1.7905E5,5.8447E4,9.54E3,9.1017E4,8.859E3,1.70191E5,5.7728E4,7.19E2,8.673E3,8.67E2,8.6822E4,4.195E3,1.697E3,7.162E3,1.63964E5,6.227E3,1.3421E4,4.4307E4,8.428E3,2.45E2,4.97E2,3.7E2,7.7434E4,9.388E3,3.515E3,6.8E2],"tree_param":{"num_deleted":"0","num_feature":"30","num_nodes":"29","size_leaf_vector":"1"}},{"base_weights":[-1.084073E-4,1.675917E-3,-1.7643068E-3,-1.932788E-3,2.6390648E-3,-3.7966033E-3,-6.849792E-4,1.8762851E-3,-3.8810945E-3,6.9064824E-3,1.9189247E-3,-2.9362857E-3,-7.40602E-3,-2.3629992E-4,-6.7104525E-3,-4.5377186E-5,2.2183146E-4,-2.3527526E-4,-6.1660234E-5,1.4841111E-4,6.630561E-4,1.4109102E-4,1.051612E-5,-1.2337998E-4,7.372966E-5,-3.3152502E-4,-6.864156E-5,1.9782799E-4,-1.8775474E-5,-9.142959E-5,-4.2252504E-4],"categories":[],"categories_nodes":[],"categories_segments":[],"categories_sizes":[],"default_left":[0,0,0,1,0,0,0,0,0,0,1,0,0,0,0,0,0,0,0,0,0,0,0,0,0,0,0,0,0,0,0],"id":27,"left_children":[1,3,5,7,9,11,13,15,17,19,21,23,25,27,29,-1,-1,-1,-1,-1,-1,-1,-1,-1,-1,-1,-1,-1,-1,-1,-1],"loss_changes":[1.0453297E0,5.918597E-1,4.021135E-1,2.6625174E-1,4.1216683E-1,1.9649982E-1,3.2345513E-1,2.2716165E-1,1.7064291E-1,5.743152E-1,5.0177705E-1,3.263737E-1,2.2662383E-1,2.9638532E-1,2.2220898E-1,0E0,0E0,0E0,0E0,0E0,0E0,0E0,0E0,0E0,0E0,0E0,0E0,0E0,0E0,0E0,0E0],"parents":[2147483647,0,0,1,1,2,2,3,3,4,4,5,5,6,6,7,7,8,8,9,9,10,10,11,11,12,12,13,13,14,14],"right_children":[2,4,6,8,10,12,14,16,18,20,22,24,26,28,30,-1,-1,-1,-1,-1,-1,-1,-1,-1,-1,-1,-1,-1,-1,-1,-1],"split_conditions":[-1.7572207E-2,-8.050372E-1,-2.9877457E-1,-5.8716226E-1,2.9531837E0,5.085699E-1,9.8102974E1,4.0202343E-1,-1.8819798E0,2.8634937E0,-6.289689E-1,2.2536719E2,5.869349E-1,-1.6589932E0,-5.7930837E0,-4.5377186E-5,2.2183146E-4,-2.3527526E-4,-6.1660234E-5,1.4841111E-4,6.630561E-4,1.4109102E-4,1.051612E-5,-1.2337998E-4,7.372966E-5,-3.3152502E-4,-6.864156E-5,1.9782799E-4,-1.8775474E-5,-9.142959E-5,-4.2252504E-4],"split_indices":[14,16,11,29,28,12,0,12,16,28,27,6,22,24,10,0,0,0,0,0,0,0,0,0,0,0,0,0,0,0,0],"split_type":[0,0,0,0,0,0,0,0,0,0,0,0,0,0,0,0,0,0,0,0,0,0,0,0,0,0,0,0,0,0,0],"sum_hessian":[3.53783E5,1.70259E5,1.83524E5,3.5846E4,1.34413E5,6.3625E4,1.19899E5,1.2113E4,2.3733E4,1.9385E4,1.15028E5,5.1404E4,1.2221E4,1.11607E5,8.292E3,7.494E3,4.619E3,7.468E3,1.6265E4,1.7179E4,2.206E3,4.1425E4,7.3603E4,4.2216E4,9.188E3,7.125E3,5.096E3,6.006E3,1.05601E5,5.551E3,2.741E3],"tree_param":{"num_deleted":"0","num_feature":"30","num_nodes":"31","size_leaf_vector":"1"}},{"base_weights":[1.4640363E-4,6.441364E-4,-3.4190367E-3,3.0151738E-3,-2.8864479E-5,-1.7374812E-3,-5.8488133E-3,5.0176457E-3,3.129167E-4,-5.397346E-4,3.963259E-3,-2.434435E-3,1.1601754E-2,2.914315E-3,-6.8259053E-3,2.7863893E-5,2.1513907E-4,-2.4907633E-5,3.8609916E-4,-7.81125E-5,1.4236549E-5,-5.9354195E-4,1.2820437E-4,-5.3416275E-5,-4.715835E-4,9.2681736E-4,6.484028E-5,-3.7705377E-4,1.5805464E-4,5.7043966E-5,-2.3304624E-4],"categories":[],"categories_nodes":[],"categories_segments":[],"categories_sizes":[],"default_left":[0,0,0,0,0,0,0,0,0,1,0,0,0,0,0,0,0,0,0,0,0,0,0,0,0,0,0,0,0,0,0],"id":28,"left_children":[1,3,5,7,9,11,13,15,17,19,21,23,25,27,29,-1,-1,-1,-1,-1,-1,-1,-1,-1,-1,-1,-1,-1,-1,-1,-1],"loss_changes":[5.926986E-1,4.682121E-1,1.6635904E-1,3.5044998E-1,4.6541467E-1,2.2415102E-1,1.4347416E-1,3.2705843E-1,3.9786452E-1,4.241203E-1,1.8933007E-1,1.9808128E-1,2.1420142E-1,6.016314E-2,1.2431073E-1,0E0,0E0,0E0,0E0,0E0,0E0,0E0,0E0,0E0,0E0,0E0,0E0,0E0,0E0,0E0,0E0],"parents":[2147483647,0,0,1,1,2,2,3,3,4,4,5,5,6,6,7,7,8,8,9,9,10,10,11,11,12,12,13,13,14,14],"right_children":[2,4,6,8,10,12,14,16,18,20,22,24,26,28,30,-1,-1,-1,-1,-1,-1,-1,-1,-1,-1,-1,-1,-1,-1,-1,-1],"split_conditions":[1.1778389E0,-7.7903897E-1,5.154111E-1,-6.176133E0,1.0650077E0,9.4025246E1,-6.0277706E-1,-2.120851E0,2.3417427E2,1.3921458E-1,-9.140217E-1,5.959781E0,9.406319E1,9.447137E1,6.146405E0,2.7863893E-5,2.1513907E-4,-2.4907633E-5,3.8609916E-4,-7.81125E-5,1.4236549E-5,-5.9354195E-4,1.2820437E-4,-5.3416275E-5,-4.715835E-4,9.2681736E-4,6.484028E-5,-3.7705377E-4,1.5805464E-4,5.7043966E-5,-2.3304624E-4],"split_indices":[19,27,14,10,24,0,24,7,6,26,15,8,0,0,9,0,0,0,0,0,0,0,0,0,0,0,0,0,0,0,0],"split_type":[0,0,0,0,0,0,0,0,0,0,0,0,0,0,0,0,0,0,0,0,0,0,0,0,0,0,0,0,0,0,0],"sum_hessian":[3.34135E5,2.9323E5,4.0905E4,6.4861E4,2.28369E5,2.4201E4,1.6704E4,3.7232E4,2.7629E4,2.02484E5,2.5885E4,2.3008E4,1.193E3,1.665E3,1.5039E4,1.2862E4,2.437E4,2.5318E4,2.311E3,6.6749E4,1.35735E5,3.28E2,2.5557E4,2.1938E4,1.07E3,3.87E2,8.06E2,2.13E2,1.452E3,1.455E3,1.3584E4],"tree_param":{"num_deleted":"0","num_feature":"30","num_nodes":"31","size_leaf_vector":"1"}},{"base_weights":[-3.400603E-4,1.8966378E-4,-3.4471517E-3,-2.2032473E-4,4.3226993E-3,-2.7126584E-3,-8.841159E-3,-6.913979E-4,3.333683E-3,2.6338633E-2,3.6018714E-3,-3.7333565E-3,4.07372E-3,-2.5149605E-3,-1.0919586E-2,-8.552208E-6,-2.299382E-4,8.366175E-5,4.8709128E-4,3.9997447E-4,9.199701E-4,-2.2032358E-4,1.448237E-4,-1.1798024E-4,5.4179935E-4,3.48586E-4,-1.7539843E-4,-2.6333635E-4,-1.7428556E-5,-3.039438E-4,-6.470815E-4],"categories":[],"categories_nodes":[],"categories_segments":[],"categories_sizes":[],"default_left":[0,0,0,0,0,0,0,0,1,0,0,0,0,0,0,0,0,0,0,0,0,0,0,0,0,0,0,0,0,0,0],"id":29,"left_children":[1,3,5,7,9,11,13,15,17,19,21,23,25,27,29,-1,-1,-1,-1,-1,-1,-1,-1,-1,-1,-1,-1,-1,-1,-1,-1],"loss_changes":[5.7677436E-1,5.073938E-1,2.010141E-1,4.5541006E-1,4.2566293E-1,3.1130952E-1,7.880768E-2,6.801903E-1,2.2181019E-1,4.2731404E-2,3.5093647E-1,1.6848981E-1,4.3967456E-1,1.7501311E-2,3.482622E-2,0E0,0E0,0E0,0E0,0E0,0E0,0E0,0E0,0E0,0E0,0E0,0E0,0E0,0E0,0E0,0E0],"parents":[2147483647,0,0,1,1,2,2,3,3,4,4,5,5,6,6,7,7,8,8,9,9,10,10,11,11,12,12,13,13,14,14],"right_children":[2,4,6,8,10,12,14,16,18,20,22,24,26,28,30,-1,-1,-1,-1,-1,-1,-1,-1,-1,-1,-1,-1,-1,-1,-1,-1],"split_conditions":[1.0372974E0,3.1922078E-1,1.4287362E0,1.0650077E0,-1.7810807E0,1.1591419E0,2.0160436E3,9.9227436E-2,8.5511917E-1,5.8444446E-1,1.3880511E2,1.1371403E-1,2.1937297E3,3.8212246E-1,6.936388E0,-8.552208E-6,-2.299382E-4,8.366175E-5,4.8709128E-4,3.9997447E-4,9.199701E-4,-2.2032358E-4,1.448237E-4,-1.1798024E-4,5.4179935E-4,3.48586E-4,-1.7539843E-4,-2.6333635E-4,-1.7428556E-5,-3.039438E-4,-6.470815E-4],"split_indices":[19,25,2,24,14,2,5,23,29,2,6,23,5,12,9,0,0,0,0,0,0,0,0,0,0,0,0,0,0,0,0],"split_type":[0,0,0,0,0,0,0,0,0,0,0,0,0,0,0,0,0,0,0,0,0,0,0,0,0,0,0,0,0,0,0],"sum_hessian":[3.5023E5,2.99191E5,5.1039E4,2.7217E5,2.7021E4,4.4941E4,6.098E3,2.40343E5,3.1827E4,8.5E2,2.6171E4,3.9079E4,5.862E3,1.521E3,4.577E3,2.27125E5,1.3218E4,3.0547E4,1.28E3,2.2E2,6.3E2,2.626E3,2.3545E4,3.8731E4,3.48E2,3.335E3,2.527E3,3.45E2,1.176E3,4.274E3,3.03E2],"tree_param":{"num_deleted":"0","num_feature":"30","num_nodes":"31","size_leaf_vector":"1"}},{"base_weights":[-2.5349558E-5,2.892724E-4,-5.670842E-3,3.9540944E-3,-7.978942E-5,-1.5737034E-2,-4.2924243E-3,1.1892215E-2,1.0498655E-3,1.6022291E-3,-9.5770555E-4,-1.8817304E-2,1.256506E-5,-1.3060712E-2,-3.5379797E-3,-9.380282E-5,5.2295823E-4,1.5253569E-5,9.722053E-4,-5.2076117E-5,9.231107E-5,-2.8505772E-6,-1.5244557E-4,-6.150076E-4,-4.888992E-4,-5.991359E-4,-3.1774095E-4,-7.8812394E-5,-3.035301E-4],"categories":[],"categories_nodes":[],"categories_segments":[],"categories_sizes":[],"default_left":[0,0,0,0,0,1,0,0,0,0,0,0,0,0,0,0,0,0,0,0,0,0,0,0,0,0,0,0,0],"id":30,"left_children":[1,3,5,7,9,11,13,15,17,19,21,23,-1,25,27,-1,-1,-1,-1,-1,-1,-1,-1,-1,-1,-1,-1,-1,-1],"loss_changes":[6.119258E-1,4.413518E-1,2.502141E-1,6.869154E-1,4.3729025E-1,1.10391855E-1,1.0414365E-1,6.660658E-1,3.6793035E-1,4.99997E-1,6.91935E-1,3.4449697E-3,0E0,1.7970622E-2,8.709356E-2,0E0,0E0,0E0,0E0,0E0,0E0,0E0,0E0,0E0,0E0,0E0,0E0,0E0,0E0],"parents":[2147483647,0,0,1,1,2,2,3,3,4,4,5,5,6,6,7,7,8,8,9,9,10,10,11,11,13,13,14,14],"right_children":[2,4,6,8,10,12,14,16,18,20,22,24,-1,26,28,-1,-1,-1,-1,-1,-1,-1,-1,-1,-1,-1,-1,-1,-1],"split_conditions":[1.6039885E0,6.0557984E-2,1.6989915E-1,-7.047751E-1,6.187261E0,2.3775797E-1,1.3880511E2,-1.2654244E0,3.574044E-1,-6.5011233E-1,1.2162296E0,2.924537E-1,1.256506E-5,9.796636E1,6.6411057E0,-9.380282E-5,5.2295823E-4,1.5253569E-5,9.722053E-4,-5.2076117E-5,9.231107E-5,-2.8505772E-6,-1.5244557E-4,-6.150076E-4,-4.888992E-4,-5.991359E-4,-3.1774095E-4,-7.8812394E-5,-3.035301E-4],"split_indices":[14,12,25,14,9,26,6,22,26,24,1,12,0,0,8,0,0,0,0,0,0,0,0,0,0,0,0,0,0],"split_type":[0,0,0,0,0,0,0,0,0,0,0,0,0,0,0,0,0,0,0,0,0,0,0,0,0,0,0,0,0],"sum_hessian":[3.44208E5,3.26023E5,1.8185E4,2.9851E4,2.96172E5,2.179E3,1.6006E4,7.985E3,2.1866E4,1.01531E5,1.94641E5,1.835E3,3.44E2,1.255E3,1.4751E4,2.147E3,5.838E3,2.15E4,3.66E2,3.1091E4,7.044E4,1.60989E5,3.3652E4,1.068E3,7.67E2,3.16E2,9.39E2,1.2973E4,1.778E3],"tree_param":{"num_deleted":"0","num_feature":"30","num_nodes":"29","size_leaf_vector":"1"}},{"base_weights":[9.875573E-5,7.3412014E-4,-3.5451427E-3,-7.11412E-3,9.4619003E-4,-6.1653447E-3,-1.3812967E-3,-7.7557494E-3,1.7756342E-4,2.763806E-3,1.10862675E-4,-4.918336E-3,-1.0608309E-2,-6.629033E-3,5.059698E-4,-2.0971842E-4,-4.2625255E-4,9.1253554E-5,-3.7778838E-4,1.010392E-4,-1.411542E-5,-2.2891587E-4,-5.865299E-5,-1.8241856E-4,-3.9629362E-4,-3.0431914E-4,-4.9604096E-5,8.561891E-5,-1.8905895E-4],"categories":[],"categories_nodes":[],"categories_segments":[],"categories_sizes":[],"default_left":[0,0,0,0,0,0,0,0,0,0,1,0,0,0,0,0,0,0,0,0,0,0,0,0,0,0,0,0,0],"id":31,"left_children":[1,3,5,7,9,11,13,15,-1,17,19,21,23,25,27,-1,-1,-1,-1,-1,-1,-1,-1,-1,-1,-1,-1,-1,-1],"loss_changes":[8.139857E-1,4.978903E-1,2.951647E-1,6.607008E-2,4.4251323E-1,1.290248E-1,2.8397882E-1,3.474471E-2,0E0,3.9096427E-1,3.7873617E-1,1.4720342E-1,5.8570504E-2,1.3138682E-1,3.3587146E-1,0E0,0E0,0E0,0E0,0E0,0E0,0E0,0E0,0E0,0E0,0E0,0E0,0E0,0E0],"parents":[2147483647,0,0,1,1,2,2,3,3,4,4,5,5,6,6,7,7,9,9,10,10,11,11,12,12,13,13,14,14],"right_children":[2,4,6,8,10,12,14,16,-1,18,20,22,24,26,28,-1,-1,-1,-1,-1,-1,-1,-1,-1,-1,-1,-1,-1,-1],"split_conditions":[9.6035965E1,-2.3664021E0,2.0135996E-1,1.6851867E0,6.187261E0,1.9318701E-1,-1.9965193E-1,9.21798E1,1.7756342E-4,1.6636025E0,3.1732948E0,-6.5535986E-1,-1.3131056E0,4.3309695E-1,9.8102974E1,-2.0971842E-4,-4.2625255E-4,9.1253554E-5,-3.7778838E-4,1.010392E-4,-1.411542E-5,-2.2891587E-4,-5.865299E-5,-1.8241856E-4,-3.9629362E-4,-3.0431914E-4,-4.9604096E-5,8.561891E-5,-1.8905895E-4],"split_indices":[0,16,25,27,9,25,18,0,0,11,28,15,7,20,0,0,0,0,0,0,0,0,0,0,0,0,0,0,0],"split_type":[0,0,0,0,0,0,0,0,0,0,0,0,0,0,0,0,0,0,0,0,0,0,0,0,0,0,0,0,0],"sum_hessian":[3.517E5,2.99506E5,5.2194E4,7.866E3,2.9164E5,2.3585E4,2.8609E4,7.505E3,3.61E2,9.1789E4,1.99851E5,1.8437E4,5.148E3,7.58E3,2.1029E4,6.727E3,7.78E2,9.0165E4,1.624E3,3.0294E4,1.69557E5,9.607E3,8.83E3,1.895E3,3.253E3,4.429E3,3.151E3,1.5648E4,5.381E3],"tree_param":{"num_deleted":"0","num_feature":"30","num_nodes":"29","size_leaf_vector":"1"}},{"base_weights":[1.1762186E-4,6.1477616E-4,-3.4327449E-3,-5.180971E-3,9.279093E-4,-1.956422E-3,-6.505915E-3,1.4060352E-2,-6.108367E-3,2.0063478E-3,-5.4998946E-4,3.7383337E-3,-3.0367214E-3,-3.7821154E-3,-1.0359867E-2,2.5019931E-4,6.01251E-4,-2.2931483E-5,-2.4687176E-4,3.4472705E-5,1.9148485E-4,8.986371E-5,-5.389762E-5,2.0573578E-4,-2.6212604E-4,-1.0146795E-4,4.117637E-4,3.298775E-6,-2.785136E-4,-5.0644676E-4,-2.5460587E-4],"categories":[],"categories_nodes":[],"categories_segments":[],"categories_sizes":[],"default_left":[0,0,0,0,0,0,0,0,1,0,0,0,0,0,0,0,0,0,0,0,0,0,0,0,0,0,0,0,0,0,0],"id":32,"left_children":[1,3,5,7,9,11,13,15,17,19,21,23,25,27,29,-1,-1,-1,-1,-1,-1,-1,-1,-1,-1,-1,-1,-1,-1,-1,-1],"loss_changes":[6.1870944E-1,5.5789644E-1,1.9444579E-1,2.804781E-1,4.653624E-1,1.7900765E-1,1.4491457E-1,2.1462739E-2,1.6947895E-1,6.3248605E-1,5.439616E-1,1.8000913E-1,1.4084832E-1,1.762912E-1,6.752372E-2,0E0,0E0,0E0,0E0,0E0,0E0,0E0,0E0,0E0,0E0,0E0,0E0,0E0,0E0,0E0,0E0],"parents":[2147483647,0,0,1,1,2,2,3,3,4,4,5,5,6,6,7,7,8,8,9,9,10,10,11,11,12,12,13,13,14,14],"right_children":[2,4,6,8,10,12,14,16,18,20,22,24,26,28,30,-1,-1,-1,-1,-1,-1,-1,-1,-1,-1,-1,-1,-1,-1,-1,-1],"split_conditions":[1.1240097E0,-1.8481582E0,6.0214543E0,5.416788E0,-6.1905284E0,-1.4580715E0,2.1601135E2,-2.2071922E0,3.5945606E0,6.4930886E-1,2.0808174E3,3.548851E-1,2.3837549E2,-5.97454E0,2.0486543E3,2.5019931E-4,6.01251E-4,-2.2931483E-5,-2.4687176E-4,3.4472705E-5,1.9148485E-4,8.986371E-5,-5.389762E-5,2.0573578E-4,-2.6212604E-4,-1.0146795E-4,4.117637E-4,3.298775E-6,-2.785136E-4,-5.0644676E-4,-2.5460587E-4],"split_indices":[14,16,8,9,10,4,6,7,28,16,5,24,6,10,5,0,0,0,0,0,0,0,0,0,0,0,0,0,0,0,0],"split_type":[0,0,0,0,0,0,0,0,0,0,0,0,0,0,0,0,0,0,0,0,0,0,0,0,0,0,0,0,0,0,0],"sum_hessian":[3.50683E5,3.07635E5,4.3048E4,1.5751E4,2.91884E5,2.9103E4,1.3945E4,7.18E2,1.5033E4,1.68786E5,1.23098E5,4.625E3,2.4478E4,8.188E3,5.757E3,3.78E2,3.4E2,4.285E3,1.0748E4,1.41161E5,2.7625E4,3.2001E4,9.1097E4,3.707E3,9.18E2,2.3991E4,4.87E2,4.786E3,3.402E3,1.269E3,4.488E3],"tree_param":{"num_deleted":"0","num_feature":"30","num_nodes":"31","size_leaf_vector":"1"}},{"base_weights":[-8.048386E-6,9.467884E-4,-2.2486644E-3,-2.7513623E-3,1.7230057E-3,-1.8625619E-3,-9.84618E-3,1.2957904E-3,-4.196652E-3,5.784947E-3,1.1327508E-3,-1.048267E-3,-4.994752E-3,-1.196711E-2,-1.5048166E-4,-1.1449618E-4,2.1302661E-4,-3.5622925E-5,-1.7446118E-4,6.0592694E-5,3.0071894E-4,5.60114E-5,-3.182292E-5,-4.6039564E-5,3.2709067E-4,-2.7185123E-4,-9.088416E-5,-3.2685793E-4,-5.8062264E-4,9.936925E-5,-1.5890859E-4],"categories":[],"categories_nodes":[],"categories_segments":[],"categories_sizes":[],"default_left":[0,0,0,0,0,0,0,0,0,0,0,0,0,0,0,0,0,0,0,0,0,0,0,0,0,0,0,0,0,0,0],"id":33,"left_children":[1,3,5,7,9,11,13,15,17,19,21,23,25,27,29,-1,-1,-1,-1,-1,-1,-1,-1,-1,-1,-1,-1,-1,-1,-1,-1],"loss_changes":[7.429484E-1,6.9867474E-1,3.0322272E-1,2.4718857E-1,4.817338E-1,2.51316E-1,1.01727575E-1,3.2950687E-1,1.508742E-1,4.0588105E-1,2.8310356E-1,4.5496395E-1,1.614275E-1,2.9007971E-2,1.6432982E-2,0E0,0E0,0E0,0E0,0E0,0E0,0E0,0E0,0E0,0E0,0E0,0E0,0E0,0E0,0E0,0E0],"parents":[2147483647,0,0,1,1,2,2,3,3,4,4,5,5,6,6,7,7,8,8,9,9,10,10,11,11,12,12,13,13,14,14],"right_children":[2,4,6,8,10,12,14,16,18,20,22,24,26,28,30,-1,-1,-1,-1,-1,-1,-1,-1,-1,-1,-1,-1,-1,-1,-1,-1],"split_conditions":[9.456437E1,-8.434452E-1,1.7889874E0,-1.3178086E0,9.0360275E1,9.760845E1,-1.5897033E0,5.0178523E0,6.067663E0,2.0556408E-1,1.1954263E0,2.4207778E3,1.9874571E-1,5.5622277E0,9.731563E1,-1.1449618E-4,2.1302661E-4,-3.5622925E-5,-1.7446118E-4,6.0592694E-5,3.0071894E-4,5.60114E-5,-3.182292E-5,-4.6039564E-5,3.2709067E-4,-2.7185123E-4,-9.088416E-5,-3.2685793E-4,-5.8062264E-4,9.936925E-5,-1.5890859E-4],"split_indices":[0,16,20,1,0,0,7,8,9,25,1,5,25,8,0,0,0,0,0,0,0,0,0,0,0,0,0,0,0,0,0],"split_type":[0,0,0,0,0,0,0,0,0,0,0,0,0,0,0,0,0,0,0,0,0,0,0,0,0,0,0,0,0,0,0],"sum_hessian":[3.47201E5,2.43423E5,1.03778E5,4.2206E4,2.01217E5,9.8774E4,5.004E3,1.1088E4,3.1118E4,2.5506E4,1.75711E5,7.8421E4,2.0353E4,4.097E3,9.07E2,5.887E3,5.201E3,1.0907E4,2.0211E4,1.3522E4,1.1984E4,1.31677E5,4.4034E4,7.5364E4,3.057E3,6.612E3,1.3741E4,3.594E3,5.03E2,5.31E2,3.76E2],"tree_param":{"num_deleted":"0","num_feature":"30","num_nodes":"31","size_leaf_vector":"1"}},{"base_weights":[-4.7160087E-5,3.1001102E-3,-4.3784388E-4,1.0992069E-2,9.906542E-4,-3.192751E-3,3.0076593E-5,-1.5412661E-3,1.894537E-2,6.1906094E-4,9.369795E-4,-1.1703E-3,-4.8515825E-3,-3.782391E-4,3.7267692E-3,-6.030893E-4,6.25182E-5,-1.16550706E-4,6.1014714E-4,-9.6319905E-5,7.887443E-5,-2.8312093E-4,8.073166E-6,-1.582287E-4,1.8258268E-4,4.3599975E-5,-3.581996E-5,2.3691717E-4,3.5808443E-5],"categories":[],"categories_nodes":[],"categories_segments":[],"categories_sizes":[],"default_left":[0,0,0,0,0,0,0,0,0,0,0,0,0,0,0,0,0,0,0,0,0,0,0,0,0,0,0,0,0],"id":34,"left_children":[1,3,5,7,9,11,13,15,17,19,-1,21,23,25,27,-1,-1,-1,-1,-1,-1,-1,-1,-1,-1,-1,-1,-1,-1],"loss_changes":[4.315369E-1,6.4389646E-1,4.0305778E-1,8.154981E-1,3.405381E-1,1.516723E-1,4.0340656E-1,2.1492589E-1,1.607703E-1,2.3262545E-1,0E0,2.446745E-1,1.15152836E-1,3.592422E-1,2.7993837E-1,0E0,0E0,0E0,0E0,0E0,0E0,0E0,0E0,0E0,0E0,0E0,0E0,0E0,0E0],"parents":[2147483647,0,0,1,1,2,2,3,3,4,4,5,5,6,6,7,7,8,8,9,9,11,11,12,12,13,13,14,14],"right_children":[2,4,6,8,10,12,14,16,18,20,-1,22,24,26,28,-1,-1,-1,-1,-1,-1,-1,-1,-1,-1,-1,-1,-1,-1],"split_conditions":[6.0557984E-2,-7.41934E-1,3.1219617E-1,-1.2654244E0,3.338599E-1,-1.2751904E0,2.3070116E2,5.8115616E0,1.426455E-2,-6.4089066E-1,9.369795E-4,-2.3664021E0,3.2375963E0,-3.736361E-1,9.4203606E1,-6.030893E-4,6.25182E-5,-1.16550706E-4,6.1014714E-4,-9.6319905E-5,7.887443E-5,-2.8312093E-4,8.073166E-6,-1.582287E-4,1.8258268E-4,4.3599975E-5,-3.581996E-5,2.3691717E-4,3.5808443E-5],"split_indices":[12,14,2,22,26,1,6,9,12,15,0,16,27,14,0,0,0,0,0,0,0,0,0,0,0,0,0,0,0],"split_type":[0,0,0,0,0,0,0,0,0,0,0,0,0,0,0,0,0,0,0,0,0,0,0,0,0,0,0,0,0],"sum_hessian":[3.51173E5,3.8749E4,3.12424E5,8.161E3,3.0588E4,4.539E4,2.67034E5,3.164E3,4.997E3,3.0222E4,3.66E2,2.0482E4,2.4908E4,2.4045E5,2.6584E4,5.2E2,2.644E3,2.83E2,4.714E3,1.0385E4,1.9837E4,3.046E3,1.7436E4,2.3991E4,9.17E2,7.4055E4,1.66395E5,1.0029E4,1.6555E4],"tree_param":{"num_deleted":"0","num_feature":"30","num_nodes":"29","size_leaf_vector":"1"}},{"base_weights":[-5.327495E-6,4.1060458E-4,-3.1200137E-3,-6.869079E-6,3.7269075E-3,-2.4128028E-3,-8.4239915E-3,3.70259E-4,-4.6129413E-3,3.2086072E-3,1.4605925E-2,-6.3176225E-3,-8.207723E-4,-9.83107E-3,-0E0,-5.1576153E-5,3.326914E-5,8.7250875E-5,-2.1120228E-4,8.1082006E-5,4.62656E-4,2.2079074E-4,5.170378E-4,5.283215E-5,-2.5552305E-4,-1.8507027E-4,1.484764E-5,-6.262862E-4,-2.6832995E-4],"categories":[],"categories_nodes":[],"categories_segments":[],"categories_sizes":[],"default_left":[0,0,0,0,1,0,0,0,0,0,0,0,0,0,0,0,0,0,0,0,0,0,0,0,0,0,0,0,0],"id":35,"left_children":[1,3,5,7,9,11,13,15,17,19,21,23,25,27,-1,-1,-1,-1,-1,-1,-1,-1,-1,-1,-1,-1,-1,-1,-1],"loss_changes":[4.6417704E-1,4.37694E-1,1.5722165E-1,4.8773742E-1,1.9742116E-1,2.3094949E-1,5.8306783E-2,4.001526E-1,3.8839573E-1,2.066178E-1,2.7725548E-2,1.9219467E-1,1.8700229E-1,3.8142323E-2,0E0,0E0,0E0,0E0,0E0,0E0,0E0,0E0,0E0,0E0,0E0,0E0,0E0,0E0,0E0],"parents":[2147483647,0,0,1,1,2,2,3,3,4,4,5,5,6,6,7,7,8,8,9,9,10,10,11,11,12,12,13,13],"right_children":[2,4,6,8,10,12,14,16,18,20,22,24,26,28,-1,-1,-1,-1,-1,-1,-1,-1,-1,-1,-1,-1,-1,-1,-1],"split_conditions":[1.2178051E0,1.0611595E0,1.4287362E0,9.907276E-2,1.7659946E1,-6.4089066E-1,7.126826E-1,-5.85965E-1,-8.91641E-1,2.1405496E3,2.1091689E2,-2.104186E0,9.0444534E1,-4.215E-2,-0E0,-5.1576153E-5,3.326914E-5,8.7250875E-5,-2.1120228E-4,8.1082006E-5,4.62656E-4,2.2079074E-4,5.170378E-4,5.283215E-5,-2.5552305E-4,-1.8507027E-4,1.484764E-5,-6.262862E-4,-2.6832995E-4],"split_indices":[19,24,2,23,28,15,1,17,27,5,6,7,0,15,0,0,0,0,0,0,0,0,0,0,0,0,0,0,0],"split_type":[0,0,0,0,0,0,0,0,0,0,0,0,0,0,0,0,0,0,0,0,0,0,0,0,0,0,0,0,0],"sum_hessian":[3.58087E5,3.15875E5,4.2212E4,2.80532E5,3.5343E4,3.7265E4,4.947E3,2.59283E5,2.1249E4,3.3747E4,1.596E3,1.0773E4,2.6492E4,4.235E3,7.12E2,6.7688E4,1.91595E5,5.174E3,1.6075E4,3.2415E4,1.332E3,4.37E2,1.159E3,2.296E3,8.477E3,5.244E3,2.1248E4,3.03E2,3.932E3],"tree_param":{"num_deleted":"0","num_feature":"30","num_nodes":"29","size_leaf_vector":"1"}},{"base_weights":[-6.9293566E-4,5.8855664E-4,-1.8189014E-3,-2.9028703E-3,1.5329362E-3,1.5355038E-3,-2.3845006E-3,-3.5907233E-6,-4.398922E-3,6.457758E-3,8.79087E-4,7.858236E-3,2.5044804E-4,2.4236217E-3,-2.9295648E-3,-1.7496722E-4,1.2862206E-4,-5.685852E-5,-2.0500433E-4,1.1814941E-4,6.583745E-4,5.4920474E-5,-6.0330018E-5,6.067041E-4,7.0324284E-5,1.1280608E-4,-4.3586537E-5,-1.5615593E-4,1.2867403E-4,-1.4353632E-4,-5.775527E-5],"categories":[],"categories_nodes":[],"categories_segments":[],"categories_sizes":[],"default_left":[0,0,0,0,0,0,0,0,0,0,0,0,0,0,0,0,0,0,0,0,0,0,0,0,0,0,0,0,0,0,0],"id":36,"left_children":[1,3,5,7,9,11,13,15,17,19,21,23,25,27,29,-1,-1,-1,-1,-1,-1,-1,-1,-1,-1,-1,-1,-1,-1,-1,-1],"loss_changes":[5.067822E-1,5.41228E-1,3.5478485E-1,1.5108064E-1,4.154646E-1,2.1815568E-1,4.1939032E-1,2.9820696E-1,1.3941383E-1,5.876702E-1,3.1385526E-1,3.0713135E-1,1.3423286E-1,2.3155904E-1,2.6709878E-1,0E0,0E0,0E0,0E0,0E0,0E0,0E0,0E0,0E0,0E0,0E0,0E0,0E0,0E0,0E0,0E0],"parents":[2147483647,0,0,1,1,2,2,3,3,4,4,5,5,6,6,7,7,8,8,9,9,10,10,11,11,12,12,13,13,14,14],"right_children":[2,4,6,8,10,12,14,16,18,20,22,24,26,28,30,-1,-1,-1,-1,-1,-1,-1,-1,-1,-1,-1,-1,-1,-1,-1,-1],"split_conditions":[-3.2124013E-2,-8.050372E-1,7.176646E-2,-4.5547366E-1,2.9531837E0,-1.3772455E0,-1.1651094E0,1.10509016E-1,-5.426495E-1,2.8634937E0,1.4408445E0,9.444638E1,-4.429093E-1,-4.863777E-1,1.904189E-1,-1.7496722E-4,1.2862206E-4,-5.685852E-5,-2.0500433E-4,1.1814941E-4,6.583745E-4,5.4920474E-5,-6.0330018E-5,6.067041E-4,7.0324284E-5,1.1280608E-4,-4.3586537E-5,-1.5615593E-4,1.2867403E-4,-1.4353632E-4,-5.775527E-5],"split_indices":[14,16,26,20,28,1,20,26,18,28,15,0,22,11,25,0,0,0,0,0,0,0,0,0,0,0,0,0,0,0,0],"split_type":[0,0,0,0,0,0,0,0,0,0,0,0,0,0,0,0,0,0,0,0,0,0,0,0,0,0,0,0,0,0,0],"sum_hessian":[3.51132E5,1.64183E5,1.86949E5,3.4931E4,1.29252E5,2.6948E4,1.60001E5,1.1913E4,2.3018E4,1.5129E4,1.14123E5,4.537E3,2.2411E4,1.6272E4,1.43729E5,5.061E3,6.852E3,1.137E4,1.1648E4,1.302E4,2.109E3,8.5881E4,2.8242E4,1.392E3,3.145E3,7.341E3,1.507E4,3.186E3,1.3086E4,5.0449E4,9.328E4],"tree_param":{"num_deleted":"0","num_feature":"30","num_nodes":"31","size_leaf_vector":"1"}},{"base_weights":[-1.48885665E-5,2.0416444E-3,-6.6036417E-4,7.957802E-3,1.4567343E-3,1.2145941E-3,-1.297468E-3,1.8084943E-2,4.497598E-3,-1.8511489E-3,2.7379459E-3,1.640244E-3,-8.654227E-3,1.4218341E-3,-1.8831324E-3,6.4870354E-4,4.6932203E-4,4.698069E-4,6.245499E-5,-1.3624897E-4,7.1168615E-5,1.1598932E-4,-7.05261E-5,3.7481055E-5,3.123559E-4,-3.0975477E-4,2.7348782E-4,2.0420099E-5,6.356079E-4,-2.7381066E-5,-1.1996167E-4],"categories":[],"categories_nodes":[],"categories_segments":[],"categories_sizes":[],"default_left":[0,0,0,0,0,0,0,0,0,0,0,0,0,0,0,0,0,0,0,0,0,0,0,0,0,0,0,0,0,0,0],"id":37,"left_children":[1,3,5,7,9,11,13,15,17,19,21,23,25,27,29,-1,-1,-1,-1,-1,-1,-1,-1,-1,-1,-1,-1,-1,-1,-1,-1],"loss_changes":[4.6814755E-1,2.9052734E-1,3.2079044E-1,2.626015E-1,3.25055E-1,2.8525347E-1,3.1932288E-1,1.2162566E-2,1.5043926E-1,2.432494E-1,3.1765288E-1,2.2257273E-1,8.359882E-2,5.177717E-1,3.3820677E-1,0E0,0E0,0E0,0E0,0E0,0E0,0E0,0E0,0E0,0E0,0E0,0E0,0E0,0E0,0E0,0E0],"parents":[2147483647,0,0,1,1,2,2,3,3,4,4,5,5,6,6,7,7,8,8,9,9,10,10,11,11,12,12,13,13,14,14],"right_children":[2,4,6,8,10,12,14,16,18,20,22,24,26,28,30,-1,-1,-1,-1,-1,-1,-1,-1,-1,-1,-1,-1,-1,-1,-1,-1],"split_conditions":[-7.5592464E-1,3.1587962E-2,-6.271923E-1,2.0837654E3,-3.505895E-1,1.5802258E0,3.0674353E0,5.755156E0,2.0733505E-2,7.590924E-2,8.4021354E-1,1.3642856E0,7.044093E-1,6.339436E0,-8.242872E-1,6.4870354E-4,4.6932203E-4,4.698069E-4,6.245499E-5,-1.3624897E-4,7.1168615E-5,1.1598932E-4,-7.05261E-5,3.7481055E-5,3.123559E-4,-3.0975477E-4,2.7348782E-4,2.0420099E-5,6.356079E-4,-2.7381066E-5,-1.1996167E-4],"split_indices":[27,12,20,5,11,14,28,8,26,26,11,11,2,8,1,0,0,0,0,0,0,0,0,0,0,0,0,0,0,0,0],"split_type":[0,0,0,0,0,0,0,0,0,0,0,0,0,0,0,0,0,0,0,0,0,0,0,0,0,0,0,0,0,0,0],"sum_hessian":[3.52769E5,8.4234E4,2.68535E5,7.561E3,7.6673E4,6.8065E4,2.0047E5,1.916E3,5.645E3,2.1384E4,5.5289E4,6.5262E4,2.803E3,3.5494E4,1.64976E5,7.59E2,1.157E3,9.95E2,4.65E3,1.3077E4,8.307E3,4.5271E4,1.0018E4,6.2491E4,2.771E3,2.568E3,2.35E2,3.4218E4,1.276E3,1.13132E5,5.1844E4],"tree_param":{"num_deleted":"0","num_feature":"30","num_nodes":"31","size_leaf_vector":"1"}},{"base_weights":[-1.4580441E-5,4.853568E-4,-3.0377212E-3,-2.173561E-4,3.0926857E-3,-5.3314627E-3,-1.3336786E-3,-2.3368394E-3,6.456663E-4,3.6792255E-3,-7.5102123E-3,-7.5888415E-3,-2.3030904E-3,5.9913616E-3,-2.3724898E-3,1.9937987E-4,-8.5413536E-5,-1.9754028E-4,3.0045836E-5,2.1952841E-5,1.6347677E-4,5.953148E-4,-3.0151632E-4,3.6081029E-4,-2.4795474E-4,-1.8562212E-5,-3.533414E-4,5.1148298E-5,6.3981407E-4,5.83656E-4,-8.0354796E-5],"categories":[],"categories_nodes":[],"categories_segments":[],"categories_sizes":[],"default_left":[0,0,0,0,0,1,0,0,0,0,0,0,0,0,0,0,0,0,0,0,0,0,0,0,0,0,0,0,0,0,0],"id":38,"left_children":[1,3,5,7,9,11,13,15,17,19,21,23,25,27,29,-1,-1,-1,-1,-1,-1,-1,-1,-1,-1,-1,-1,-1,-1,-1,-1],"loss_changes":[5.3157496E-1,5.529402E-1,1.9441476E-1,4.3472242E-1,3.9809996E-1,1.4424473E-1,2.177957E-1,3.1491432E-1,4.3375945E-1,3.1614053E-1,2.3220545E-1,1.6107732E-1,1.4392605E-1,2.3091953E-1,1.6620511E-1,0E0,0E0,0E0,0E0,0E0,0E0,0E0,0E0,0E0,0E0,0E0,0E0,0E0,0E0,0E0,0E0],"parents":[2147483647,0,0,1,1,2,2,3,3,4,4,5,5,6,6,7,7,8,8,9,9,10,10,11,11,12,12,13,13,14,14],"right_children":[2,4,6,8,10,12,14,16,18,20,22,24,26,28,30,-1,-1,-1,-1,-1,-1,-1,-1,-1,-1,-1,-1,-1,-1,-1,-1],"split_conditions":[9.6035965E1,6.0892735E0,2.0135996E-1,-3.4649247E-1,1.9997928E0,-1.1821955E-1,5.963333E0,5.5019608E0,-8.467085E-2,-5.4948498E-2,5.773754E0,6.946415E-2,2.6301076E0,2.2371494E3,-1.5290164E0,1.9937987E-4,-8.5413536E-5,-1.9754028E-4,3.0045836E-5,2.1952841E-5,1.6347677E-4,5.953148E-4,-3.0151632E-4,3.6081029E-4,-2.4795474E-4,-1.8562212E-5,-3.533414E-4,5.1148298E-5,6.3981407E-4,5.83656E-4,-8.0354796E-5],"split_indices":[0,8,25,11,27,27,9,9,2,24,9,23,27,5,1,0,0,0,0,0,0,0,0,0,0,0,0,0,0,0,0],"split_type":[0,0,0,0,0,0,0,0,0,0,0,0,0,0,0,0,0,0,0,0,0,0,0,0,0,0,0,0,0,0,0],"sum_hessian":[3.51542E5,3.0163E5,4.9912E4,2.37566E5,6.4064E4,2.1248E4,2.8664E4,6.8775E4,1.68791E5,6.0716E4,3.348E3,1.2153E4,9.095E3,3.547E3,2.5117E4,3.685E3,6.509E4,7.903E3,1.60888E5,2.2803E4,3.7913E4,2.8E2,3.068E3,3.99E2,1.1754E4,7.733E3,1.362E3,2.779E3,7.68E2,3.41E2,2.4776E4],"tree_param":{"num_deleted":"0","num_feature":"30","num_nodes":"31","size_leaf_vector":"1"}},{"base_weights":[1.656651E-4,8.342542E-4,-2.8104305E-3,4.884131E-3,3.722775E-4,1.7955339E-2,-3.046942E-3,1.1001242E-2,1.8496957E-3,-1.539538E-4,3.231037E-3,2.9685328E-4,6.428965E-4,-2.5483896E-3,-1.1446071E-2,6.62004E-6,4.662506E-4,3.7661976E-5,9.084923E-4,3.4224944E-5,-4.5290213E-5,1.7796553E-4,-2.0837551E-5,-4.5776065E-5,-1.6144954E-4,-6.373444E-4,-3.0371474E-4],"categories":[],"categories_nodes":[],"categories_segments":[],"categories_sizes":[],"default_left":[0,0,0,0,0,0,1,0,0,0,0,0,0,0,0,0,0,0,0,0,0,0,0,0,0,0,0],"id":39,"left_children":[1,3,5,7,9,11,13,15,17,19,21,-1,-1,23,25,-1,-1,-1,-1,-1,-1,-1,-1,-1,-1,-1,-1],"loss_changes":[6.459042E-1,4.9559206E-1,2.9103023E-1,5.022421E-1,3.5841465E-1,1.50951445E-2,2.4507153E-1,4.3817115E-1,3.0341554E-1,3.5288653E-1,3.932501E-1,0E0,0E0,1.6033798E-1,3.902051E-2,0E0,0E0,0E0,0E0,0E0,0E0,0E0,0E0,0E0,0E0,0E0,0E0],"parents":[2147483647,0,0,1,1,2,2,3,3,4,4,5,5,6,6,7,7,8,8,9,9,10,10,13,13,14,14],"right_children":[2,4,6,8,10,12,14,16,18,20,22,-1,-1,24,26,-1,-1,-1,-1,-1,-1,-1,-1,-1,-1,-1,-1],"split_conditions":[8.849793E-1,6.0557984E-2,4.9563923E0,-7.047751E-1,1.0650077E0,2.3949367E-1,3.0612296E-1,-1.2654244E0,3.574044E-1,-6.353655E0,1.4572635E0,2.9685328E-4,6.428965E-4,6.0214543E0,-6.978281E-1,6.62004E-6,4.662506E-4,3.7661976E-5,9.084923E-4,3.4224944E-5,-4.5290213E-5,1.7796553E-4,-2.0837551E-5,-4.5776065E-5,-1.6144954E-4,-6.373444E-4,-3.0371474E-4],"split_indices":[14,12,8,14,24,2,26,22,26,10,15,0,0,8,29,0,0,0,0,0,0,0,0,0,0,0,0],"split_type":[0,0,0,0,0,0,0,0,0,0,0,0,0,0,0,0,0,0,0,0,0,0,0,0,0,0,0],"sum_hessian":[3.24705E5,2.65169E5,5.9536E4,2.7127E4,2.38042E5,6.64E2,5.8872E4,8.982E3,1.8145E4,2.01008E5,3.7034E4,2.11E2,4.53E2,5.5587E4,3.285E3,2.669E3,6.313E3,1.7779E4,3.66E2,1.02777E5,9.8231E4,2.1953E4,1.5081E4,4.0874E4,1.4713E4,3.78E2,2.907E3],"tree_param":{"num_deleted":"0","num_feature":"30","num_nodes":"27","size_leaf_vector":"1"}},{"base_weights":[2.9841627E-4,7.870518E-4,-3.1574168E-3,2.94963E-3,1.14825365E-4,-4.5827175E-3,-1.0956841E-3,5.5886125E-3,5.4055924E-4,-4.0339722E-4,3.622304E-3,-1.1034499E-2,-3.4772996E-3,1.2142305E-2,-1.8383872E-3,1.4229577E-4,7.156056E-4,4.7866834E-4,1.8135946E-6,8.910976E-7,-1.7965779E-4,9.613296E-5,8.5657206E-4,-2.5317085E-4,-6.15445E-4,-1.6817554E-4,-1.7511667E-5,-1.8373988E-5,8.766925E-4,1.9172167E-5,-1.2700945E-4],"categories":[],"categories_nodes":[],"categories_segments":[],"categories_sizes":[],"default_left":[0,0,0,0,0,0,0,0,0,0,0,0,0,0,0,0,0,0,0,0,0,0,0,0,0,0,0,0,0,0,0],"id":40,"left_children":[1,3,5,7,9,11,13,15,17,19,21,23,25,27,29,-1,-1,-1,-1,-1,-1,-1,-1,-1,-1,-1,-1,-1,-1,-1,-1],"loss_changes":[5.696427E-1,4.2955858E-1,1.2219936E-1,4.449398E-1,4.1041315E-1,1.7444497E-1,1.6722816E-1,5.130621E-1,2.69712E-1,4.7603622E-1,2.9945967E-1,8.521667E-2,1.2921512E-1,1.9940786E-1,9.65517E-2,0E0,0E0,0E0,0E0,0E0,0E0,0E0,0E0,0E0,0E0,0E0,0E0,0E0,0E0,0E0,0E0],"parents":[2147483647,0,0,1,1,2,2,3,3,4,4,5,5,6,6,7,7,8,8,9,9,10,10,11,11,12,12,13,13,14,14],"right_children":[2,4,6,8,10,12,14,16,18,20,22,24,26,28,30,-1,-1,-1,-1,-1,-1,-1,-1,-1,-1,-1,-1,-1,-1,-1,-1],"split_conditions":[-5.593237E0,-7.5592464E-1,9.508509E-2,1.4967003E1,1.0650077E0,-6.4433473E-1,-2.6128533E0,1.4610898E1,1.4195831E-1,9.907276E-2,3.3134246E-1,-8.850622E-1,6.850338E-1,9.388797E1,-8.370036E-3,1.4229577E-4,7.156056E-4,4.7866834E-4,1.8135946E-6,8.910976E-7,-1.7965779E-4,9.613296E-5,8.5657206E-4,-2.5317085E-4,-6.15445E-4,-1.6817554E-4,-1.7511667E-5,-1.8373988E-5,8.766925E-4,1.9172167E-5,-1.2700945E-4],"split_indices":[10,27,23,28,24,22,7,28,25,23,25,1,20,0,27,0,0,0,0,0,0,0,0,0,0,0,0,0,0,0,0],"split_type":[0,0,0,0,0,0,0,0,0,0,0,0,0,0,0,0,0,0,0,0,0,0,0,0,0,0,0,0,0,0,0],"sum_hessian":[3.37473E5,2.95694E5,4.1779E4,7.0082E4,2.25612E5,2.4672E4,1.7107E4,3.3424E4,3.6658E4,1.96546E5,2.9066E4,3.593E3,2.1079E4,9E2,1.6207E4,3.1953E4,1.471E3,1.099E3,3.5559E4,1.82387E5,1.4159E4,2.8593E4,4.73E2,2.832E3,7.61E2,1.2124E4,8.955E3,5.13E2,3.87E2,7.947E3,8.26E3],"tree_param":{"num_deleted":"0","num_feature":"30","num_nodes":"31","size_leaf_vector":"1"}},{"base_weights":[-2.9466266E-4,-7.7501003E-4,2.845463E-3,6.518307E-4,-1.8805448E-3,3.4567083E-3,-3.79075E-3,2.3688767E-3,-1.2428917E-3,-1.591005E-3,-8.609054E-3,-1.1586206E-2,3.748377E-3,-9.24786E-3,-1.269123E-3,3.226012E-6,1.5879236E-4,3.0559375E-5,-1.2521648E-4,-1.4514291E-4,-3.2673644E-5,2.8104507E-4,-2.992192E-4,4.9226055E-5,-5.4020074E-4,8.6245615E-5,2.8259988E-4,-2.263841E-4,-3.9816016E-4,-4.3488355E-4,3.1876932E-6],"categories":[],"categories_nodes":[],"categories_segments":[],"categories_sizes":[],"default_left":[0,0,0,0,0,0,0,0,0,0,0,0,0,0,0,0,0,0,0,0,0,0,0,0,0,0,0,0,0,0,0],"id":41,"left_children":[1,3,5,7,9,11,13,15,17,19,21,23,25,27,29,-1,-1,-1,-1,-1,-1,-1,-1,-1,-1,-1,-1,-1,-1,-1,-1],"loss_changes":[5.0975573E-1,4.6272483E-1,1.8183506E-1,4.1650835E-1,3.2093853E-1,1.7946914E-1,5.07755E-2,4.436354E-1,4.0347221E-1,2.5765583E-1,1.6720033E-1,6.751197E-2,1.983248E-1,5.7848096E-3,4.859609E-2,0E0,0E0,0E0,0E0,0E0,0E0,0E0,0E0,0E0,0E0,0E0,0E0,0E0,0E0,0E0,0E0],"parents":[2147483647,0,0,1,1,2,2,3,3,4,4,5,5,6,6,7,7,8,8,9,9,10,10,11,11,12,12,13,13,14,14],"right_children":[2,4,6,8,10,12,14,16,18,20,22,24,26,28,30,-1,-1,-1,-1,-1,-1,-1,-1,-1,-1,-1,-1,-1,-1,-1,-1],"split_conditions":[1.0650077E0,-6.375844E0,9.4985596E1,9.274587E1,1.7889874E0,-2.447121E0,3.2772403E0,2.0506512E-1,-1.3585887E0,9.191045E1,8.9970505E1,4.5878296E0,2.2677953E2,9.77276E1,9.528346E1,3.226012E-6,1.5879236E-4,3.0559375E-5,-1.2521648E-4,-1.4514291E-4,-3.2673644E-5,2.8104507E-4,-2.992192E-4,4.9226055E-5,-5.4020074E-4,8.6245615E-5,2.8259988E-4,-2.263841E-4,-3.9816016E-4,-4.3488355E-4,3.1876932E-6],"split_indices":[24,10,0,0,20,14,28,25,7,0,0,8,6,0,0,0,0,0,0,0,0,0,0,0,0,0,0,0,0,0,0],"split_type":[0,0,0,0,0,0,0,0,0,0,0,0,0,0,0,0,0,0,0,0,0,0,0,0,0,0,0,0,0,0,0],"sum_hessian":[3.38088E5,2.93261E5,4.4827E4,1.27987E5,1.65274E5,4.1061E4,3.766E3,6.7169E4,6.0818E4,1.58472E5,6.802E3,7.73E2,4.0288E4,1.176E3,2.59E3,3.7898E4,2.9271E4,3.4311E4,2.6507E4,2.1186E4,1.37286E5,4.74E2,6.328E3,2.48E2,5.25E2,3.4929E4,5.359E3,8.48E2,3.28E2,2.49E2,2.341E3],"tree_param":{"num_deleted":"0","num_feature":"30","num_nodes":"31","size_leaf_vector":"1"}},{"base_weights":[4.7743444E-5,2.216672E-3,-6.5731147E-4,5.8632493E-3,1.0709891E-3,1.5096562E-3,-1.4531849E-3,4.6318043E-3,8.3696924E-4,4.5722504E-3,-1.3521229E-4,-1.0515494E-2,1.8161889E-3,2.7814894E-3,-1.8703487E-3,3.0545346E-4,-2.0699645E-5,5.8366903E-5,4.1463829E-4,-2.8624214E-4,1.2701332E-5,-1.8988825E-4,-3.5857578E-4,1.2015723E-4,4.2307087E-7,5.69892E-4,2.0139782E-5,-7.049646E-5,4.2017076E-5],"categories":[],"categories_nodes":[],"categories_segments":[],"categories_sizes":[],"default_left":[1,0,0,0,0,0,0,0,0,0,0,0,0,0,0,0,0,0,0,0,0,0,0,0,0,0,0,0,0],"id":42,"left_children":[1,3,5,7,9,11,13,15,-1,17,19,21,23,25,27,-1,-1,-1,-1,-1,-1,-1,-1,-1,-1,-1,-1,-1,-1],"loss_changes":[5.3240174E-1,3.561635E-1,4.5294225E-1,5.500583E-1,2.7504754E-1,2.5909376E-1,3.393076E-1,5.718022E-1,0E0,4.0364707E-1,2.5491866E-1,8.517072E-3,2.70894E-1,5.8679855E-1,2.7445507E-1,0E0,0E0,0E0,0E0,0E0,0E0,0E0,0E0,0E0,0E0,0E0,0E0,0E0,0E0],"parents":[2147483647,0,0,1,1,2,2,3,3,4,4,5,5,6,6,7,7,9,9,10,10,11,11,12,12,13,13,14,14],"right_children":[2,4,6,8,10,12,14,16,-1,18,20,22,24,26,28,-1,-1,-1,-1,-1,-1,-1,-1,-1,-1,-1,-1,-1,-1],"split_conditions":[9.182648E-2,-6.508905E-1,6.102857E0,-6.650755E0,-6.8944496E-1,-2.3664021E0,-1.113428E0,9.1949326E1,8.3696924E-4,-1.3416461E0,-1.3155953E0,5.5019608E0,-1.3365827E0,8.928476E1,6.2244897E0,3.0545346E-4,-2.0699645E-5,5.8366903E-5,4.1463829E-4,-2.8624214E-4,1.2701332E-5,-1.8988825E-4,-3.5857578E-4,1.2015723E-4,4.2307087E-7,5.69892E-4,2.0139782E-5,-7.049646E-5,4.2017076E-5],"split_indices":[26,19,9,10,21,16,22,0,0,1,1,9,7,0,8,0,0,0,0,0,0,0,0,0,0,0,0,0,0],"split_type":[0,0,0,0,0,0,0,0,0,0,0,0,0,0,0,0,0,0,0,0,0,0,0,0,0,0,0,0,0],"sum_hessian":[3.48048E5,8.5418E4,2.6263E5,2.0398E4,6.502E4,7.0513E4,1.92117E5,1.9325E4,1.073E3,1.668E4,4.834E4,1.743E3,6.877E4,1.7206E4,1.74911E5,9.468E3,9.857E3,1.3001E4,3.679E3,2.718E3,4.5622E4,4.66E2,1.277E3,3.1025E4,3.7745E4,1.974E3,1.5232E4,1.52574E5,2.2337E4],"tree_param":{"num_deleted":"0","num_feature":"30","num_nodes":"29","size_leaf_vector":"1"}},{"base_weights":[3.2078402E-4,1.5801413E-3,-9.1001036E-4,2.5496536E-3,-1.5897888E-3,-4.0132822E-3,-2.2607537E-4,-3.3982357E-3,3.0149117E-3,-6.3110525E-3,-3.1717392E-4,-6.217722E-3,-1.0685589E-3,1.7073339E-4,-5.9173554E-3,9.5185744E-5,-1.4906883E-4,5.584915E-4,8.606965E-5,-2.9595493E-4,8.4810126E-5,-2.721181E-5,3.589169E-4,-3.059512E-4,-8.951305E-5,-1.09463595E-4,1.4189167E-4,-3.102874E-6,2.2564395E-4,1.1443413E-4,-2.0429226E-4],"categories":[],"categories_nodes":[],"categories_segments":[],"categories_sizes":[],"default_left":[0,0,0,0,0,1,0,1,0,0,0,0,0,0,0,0,0,0,0,0,0,0,0,0,0,0,0,0,0,0,0],"id":43,"left_children":[1,3,5,7,9,11,13,15,17,19,21,23,25,27,29,-1,-1,-1,-1,-1,-1,-1,-1,-1,-1,-1,-1,-1,-1,-1,-1],"loss_changes":[5.375947E-1,5.2700675E-1,3.7173074E-1,3.633734E-1,2.4046029E-1,2.0464158E-1,3.2511735E-1,9.838813E-2,2.7505016E-1,2.769498E-1,2.2805758E-1,2.3129189E-1,2.0290077E-1,2.7144992E-1,8.183864E-2,0E0,0E0,0E0,0E0,0E0,0E0,0E0,0E0,0E0,0E0,0E0,0E0,0E0,0E0,0E0,0E0],"parents":[2147483647,0,0,1,1,2,2,3,3,4,4,5,5,6,6,7,7,8,8,9,9,10,10,11,11,12,12,13,13,14,14],"right_children":[2,4,6,8,10,12,14,16,18,20,22,24,26,28,30,-1,-1,-1,-1,-1,-1,-1,-1,-1,-1,-1,-1,-1,-1,-1,-1],"split_conditions":[9.324692E1,1.4846239E0,1.7245486E-1,4.5878296E0,1.5413187E0,-2.2569507E-1,1.5880545E0,-4.9814907E-1,1.2709174E2,6.047882E0,2.3432058E3,-6.9633645E-1,-3.1933174E-1,4.605996E-1,-1.769678E0,9.5185744E-5,-1.4906883E-4,5.584915E-4,8.606965E-5,-2.9595493E-4,8.4810126E-5,-2.721181E-5,3.589169E-4,-3.059512E-4,-8.951305E-5,-1.09463595E-4,1.4189167E-4,-3.102874E-6,2.2564395E-4,1.1443413E-4,-2.0429226E-4],"split_indices":[0,15,25,8,15,27,19,29,6,8,5,15,29,25,7,0,0,0,0,0,0,0,0,0,0,0,0,0,0,0,0],"split_type":[0,0,0,0,0,0,0,0,0,0,0,0,0,0,0,0,0,0,0,0,0,0,0,0,0,0,0,0,0,0,0],"sum_hessian":[3.46786E5,1.71444E5,1.75342E5,1.31314E5,4.013E4,3.1637E4,1.43705E5,9.51E3,1.21804E5,8.502E3,3.1628E4,1.8072E4,1.3565E4,1.34324E5,9.381E3,1.822E3,7.688E3,1.12E3,1.20684E5,6.129E3,2.373E3,3.0188E4,1.44E3,8.085E3,9.987E3,9.4E3,4.165E3,1.29483E5,4.841E3,7.78E2,8.603E3],"tree_param":{"num_deleted":"0","num_feature":"30","num_nodes":"31","size_leaf_vector":"1"}},{"base_weights":[-1.4665662E-4,2.1678359E-4,-3.569208E-3,-1.7379252E-4,3.127933E-3,4.0471526E-3,-4.468356E-3,7.211792E-4,-1.7937457E-3,-5.8280246E-4,3.3362408E-3,-3.6810646E-3,1.265189E-2,-6.092355E-3,-6.302027E-4,-1.6889584E-4,3.2621232E-5,8.016173E-5,-7.444682E-5,1.5665531E-4,1.985163E-5,-1.7738162E-4,3.45678E-4,-3.4172997E-5,5.455472E-4,-3.336943E-4,-1.5301978E-4,-1.1211268E-4,1.2004342E-4],"categories":[],"categories_nodes":[],"categories_segments":[],"categories_sizes":[],"default_left":[0,0,0,0,0,0,0,0,0,0,0,0,0,0,0,0,0,0,0,0,0,0,0,0,0,0,0,0,0],"id":44,"left_children":[1,3,5,7,9,11,13,15,17,-1,19,21,23,25,27,-1,-1,-1,-1,-1,-1,-1,-1,-1,-1,-1,-1,-1,-1],"loss_changes":[4.2468336E-1,3.5092214E-1,2.2452915E-1,3.942616E-1,1.7005149E-1,2.3041275E-1,1.821199E-1,4.067428E-1,2.972897E-1,0E0,1.818685E-1,6.1089184E-2,1.2681124E-1,1.00982845E-1,1.2577216E-1,0E0,0E0,0E0,0E0,0E0,0E0,0E0,0E0,0E0,0E0,0E0,0E0,0E0,0E0],"parents":[2147483647,0,0,1,1,2,2,3,3,4,4,5,5,6,6,7,7,8,8,10,10,11,11,12,12,13,13,14,14],"right_children":[2,4,6,8,10,12,14,16,18,-1,20,22,24,26,28,-1,-1,-1,-1,-1,-1,-1,-1,-1,-1,-1,-1,-1,-1],"split_conditions":[-5.5080996E0,1.0650077E0,3.2258067E0,-1.2339122E0,-9.140217E-1,-1.0907925E0,8.405591E0,-3.0765E0,9.00063E1,-5.8280246E-4,1.4239088E0,2.6951034E0,1.7866584E3,3.428243E-1,1.6253816E0,-1.6889584E-4,3.2621232E-5,8.016173E-5,-7.444682E-5,1.5665531E-4,1.985163E-5,-1.7738162E-4,3.45678E-4,-3.4172997E-5,5.455472E-4,-3.336943E-4,-1.5301978E-4,-1.1211268E-4,1.2004342E-4],"split_indices":[10,24,28,7,15,4,28,7,0,0,15,28,5,12,19,0,0,0,0,0,0,0,0,0,0,0,0,0,0],"split_type":[0,0,0,0,0,0,0,0,0,0,0,0,0,0,0,0,0,0,0,0,0,0,0,0,0,0,0,0,0],"sum_hessian":[3.41142E5,3.08369E5,3.2773E4,2.71862E5,3.6507E4,3.448E3,2.9325E4,1.75077E5,9.6785E4,3.28E2,3.6179E4,1.811E3,1.637E3,2.0587E4,8.738E3,9.528E3,1.65549E5,1.2897E4,8.3888E4,2.1196E4,1.4983E4,1.586E3,2.25E2,4.64E2,1.173E3,3.37E3,1.7217E4,5.243E3,3.495E3],"tree_param":{"num_deleted":"0","num_feature":"30","num_nodes":"29","size_leaf_vector":"1"}},{"base_weights":[-1.0486392E-5,-1.0148E-3,1.1723138E-3,-5.5503164E-4,-4.963228E-3,5.4211966E-3,5.372689E-4,-2.3066213E-3,4.63292E-4,-1.4687539E-2,-4.0981197E-3,2.1524767E-3,1.0174843E-2,-2.0682996E-3,1.7847412E-3,-2.9354887E-5,-1.7657029E-4,2.3076424E-5,-2.528431E-4,-4.9142854E-4,-3.9422046E-4,-1.4892452E-4,1.3659126E-4,1.9442381E-5,3.0041044E-4,4.1527572E-4,7.7191115E-5,-1.9737094E-4,-1.1670791E-5,-2.8338633E-4,6.0926843E-5],"categories":[],"categories_nodes":[],"categories_segments":[],"categories_sizes":[],"default_left":[0,0,0,0,0,0,0,0,1,0,0,0,0,0,0,0,0,0,0,0,0,0,0,0,0,0,0,0,0,0,0],"id":45,"left_children":[1,3,5,7,9,11,13,15,17,19,21,23,25,27,29,-1,-1,-1,-1,-1,-1,-1,-1,-1,-1,-1,-1,-1,-1,-1,-1],"loss_changes":[4.0798715E-1,3.3672434E-1,4.248339E-1,2.9706305E-1,1.608266E-1,3.1696415E-1,4.4590762E-1,2.9033574E-1,2.8544244E-1,7.325113E-4,1.3334218E-1,1.4262313E-1,2.3059177E-1,3.35564E-1,2.5585184E-1,0E0,0E0,0E0,0E0,0E0,0E0,0E0,0E0,0E0,0E0,0E0,0E0,0E0,0E0,0E0,0E0],"parents":[2147483647,0,0,1,1,2,2,3,3,4,4,5,5,6,6,7,7,8,8,9,9,10,10,11,11,12,12,13,13,14,14],"right_children":[2,4,6,8,10,12,14,16,18,20,22,24,26,28,30,-1,-1,-1,-1,-1,-1,-1,-1,-1,-1,-1,-1,-1,-1,-1,-1],"split_conditions":[2.0763502E-1,9.623555E1,9.419981E-2,6.002115E-1,-1.337812E0,-1.1490644E0,-3.1988516E-1,7.7457327E-1,2.041078E0,9.677359E1,1.4896008E0,7.3049444E-1,6.497288E0,-3.4381458E-1,-2.3664021E0,-2.9354887E-5,-1.7657029E-4,2.3076424E-5,-2.528431E-4,-4.9142854E-4,-3.9422046E-4,-1.4892452E-4,1.3659126E-4,1.9442381E-5,3.0041044E-4,4.1527572E-4,7.7191115E-5,-1.9737094E-4,-1.1670791E-5,-2.8338633E-4,6.0926843E-5],"split_indices":[25,0,12,2,11,22,11,20,27,0,19,27,9,22,17,0,0,0,0,0,0,0,0,0,0,0,0,0,0,0,0],"split_type":[0,0,0,0,0,0,0,0,0,0,0,0,0,0,0,0,0,0,0,0,0,0,0,0,0,0,0,0,0,0,0],"sum_hessian":[3.43461E5,1.85791E5,1.5767E5,1.66438E5,1.9353E4,2.0479E4,1.37191E5,6.1224E4,1.05214E5,1.569E3,1.7784E4,1.2149E4,8.33E3,4.4391E4,9.28E4,4.4676E4,1.6548E4,1.01727E5,3.487E3,7.09E2,8.6E2,1.6177E4,1.607E3,1.021E4,1.939E3,5.609E3,2.721E3,1.2025E4,3.2366E4,1.98E3,9.082E4],"tree_param":{"num_deleted":"0","num_feature":"30","num_nodes":"31","size_leaf_vector":"1"}},{"base_weights":[2.1126133E-4,1.5174134E-3,-8.210045E-4,9.9776684E-5,3.546707E-3,-5.306002E-3,-5.1541155E-4,1.1719291E-3,-3.2885624E-3,5.886508E-3,7.935349E-4,-6.592716E-3,-8.5267663E-4,1.2523484E-2,-6.7703886E-4,8.636013E-5,-2.306114E-5,-2.8541696E-4,-5.5546672E-5,1.3519256E-4,4.6728304E-4,7.102591E-4,9.36804E-6,-1.6018919E-4,-3.6097455E-4,-1.7898048E-4,1.2316367E-4,9.938701E-4,2.400602E-4,3.4030454E-4,-2.3570137E-5],"categories":[],"categories_nodes":[],"categories_segments":[],"categories_sizes":[],"default_left":[0,0,0,0,0,0,0,0,0,0,0,0,0,0,0,0,0,0,0,0,0,0,0,0,0,0,0,0,0,0,0],"id":46,"left_children":[1,3,5,7,9,11,13,15,17,19,21,23,25,27,29,-1,-1,-1,-1,-1,-1,-1,-1,-1,-1,-1,-1,-1,-1,-1,-1],"loss_changes":[4.740171E-1,4.4615734E-1,2.6845935E-1,3.3187175E-1,4.1035944E-1,7.08769E-2,3.8618428E-1,2.3028475E-1,1.9518965E-1,4.5884156E-1,3.2064146E-1,6.4124286E-2,7.1780115E-2,2.0433119E-1,2.3604764E-1,0E0,0E0,0E0,0E0,0E0,0E0,0E0,0E0,0E0,0E0,0E0,0E0,0E0,0E0,0E0,0E0],"parents":[2147483647,0,0,1,1,2,2,3,3,4,4,5,5,6,6,7,7,8,8,9,9,10,10,11,11,12,12,13,13,14,14],"right_children":[2,4,6,8,10,12,14,16,18,20,22,24,26,28,30,-1,-1,-1,-1,-1,-1,-1,-1,-1,-1,-1,-1,-1,-1,-1,-1],"split_conditions":[-1.299391E-1,-1.3703755E-1,2.1077813E-1,1.4846239E0,9.291343E1,2.1913198E-1,8.878161E1,-3.84685E-2,1.5181829E0,9.255705E1,5.714855E0,9.287177E1,9.170766E1,-1.854386E0,-1.5290164E0,8.636013E-5,-2.306114E-5,-2.8541696E-4,-5.5546672E-5,1.3519256E-4,4.6728304E-4,7.102591E-4,9.36804E-6,-1.6018919E-4,-3.6097455E-4,-1.7898048E-4,1.2316367E-4,9.938701E-4,2.400602E-4,3.4030454E-4,-2.3570137E-5],"split_indices":[19,17,2,21,0,25,0,22,21,0,8,0,0,7,1,0,0,0,0,0,0,0,0,0,0,0,0,0,0,0,0],"split_type":[0,0,0,0,0,0,0,0,0,0,0,0,0,0,0,0,0,0,0,0,0,0,0,0,0,0,0,0,0,0,0],"sum_hessian":[3.51512E5,1.55213E5,1.96299E5,9.1408E4,6.3805E4,1.2499E4,1.838E5,6.946E4,2.1948E4,3.4471E4,2.9334E4,9.679E3,2.82E3,2.241E3,1.81559E5,3.6984E4,3.2476E4,4.101E3,1.7847E4,3.0185E4,4.286E3,5.98E2,2.8736E4,7.885E3,1.794E3,1.398E3,1.422E3,3.97E2,1.844E3,1.616E3,1.79943E5],"tree_param":{"num_deleted":"0","num_feature":"30","num_nodes":"31","size_leaf_vector":"1"}},{"base_weights":[-0E0,7.782418E-4,-1.7920659E-3,4.3834336E-3,2.6018484E-4,2.7329125E-3,-2.3403554E-3,-9.843167E-4,7.390205E-3,9.2807546E-4,-1.8569003E-3,5.035933E-3,-9.468383E-3,-2.0872864E-3,-1.0744713E-2,-6.5043225E-4,-1.1296277E-5,4.0044007E-4,1.01836995E-4,1.0304136E-5,1.297884E-4,-1.1451516E-4,4.376838E-6,-3.5876285E-5,2.205159E-4,-6.545797E-5,-3.733486E-4,-5.4086566E-5,-2.673817E-4,-3.8441675E-4,-4.450946E-5],"categories":[],"categories_nodes":[],"categories_segments":[],"categories_sizes":[],"default_left":[0,0,0,0,0,0,0,0,0,0,0,0,0,0,0,0,0,0,0,0,0,0,0,0,0,0,0,0,0,0,0],"id":47,"left_children":[1,3,5,7,9,11,13,15,17,19,21,23,25,27,29,-1,-1,-1,-1,-1,-1,-1,-1,-1,-1,-1,-1,-1,-1,-1,-1],"loss_changes":[4.8076808E-1,4.4837582E-1,2.589402E-1,4.8758674E-1,2.9706013E-1,3.1611246E-1,1.9672734E-1,1.3390735E-1,4.5886588E-1,3.169697E-1,1.980945E-1,1.374026E-1,3.7132144E-2,1.7440039E-1,5.046341E-2,